tree
version=v4
num_class=1
num_tree_per_iteration=1
label_index=0
max_feature_idx=36
objective=regression
feature_names=Column_0 Column_1 Column_2 Column_3 Column_4 Column_5 Column_6 Column_7 Column_8 Column_9 Column_10 Column_11 Column_12 Column_13 Column_14 Column_15 Column_16 Column_17 Column_18 Column_19 Column_20 Column_21 Column_22 Column_23 Column_24 Column_25 Column_26 Column_27 Column_28 Column_29 Column_30 Column_31 Column_32 Column_33 Column_34 Column_35 Column_36
feature_infos=[-0.98119894669509733:1.6682474202444999] [-1.6173846839070645:2.7494446287493846] [-1.2667735289613429:3.6884424506603795] [-1.8847286325140604:2.200793407224451] [-0.4978247036822952:6.2522603150835288] [-1.9520440773234076:1.620129867754394] [-1.2411310198912584:1.4650816584666781] [-1.2957330211398488:1.4946623592315345] [-1.31134263106007:1.6021375849437174] none none [-1.6168532327111622:1.584495944751964] [-1.2864709259485954:1.2751435089905574] [-0.70392650022125591:1.4206028607897034] [-0.23672211185021536:4.2243624483746762] [-0.23222423618599855:4.3061827500169114] [-0.20775730360047762:4.8133085223469427] [-0.12275557971070895:8.1462692152702392] [-0.75269596270416694:1.328557677401853] [-0.44126747119187859:2.2661992222063532] [-0.43656897252345306:2.7283775662612282] [-0.90586232065960182:1.1039205155059897] [-2.9899117728714382:1.7567652600537083] [-1.1774027735054249:1.4625810656717531] [-0.28884265778066881:4.8693611953500175] none none [-1.4453663025797059:2.7750899703899488] [-2.5627961373866146:2.7578090092655243] [-0.95188561086687784:1.8889657738978056] [-0.44126747119187859:2.2661992222063532] [-0.65889339337269093:2.8149725240593484] [-0.23672211185021536:4.2243624483746762] [-0.441018330654672:2.3771867183864188] [-0.91381553517067404:5.0776200646694489] [-1.1639928186979955:4.301919382565945] [-1.1460158104092182:2.2411364249959642]
tree_sizes=4485 5052 4507 4753 4813 4926 4947 5006 5074 5057 5252 4961 5309 5768 5686 5385 5580 5824 5498 4778 5671 5743 5661 5661 5605 6146 4948 5678 5487 5619 5259 4162 5837 5767 6044 4913 5987 6024 5948 5988 5884 5992 6045 6063 5987 6072 6061 6022 5944 5443 5851 5537 4716 6033 5472 5799 6077 5834 5381 5476 5387 5996 5936 6102 5863 6164 5094 4968 6099 6029 5638 5710 5270 6015 6093 5154 5697 5921 5488 4788 5329 5544 5538 5468 6060 5372 4947 4527 5892 5557 5955 5109 5728 5408 4719 5681 5097 6026 4849 5210 5161 5049 4786 5702 4996 5776 5595 5627 5911 4989 4635 5597 6034 5726 6010 3890 6122 5947 5635 4036 3932 5996 3959 5741 5992 5870 4951 5973 4118 5608 4455 6067 3860 5700 4664 5070 5464 5417 5144 4012 4138 3204 4299 4343 5310 4954 5151 4890 3389 5217 5513 2331 3858 5903 3059 5511 4728 4035 5181 4624 4912 2289 2414 2260 5195 4639 2561 5187 2580 5132 2373 5657 5689 6137 3706 5879 2637 3726 3521 5351 4992 5364 5291 3329 5687 3352 2623 5421 4728 3225 5047 2518 4885 5026 3204 2861 4784 4502 4586 4183 4320 4065 4136 3464 5532 5201 5836 4538 5849 3818 5586 4762 2765 3794 5767 4778 3996 5876 4281 4685 5896 4613 3330 5174 4267 3717 3950 4129 4790 4275 5941 3081 4361 5130 5946 5647 5552 5605 5609 4703 4502 5335 5300 3838 3903 5798 2646 5739 3389 4180 3886 3648 3895 5181 4387 4753 5804 4879 4287 4669 3618 5322 5610 1835 3852 4147 4451 4552 3135 4900 3140 4969 3967 4832 3129 4038 2109 4544 5644 1687 5801 4055 5733 3854 3425 1643 5432 4731 3809 4653 4308 5658 4461 4023 3592 4387 4700 5430 5151 5152 4876 5145 5385 5729 4103 5195 5569 5502 4073 4204 5631 4050 4320 5730 5602 3972 4549 3058 5525 4499 4792 4512 5735 5648 5863 5706 5789 5764 5597 5170 4452 4712 5708 5715 5189 4683 4442 3426 3282 5184 4515 3258 4982 5538 4125 3335 5150 4680 5293 5429 4381 4395 4338 5834 2127 4692 5760 5820 5612 5692 5258 5755 5363 5563 4665 5314 4429 5772 5213 5678 5315 5813 5710 5773 3532 5604 4898 5766 5150 3020 5688 4144 5642 4965 4832 5685 5222 5263 5830 5805 4961 4939 5187 5736 5525 5261 5423 4105 5244 5075 5040 4887 5479 5278 4245 4137 3978 4655 4595 3421 5649 3923 5697 5095 5833 5742 4935 3681 5744 5647 5608 3486 4613 5703 5565 3917 5763 3666 5337 5194 5634 5314 5169 5464 4423 3687 5158 4051 4864 5594 5681 5175 5272 5673 5799 4480 4701 3415 5618 5219 5287 4935 3690 5588 5160 4472 3286 5696 5669 4568 5367 5564 4177 5523 5480 5186 5643 5688 5451 3328 4246 5560 5633 5755 5601 4663 3821 5600 3538 5633 5627 5703 5715 5594 4387 5715 5697 5535 5600 5576 5441 5764 5582 5601 5591 5673 5524 5549 5632 4863 5177 5525 5552 4672 5580 5560 5446 4638 4503 5326 4694 5222 5732 4230 4186 4628 5549 4753 5598 5500 5669 5190 4945 5544 3796 5619 4136 5668 5205 5733 5589 5053 5030 5539 5538 4939 5597 5115 4848 5633 4474 5109 4839 5017 4569 5123 5482 5552 5670 5313 5623 4978 5639 5077 4251 5567 5702 5279 5540 3863 5288 5661 5299 3657 3739 4843 5517 3962 4888 4731 3867 5059 4588 4050 3008 4714 4554 4541 4366 5559 3339 4514 5486 4530 3732 5569 3660 4136 5265 4974 4232 5449 5466 5628 4199 4502 5050 4874 4568 5410 5588 4242 3647 5555 5357 4893 5589 5461 5409 5555 3215 5513 5536 5452 5219 5514 5387 4813 2508 3715 5500 2825 3456 5510 5421 5638 3330 4729 5388 3337 5432 4669 4236 4234 5415 5479 5549 5543 5253 5435 5452 4820 5505 4489 4979 2475 4161 5671 2552 5433 5283 5668 5448 5468 4323 4213 4943 5554 2323 5498 5263 4226 5540 4556 5532 5368 5574 5635 5434 5516 3296 2965 5421 5093 4463 3972 4899 5440 5454 3874 5426 4319 3500 3695 4823 5168 5013 4095 4699 5251 4821 5445 5497 4919 5076 4958 5220 4688 5272 3345 5330 4588 3956 5047 4801 5228 4947 5108 5348 4108 5476 5521 4571 4224 5540 5418 5538 4798 5008 5459 5109 5472 5280 5289 4879 4651 4241 5186 4273 4669 5218 2959 4139 4561 5431 5529 4781 5515 3238 2731 5471 2018 5422 5005 2428 5140 5332 5426 4652 5475 4412 3199 3778 3928 5377 5399 4691 5321 4398 5020 3236 5456 5046 4483 5504 4986 5272 5573 4814 5383 4493 4655 5403 4929 4872 4999 4974 5411 5424 5350 4445 4227 4359 4195 4363 4153 5418 3521 5417 2681 3818 1964 4759 4156 4142 5447 5227 5286 4173 4208

Tree=0
num_leaves=50
num_cat=0
split_feature=1 1 1 0 0 1 8 1 0 5 7 29 17 8 0 4 1 22 1 1 7 15 20 0 5 22 1 3 1 1 1 1 22 12 1 11 1 27 1 1 3 22 3 3 4 3 4 34 1
split_gain=434.88 52.0304 37.3278 18.6625 17.8848 9.78297 6.85309 5.12083 4.66649 3.27267 2.5811 2.37598 2.31737 2.24094 2.13241 1.74992 1.70893 1.70275 1.67854 1.29059 0.912198 0.848416 0.814025 0.753644 0.674436 0.52774 0.460011 0.353261 0.29219 0.236846 0.228706 0.208194 0.187291 0.184606 0.170904 0.142983 0.0991181 0.0782853 0.0767976 0.0650733 0.0602928 0.0459149 0.0313086 0.0309765 0.0265682 0.0247079 0.0182016 0.00506389 0.00464706
threshold=0.27313288437713001 0.9121810764731958 -0.41916932372694116 1.0058858285096008 1.0000000180025095e-35 1.817499348609289 0.52242956065741664 -0.79194743578297944 1.0000000180025095e-35 -0.94251665806228957 -0.74261162741363518 -0.71514799546982077 1.0000000180025095e-35 -0.58297257705912331 1.0058858285096008 5.1060194628402771 0.64591099643316841 1.0000000180025095e-35 1.3382132045372397 1.4979752525612562 -1.1785023933198535 1.0000000180025095e-35 2.0501747365216541 1.0000000180025095e-35 -0.63189283675117636 1.0000000180025095e-35 -0.15289924368691379 -0.68095874580539173 -0.099645227678908349 -0.099645227678908349 0.80567304445718479 -0.57893137175095755 1.0000000180025095e-35 -0.64606731721380717 0.060116820345108062 -0.81651593834538061 -0.15289924368691379 1.1924188680263286 0.5926569804251629 -0.57893137175095755 -1.1916490007727056 1.0000000180025095e-35 0.048598761290771009 0.77815626838693386 0.75985623141794101 -1.2646047514823218 -0.09982440776449894 1.3706966685461432 0.16662485236111904
decision_type=2 2 2 2 2 2 2 2 2 2 2 2 2 2 2 2 2 2 2 2 2 2 2 2 2 2 2 2 2 2 2 2 2 2 2 2 2 2 2 2 2 2 2 2 2 2 2 2 2
left_child=2 3 7 9 6 14 13 25 11 33 41 39 20 22 18 -7 38 34 -3 32 23 26 28 -11 -22 -1 42 -28 -4 -23 40 43 -16 -2 -6 -27 -15 -35 45 -9 -18 -8 -19 -13 -12 -5 -42 -32 -36
right_child=1 5 4 16 17 15 10 8 -10 12 44 31 -14 36 19 -17 30 21 -20 -21 24 29 -24 -25 -26 35 27 -29 -30 -31 47 -33 -34 37 48 -37 -38 -39 -40 -41 46 -43 -44 -45 -46 -47 -48 -49 -50
leaf_value=1.4593666881040703 1.4804255061381728 1.4972096354458402 1.4735054185403327 1.4712840157334637 1.4682782482725512 1.5067227692125524 1.4785193308927935 1.4623370379889935 1.4568621614710267 1.5021373290301856 1.4662461341536068 1.4728255066280136 1.4728993998628412 1.4849794003576628 1.4924098001288055 1.5210338179447367 1.4764873428803003 1.4617279091863342 1.5041769535291025 1.4979850704421114 1.4976465269418124 1.4674105063908964 1.4834673379527532 1.4893495025802108 1.4885841393146761 1.4578480243709104 1.4625817031188253 1.4670998005651479 1.4791968469410168 1.4748777212055377 1.477717720824393 1.4760161319636971 1.4870230455648221 1.4722122654097132 1.4723680069927823 1.4552994617496577 1.4930276340498199 1.4766093448100444 1.4721062790928803 1.4648182640638951 1.472539539555441 1.4749077974212588 1.4585393487404597 1.4698914890102674 1.4690462324320943 1.4681639043467325 1.4747911300602601 1.4818255545064249 1.4736827490323017
leaf_weight=112 14.999999999999998 209 27 11.999999999999998 25 103 42 118 189 22 67 14.999999999999998 11.999999999999998 11.999999999999998 102 26 30 123 112 100 18 15.000000000000002 53 22 237 130 87 59 27 9.9999999999999982 10.000000000000002 19 33 10.000000000000002 15.000000000000002 592 29 12.999999999999998 15.999999999999998 80 10.000000000000002 10.999999999999998 41 20 24 73 10.999999999999998 11.999999999999998 15.999999999999998
leaf_count=112 15 209 27 12 25 103 42 118 189 22 67 15 12 12 102 26 30 123 112 100 18 15 53 22 237 130 87 59 27 10 10 19 33 10 15 592 29 13 16 80 10 11 41 20 24 73 11 12 16
internal_value=1.47375 1.49261 1.46211 1.48308 1.46967 1.49987 1.47714 1.45806 1.46164 1.4884 1.47096 1.46529 1.48975 1.48316 1.49745 1.50998 1.4724 1.46408 1.49974 1.49421 1.49044 1.463 1.47996 1.49632 1.48933 1.4562 1.46242 1.46432 1.47633 1.47048 1.477 1.47283 1.49123 1.47708 1.47071 1.45573 1.49109 1.47455 1.46903 1.46327 1.47537 1.47788 1.46082 1.47098 1.46688 1.46852 1.47375 1.48039 1.4729
internal_weight=3166 1208 1958 523 683 685 292 1275 441 349 144 252 311 148 556 129 174 391 321 235 299 335 107 44 255 834 310 146 54 25 73 54 135 38 56 722 41 23 101 198 51 53 164 35 91 85 21 22 31
internal_count=3166 1208 1958 523 683 685 292 1275 441 349 144 252 311 148 556 129 174 391 321 235 299 335 107 44 255 834 310 146 54 25 73 54 135 38 56 722 41 23 101 198 51 53 164 35 91 85 21 22 31
is_linear=0
shrinkage=1


Tree=1
num_leaves=52
num_cat=0
split_feature=1 1 1 29 21 1 8 1 23 27 19 23 29 8 29 7 4 1 1 1 19 23 21 7 17 27 15 4 1 21 4 22 1 3 5 1 23 1 3 1 6 22 1 3 4 3 3 1 27 1 28
split_gain=401.162 47.9733 34.41 17.2226 13.1083 9.03728 6.36688 4.71256 4.01518 3.49729 3.41684 2.89185 2.89822 2.38936 1.95705 1.77607 1.62574 1.58308 1.57076 1.19785 1.16291 0.999454 0.896149 0.83878 0.955652 0.733863 0.668437 0.398887 0.361526 0.33629 0.290758 0.285518 0.269598 0.247888 0.231649 0.190543 0.181218 0.145272 0.144945 0.12448 0.105333 0.0749743 0.0699202 0.0641466 0.0624133 0.0261001 0.0215369 0.0195455 0.0186218 0.0148727 0.00783366
threshold=0.27313288437713001 0.9121810764731958 -0.41916932372694116 1.0000000180025095e-35 1.0000000180025095e-35 1.817499348609289 0.14539747694182362 -0.79194743578297944 0.80258510587745868 1.0000000180025095e-35 1.0000000180025095e-35 0.80258510587745868 -0.24167276467570692 -0.58297257705912331 1.0000000180025095e-35 -0.74261162741363518 5.1060194628402771 0.64591099643316841 1.4447212365532507 1.3914672205452452 1.0000000180025095e-35 0.80258510587745868 1.0000000180025095e-35 1.4708922550032957 1.0000000180025095e-35 1.0000000180025095e-35 1.0000000180025095e-35 0.60065611305082256 0.060116820345108062 1.0000000180025095e-35 1.730976953457364 1.0000000180025095e-35 -0.099645227678908349 1.2888465233542481 0.29997862718216317 0.69916501244117391 1.0000000180025095e-35 -0.15289924368691379 -0.46209149367654284 -0.15289924368691379 1.0000000180025095e-35 -1.209907885524508 0.5926569804251629 0.048598761290771009 -0.35454459715188852 1.6536252769023292 -1.2646047514823218 -0.099645227678908349 1.0000000180025095e-35 0.69916501244117391 -0.50498982734985731
decision_type=2 2 2 2 2 2 2 2 2 2 2 2 2 2 2 2 2 2 2 2 2 2 2 2 2 2 2 2 2 2 2 2 2 2 2 2 2 2 2 2 2 2 2 2 2 2 2 2 2 2 2
left_child=2 3 7 8 9 14 13 21 10 26 23 12 25 20 18 47 -7 42 -3 31 28 22 -1 24 -2 50 37 36 -6 44 43 -16 -17 -13 -22 -12 -11 -4 -39 -28 -25 -27 46 -29 -19 -23 -5 -8 -34 -46 -9
right_child=1 5 4 17 6 16 15 11 -10 27 35 33 -14 -15 19 32 -18 29 -20 -21 34 45 -24 40 -26 41 39 30 -30 -31 -32 -33 48 -35 -36 -37 -38 38 -40 -41 -42 -43 -44 -45 49 -47 -48 -49 -50 -51 -52
leaf_value=-0.017846153834029918 0.010664206397735465 0.023026065908832317 -0.01231186005861863 -0.0023735631611198189 -0.0069762820739012474 0.031667905917534468 0.0025938002588509609 -0.0013078464602353048 0.026068626432884032 -0.00077174170905103257 0.014392212392510593 0.0033699771391556546 -0.016214515173435213 0.017785708914484298 0.017415060583202319 -0.0073332750763211926 0.045463883293999564 -0.00093587134109640677 0.030468009677529335 0.022578326651028227 0.009337208203143545 -0.0053981101194565942 -0.013916173146785915 -0.000618683386727103 -0.00081782396481587354 -0.007728098063101603 -0.0061459923426310202 -0.0075855012706347869 0.0027593440819870343 0.0083451938480138786 0.0011266541603733513 0.010829514732360841 -0.0011133832221052477 -0.0034603247651282475 0.0042998623023430506 0.018724803499028653 0.0056560830327371759 -0.010841391098396531 -0.0068957761429451619 0 0.0039070428723798076 -0.010732779316263262 -0.0015804712093051743 -0.0033737659329282385 0.00056297493459922922 -0.010510840381185214 -0.0053643056831347777 0.0052842045830828804 -0.0036370165711268783 0.0026927157991772721 -0.0036779267787933347
leaf_weight=654 117 242 160 11.999999999999998 12.000000000000002 103 32 14.000000000000002 40 11.000000000000002 73 15.999999999999998 189 34 86 69 26 9.9999999999999982 79 125 53 9.9999999999999982 147 13.000000000000002 11.999999999999998 42 14.000000000000002 12.999999999999998 9.9999999999999982 14.999999999999998 15.999999999999998 24 12.999999999999998 15.999999999999998 29 78 13.999999999999998 86 36 9.9999999999999982 15.999999999999998 152 15.999999999999998 27 12.999999999999998 23 73 12.999999999999998 31 35 11.999999999999998
leaf_count=654 117 242 160 12 12 103 32 14 40 11 73 16 189 34 86 69 26 10 79 125 53 10 147 13 12 42 14 13 10 15 16 24 13 16 29 78 14 86 36 10 16 152 16 27 13 23 73 13 31 35 12
internal_value=9.93284e-07 0.0181211 -0.0111798 0.00896176 -0.00391913 0.0250852 0.00240283 -0.01506 0.014076 -0.00875857 0.0124316 -0.0116293 -0.0125332 0.00865731 0.0227639 -0.00305489 0.0348076 -0.00129506 0.0249589 0.0196556 0.00549396 -0.0168533 -0.0171482 0.00818555 0.00956727 -0.00929346 -0.0107114 -0.00129182 -0.00244952 0.00313578 -0.00318437 0.0161248 -0.00573071 0 0.00767717 0.016765 0.00275309 -0.011267 -0.00977516 -0.00383369 0.00179194 -0.0101458 -0.00453611 -0.00499177 0.00160212 -0.00928351 -0.0050211 0.00355596 -0.0030216 0.0022208 -0.00264558
internal_weight=3166 1208 1958 523 683 685 296 1275 349 387 309 441 409 138 556 158 129 174 321 235 104 834 801 158 129 220 306 81 22 73 56 110 113 32 82 151 25 282 122 24 29 194 101 40 58 33 85 45 44 48 26
internal_count=3166 1208 1958 523 683 685 296 1275 349 387 309 441 409 138 556 158 129 174 321 235 104 834 801 158 129 220 306 81 22 73 56 110 113 32 82 151 25 282 122 24 29 194 101 40 58 33 85 45 44 48 26
is_linear=0
shrinkage=0.04


Tree=2
num_leaves=48
num_cat=0
split_feature=1 1 1 0 0 1 1 0 8 23 19 23 1 8 7 4 1 0 21 3 23 21 7 20 1 1 0 3 1 21 1 8 22 1 1 1 5 6 8 1 23 4 1 3 3 3 1
split_gain=370.043 44.2433 31.7248 15.8931 12.3643 8.34841 6.68337 5.34967 4.89263 3.70874 3.15243 3.1376 1.79936 1.76891 1.56623 1.51012 1.46503 1.40318 1.40027 1.16777 0.911142 0.821037 0.772054 0.5151 0.512882 0.413191 0.354195 0.346495 0.336661 0.31124 0.281473 0.330414 0.275942 0.182589 0.172506 0.145303 0.113237 0.0978877 0.0835535 0.0636153 0.0589085 0.0581583 0.0467895 0.0260975 0.0218795 0.0186703 0.0132957
threshold=0.27313288437713001 0.9121810764731958 -0.31266129171093021 1.0058858285096008 1.0000000180025095e-35 1.817499348609289 -0.79194743578297944 1.0000000180025095e-35 0.52242956065741664 0.80258510587745868 1.0000000180025095e-35 1.0000000180025095e-35 1.3382132045372397 -0.58297257705912331 -0.74261162741363518 5.1060194628402771 0.64591099643316841 1.0058858285096008 1.0000000180025095e-35 -1.0457374993534729 0.80258510587745868 1.0000000180025095e-35 1.4708922550032957 2.0501747365216541 0.5926569804251629 -0.52567735574295205 1.0058858285096008 1.0000000180025095e-35 -0.099645227678908349 1.0000000180025095e-35 -0.52567735574295205 0.52242956065741664 1.0000000180025095e-35 -0.099645227678908349 0.69916501244117391 0.060116820345108062 -0.16595710478450665 1.0000000180025095e-35 -1.1889409394339174 0.5926569804251629 0.80258510587745868 -0.35454459715188852 0.060116820345108062 1.2888465233542481 1.6536252769023292 -1.2646047514823218 0.69916501244117391
decision_type=2 2 2 2 2 2 2 2 2 2 2 2 2 2 2 2 2 2 2 2 2 2 2 2 2 2 2 2 2 2 2 2 2 2 2 2 2 2 2 2 2 2 2 2 2 2 2
left_child=2 3 6 9 8 12 20 11 13 10 22 30 17 23 -10 -7 39 -3 26 -14 21 -1 24 33 -2 43 28 -9 -6 41 -8 -32 -19 -4 -12 -20 -37 -24 -30 45 -27 -18 -28 -13 -22 -5 -43
right_child=1 5 4 16 18 15 7 27 14 -11 34 25 19 -15 -16 -17 29 32 35 -21 44 -23 37 -25 -26 40 42 -29 38 -31 31 -33 -34 -35 -36 36 -38 -39 -40 -41 -42 46 -44 -45 -46 -47 -48
leaf_value=-0.017133397159321617 0.0063336212495198616 0.021610426336810703 0 -0.0022859239813943322 -0.009139580419117754 0.030413368376401757 -0.010183396158860877 -0.0122471543637189 0.0042180513391533924 0.025051314127154469 0.013824302985861495 -0.0010995558589098177 0.021579159237882672 0.016813684303509564 -0.0058393143457847073 0.043712681169863099 -0.00090183961810544127 0.016597041977776422 -0.0047660442800819876 0.028205760314247829 -0.005201815332370725 -0.01336328767683055 -0.00059570373594760879 0.0091453601975853629 0.011796110970673688 0.0018553732053229685 -0.0123502989821136 -0.015861543573182205 -0.0010425286327417082 0.0080322491973638527 -0.0016371397874563149 -0.0081964894949443749 0.01004898492495219 0.0051130678313119071 0.017985292451291143 -0.0020391835114629618 0.0026590042412281039 0.003759954205988084 -0.0055252011853806453 -0.0015209710786447807 0.0059928280849541916 0.00054206443644527877 -0.0090140401603177548 -0.003579292575828731 -0.010107924928267798 -0.0051526329514595707 0.0025879991003829573
leaf_weight=654 64 209 19 11.999999999999998 87 103 153 109 38 40 73 27 135 37 66 26 9.9999999999999982 80 24 109 9.9999999999999982 147 13.000000000000002 51 65 18 63 173 11.999999999999998 14.999999999999998 18 62 23 27 78 28 9.9999999999999982 15.999999999999998 32 15.999999999999998 13.000000000000002 12.999999999999998 42 14.999999999999998 23 73 35
leaf_count=654 64 209 19 12 87 103 153 109 38 40 73 27 135 37 66 26 10 80 24 109 10 147 13 51 65 18 63 173 12 15 18 62 23 27 78 28 10 16 32 16 13 13 42 15 23 73 35
internal_value=2.59412e-06 0.0174058 -0.0107358 0.00860922 -0.00242774 0.0240938 -0.0138606 -0.0105394 0.00434951 0.0135221 0.0119408 -0.00681639 0.021862 0.00937973 -0.00212124 0.0334403 -0.00124295 0.0195902 -0.00785026 0.0246588 -0.016182 -0.016464 0.00786043 0.00636065 0.00918637 0.000366155 -0.00925819 -0.0145268 -0.00763763 0.00301828 -0.00907576 -0.00680845 0.015284 0.00305925 0.0161042 -0.00236569 -0.000663776 0.00171931 -0.00444188 -0.00436145 0.00384849 0.0015396 -0.0111512 -0.00214084 -0.00893559 -0.00482572 0.0021379
internal_weight=3166 1208 1958 523 536 685 1422 588 238 349 309 306 556 134 104 129 174 312 298 244 834 801 158 97 129 73 236 282 131 73 233 80 103 46 151 62 38 29 44 101 31 58 105 42 33 85 48
internal_count=3166 1208 1958 523 536 685 1422 588 238 349 309 306 556 134 104 129 174 312 298 244 834 801 158 97 129 73 236 282 131 73 233 80 103 46 151 62 38 29 44 101 31 58 105 42 33 85 48
is_linear=0
shrinkage=0.04


Tree=3
num_leaves=50
num_cat=0
split_feature=1 1 1 0 0 1 8 1 0 23 20 23 23 8 21 1 4 1 0 3 15 23 20 15 1 21 1 21 22 1 1 1 1 27 1 5 3 1 1 3 4 22 6 1 3 6 1 3 1
split_gain=341.35 40.7956 29.3383 14.6704 14.1037 7.71212 5.44424 3.97095 3.98637 3.4243 2.90519 2.05604 1.98354 1.79761 1.6613 1.65518 1.40247 1.35587 1.28517 1.07309 0.815838 0.656063 0.635642 0.564458 0.561312 0.508468 0.292032 0.288036 0.249893 0.242152 0.214464 0.213678 0.158669 0.123808 0.107459 0.105046 0.104454 0.0840404 0.0578369 0.0551448 0.0542057 0.0422544 0.0404564 0.0195206 0.0160815 0.0142521 0.0118564 0.0110366 0.000900393
threshold=0.27313288437713001 0.9121810764731958 -0.41916932372694116 1.0058858285096008 1.0000000180025095e-35 1.817499348609289 0.52242956065741664 -0.84520145179098494 1.0000000180025095e-35 0.80258510587745868 1.0000000180025095e-35 1.0000000180025095e-35 1.0000000180025095e-35 -0.58297257705912331 1.0000000180025095e-35 1.3382132045372397 5.1060194628402771 0.64591099643316841 1.0058858285096008 -1.0457374993534729 1.0000000180025095e-35 0.80258510587745868 2.0501747365216541 1.0000000180025095e-35 0.48614894840915185 1.0000000180025095e-35 -0.15289924368691379 1.0000000180025095e-35 1.0000000180025095e-35 -0.099645227678908349 -0.57893137175095755 0.060116820345108062 0.75241902844917929 -0.91780926845849897 -0.57893137175095755 -0.16595710478450665 -0.097312740128461542 -0.15289924368691379 0.5926569804251629 0.77815626838693386 -0.35454459715188852 1.0000000180025095e-35 -1.0000000180025095e-35 -0.099645227678908349 -1.2646047514823218 1.0000000180025095e-35 0.69916501244117391 0.048598761290771009 -0.099645227678908349
decision_type=2 2 2 2 2 2 2 2 2 2 2 2 2 2 2 2 2 2 2 2 2 2 2 2 2 2 2 2 2 2 2 2 2 2 2 2 2 2 2 2 2 2 2 2 2 2 2 2 2
left_child=2 3 7 9 6 15 13 21 12 10 20 43 34 22 23 18 -7 38 -3 -17 24 25 29 26 -2 -1 47 40 -20 -4 39 45 -12 -28 -9 42 -25 -15 44 -14 -19 -13 -33 -8 -5 -16 -42 -6 -24
right_child=1 5 4 17 14 16 11 8 -10 -11 32 41 30 37 31 19 -18 27 28 -21 -22 -23 48 36 -26 -27 33 -29 -30 -31 -32 35 -34 -35 -36 -37 -38 -39 -40 -41 46 -43 -44 -45 -46 -47 -48 -49 -50
leaf_value=-0.016482313998794552 0.0033337694938684495 0.020750125168618704 -0.00025468090321269953 -0.0022015205558675987 -0.010766800549851746 0.029208532409026072 -0.006594787579693207 -0.010441025528354922 -0.015137246105158443 0.024073700462899555 0.013840895785360921 0.0043004804690216867 -0.00077021217899810935 0.0099221310523840093 -0.0061138370389288111 0.020722339914125559 0.042028932341822874 -0.00086904545782387932 0.015941356741351845 0.02708778685656461 0.015367560613155367 -0.0090258429050445576 0.0061862454947672384 -0.00034188303122153639 0.0086596006501752591 -0.013161440377244513 -0.0099619413378176751 0.0077310396954417228 0.0096637738458812249 0.0049158495632665496 0.002047521912679076 -0.0032192927502533971 0.018017230398004704 -0.006840228636923712 -0.0078650098527310256 0.0025623131936246702 -0.0059469711138651913 0.017272486420472462 -0.0014637111272005473 -0.0041120206275954843 0.00052193070256284307 0.00088051307356605936 0 -0.0038706459125503897 -0.0049493128669360099 -0.0026221343496264046 0.0024873546989272453 -0.01356645637466794 0.0095652816295623798
leaf_weight=624 62 209 27 11.999999999999998 118 103 72 137 213 40 97 42 17 11.999999999999998 21.000000000000004 135 26 9.9999999999999982 80 109 19 30 18 12.000000000000002 77 130 76 14.999999999999998 23 27 19 15.999999999999998 54 63 80 9.9999999999999982 11.999999999999998 29 15.999999999999998 25 12.999999999999998 10.999999999999998 12.000000000000002 19 73 9.9999999999999982 35 41 35
leaf_count=624 62 209 27 12 118 103 72 137 213 40 97 42 17 12 21 135 26 10 80 109 19 30 18 12 77 130 76 15 23 27 19 16 54 63 80 10 12 29 16 25 13 11 12 19 73 10 35 41 35
internal_value=4.28022e-06 0.0167192 -0.0103093 0.00827184 -0.00360444 0.0231415 0.00303146 -0.0138923 -0.0109942 0.012992 0.0114716 -0.00247825 -0.00776256 0.00839976 -0.00856545 0.0209957 0.0321267 -0.00119293 0.0188138 0.0236812 0.00755237 -0.0156859 0.00552224 -0.00977597 0.0063534 -0.0159332 -0.0102605 0.00290526 0.0146844 0.00230023 -0.00128751 -0.00280021 0.0154694 -0.0086346 -0.00955013 -0.000632487 -0.0034302 0.0155039 -0.00419365 -0.00290178 0.00147953 0.0036942 -0.00196043 -0.00611774 -0.00463801 -0.00522962 0.0020582 -0.011594 0.00862757
internal_weight=3166 1208 1958 523 683 685 292 1275 491 349 309 144 278 148 391 556 129 174 312 244 158 784 107 322 139 754 298 73 103 54 61 69 151 139 217 38 24 41 101 42 58 53 28 91 85 31 48 159 53
internal_count=3166 1208 1958 523 683 685 292 1275 491 349 309 144 278 148 391 556 129 174 312 244 158 784 107 322 139 754 298 73 103 54 61 69 151 139 217 38 24 41 101 42 58 53 28 91 85 31 48 159 53
is_linear=0
shrinkage=0.04


Tree=4
num_leaves=50
num_cat=0
split_feature=1 1 1 29 21 1 8 1 23 27 19 23 29 8 1 3 7 1 1 19 2 23 15 21 27 15 1 4 1 21 2 4 1 3 7 1 23 1 3 1 3 3 1 4 3 1 27 3 1
split_gain=314.889 37.6117 27.044 13.5446 10.3094 7.12416 5.06424 3.66182 3.16066 2.75214 2.67545 2.29848 2.26742 1.90118 1.53209 1.41653 1.40517 1.35126 1.25493 0.938965 0.83594 0.760597 0.755276 0.68812 0.57233 0.536376 0.51656 0.333957 0.297168 0.266542 0.249911 0.224951 0.213057 0.206753 0.169674 0.14893 0.143606 0.10877 0.112098 0.0967745 0.0840769 0.0584147 0.0525422 0.0505337 0.0211076 0.018686 0.0179568 0.0137459 0.0105436
threshold=0.27313288437713001 0.9121810764731958 -0.41916932372694116 1.0000000180025095e-35 1.0000000180025095e-35 1.817499348609289 0.14539747694182362 -0.79194743578297944 0.80258510587745868 1.0000000180025095e-35 1.0000000180025095e-35 0.80258510587745868 -0.24167276467570692 -0.58297257705912331 1.4447212365532507 -1.0457374993534729 -0.74261162741363518 2.4032935246973492 0.64591099643316841 1.0000000180025095e-35 1.394360978613286 0.80258510587745868 1.0000000180025095e-35 1.0000000180025095e-35 1.0000000180025095e-35 1.0000000180025095e-35 0.48614894840915185 0.60065611305082256 0.060116820345108062 1.0000000180025095e-35 1.5778874963770535 2.5428975571296681 -0.099645227678908349 1.2888465233542481 0.46056840294894635 0.69916501244117391 1.0000000180025095e-35 -0.15289924368691379 -0.46209149367654284 -0.15289924368691379 -1.3375605021919379 0.048598761290771009 0.5926569804251629 -0.35454459715188852 1.6536252769023292 -0.099645227678908349 1.0000000180025095e-35 -1.2646047514823218 0.69916501244117391
decision_type=2 2 2 2 2 2 2 2 2 2 2 2 2 2 2 2 2 2 2 2 2 2 2 2 2 2 2 2 2 2 2 2 2 2 2 2 2 2 2 2 2 2 2 2 2 2 2 2 2
left_child=2 3 7 8 9 14 13 21 10 25 22 12 24 19 15 40 45 30 42 28 -16 23 26 -1 -9 37 -2 36 -6 43 -7 41 -18 -13 -21 -12 -11 -4 -39 -27 -3 -29 47 -20 -23 -8 -34 -5 -45
right_child=1 5 4 18 6 17 16 11 -10 27 35 33 -14 -15 20 -17 32 -19 29 34 -22 44 -24 -25 -26 39 -28 31 -30 -31 -32 -33 46 -35 -36 -37 -38 38 -40 -41 -42 -43 -44 48 -46 -47 -48 -49 -50
leaf_value=-0.01579577969922364 0.0032025353058965675 0.015161239811130192 -0.010909622891349082 -0.0021202335946548445 -0.0063409626759015581 0.033122283241965554 0.0022401791371856675 -0.0023493441878645509 0.023134240400500414 -0.00053722798195667552 0.012732649240944836 0.0031318877760101766 -0.014377013007590646 0.015870452329090665 0.0270934206366539 0.020379254777569415 -0.0065328953295946124 0.045222538948059089 -0.0008374437968331304 0.0039053737109526992 0.020413477673313835 -0.0047201827933842488 0.01478359352350235 -0.01232719405984657 -0.0090000915624010268 -0.0053457272191842391 0.0083176574304890932 -0.0064923581222693129 0.0024691381833770059 0.007441126074641943 0.025863827898695662 0.0018968285297354063 -0.0008593791153814112 -0.0031065001477870867 0.0082970982814828554 0.016614170780664756 0.0051514191245039297 -0.0096092660783351144 -0.0060855092245179253 0 0.0090675503270966663 -0.0027624029184225947 -0.0014086066944634212 0.00050254464076299752 -0.009382653524478278 0.0047910741546324321 -0.0032649194019613789 -0.0047540155854076151 0.0023906242243117758
leaf_weight=654 62 114 160 11.999999999999998 12.000000000000002 43 32 26 40 11.000000000000002 73 15.999999999999998 189 34 79 241 69 12.999999999999998 9.9999999999999982 29 109 9.9999999999999982 19 147 194 14.000000000000002 77 13.999999999999998 9.9999999999999982 14.999999999999998 73 10.999999999999998 12.999999999999998 15.999999999999998 53 78 13.999999999999998 86 36 9.9999999999999982 12.999999999999998 31 15.999999999999998 12.999999999999998 23 12.999999999999998 31 73 35
leaf_count=654 62 114 160 12 12 43 32 26 40 11 73 16 189 34 79 241 69 13 10 29 109 10 19 147 194 14 77 14 10 15 73 11 13 16 53 78 14 86 36 10 13 31 16 13 23 13 31 73 35
internal_value=6.10946e-06 0.0160602 -0.00989963 0.00794864 -0.00346194 0.0222269 0.00214339 -0.0133397 0.0124841 -0.007754 0.0110224 -0.0103114 -0.0111173 0.00772229 0.0201638 0.018456 -0.00272208 0.0308648 -0.00114493 0.0048946 0.0233701 -0.0149219 0.00725918 -0.0151804 -0.00824638 -0.0094865 0.00610384 -0.00112434 -0.00222922 0.00279654 0.0288487 -0.00286001 -0.00510361 0 0.00685789 0.0148601 0.00257018 -0.00998452 -0.00865992 -0.00330946 0.0146444 -0.0041257 -0.00403242 0.0014218 -0.00826781 0.00315219 -0.00267797 -0.00445768 0.00198159
internal_weight=3166 1208 1958 523 683 685 296 1275 349 387 309 441 409 138 556 368 158 129 174 104 188 834 158 801 220 306 139 81 22 73 116 56 113 32 82 151 25 282 122 24 127 45 101 58 33 45 44 85 48
internal_count=3166 1208 1958 523 683 685 296 1275 349 387 309 441 409 138 556 368 158 129 174 104 188 834 158 801 220 306 139 81 22 73 116 56 113 32 82 151 25 282 122 24 127 45 101 58 33 45 44 85 48
is_linear=0
shrinkage=0.04


Tree=5
num_leaves=51
num_cat=0
split_feature=1 1 1 0 0 1 1 27 0 23 23 19 23 1 1 1 21 0 3 23 7 17 21 1 20 1 3 0 8 1 21 27 2 22 1 1 27 6 1 8 5 1 1 4 1 3 3 3 3 1
split_gain=290.509 34.6889 24.971 12.5053 9.76919 6.59722 5.20132 4.38295 4.20074 2.91727 2.48736 2.46352 1.51958 1.43569 1.26455 1.16158 1.10236 1.08078 0.912476 0.692725 0.683115 0.855857 0.630035 0.606232 0.366931 0.335893 0.297985 0.296815 0.260427 0.258383 0.246632 0.24226 0.227868 0.2278 0.138632 0.115226 0.226825 0.0897816 0.0827939 0.0651747 0.0530317 0.0489501 0.0476921 0.0471219 0.0354992 0.0208161 0.0175597 0.0116414 0.0104983 0.00441529
threshold=0.27313288437713001 0.9121810764731958 -0.31266129171093021 1.0058858285096008 1.0000000180025095e-35 1.817499348609289 -0.79194743578297944 1.1924188680263286 1.0000000180025095e-35 0.80258510587745868 1.0000000180025095e-35 1.0000000180025095e-35 0.80258510587745868 1.3382132045372397 2.4032935246973492 0.64591099643316841 1.0000000180025095e-35 1.0058858285096008 -1.0457374993534729 0.80258510587745868 1.4708922550032957 1.0000000180025095e-35 1.0000000180025095e-35 -0.046391211670902884 2.0501747365216541 -0.52567735574295205 1.0000000180025095e-35 1.0058858285096008 1.2912198514597686 -0.099645227678908349 1.0000000180025095e-35 1.0000000180025095e-35 1.5778874963770535 1.0000000180025095e-35 0.75241902844917929 0.060116820345108062 1.0000000180025095e-35 1.0000000180025095e-35 -0.57893137175095755 -1.1889409394339174 1.2318500911155028 0.060116820345108062 0.5926569804251629 -0.35454459715188852 -0.15289924368691379 1.2888465233542481 1.6536252769023292 -1.2646047514823218 -1.1916490007727056 0.37964091639314096
decision_type=2 2 2 2 2 2 2 2 2 2 2 2 2 2 2 2 2 2 2 2 2 2 2 2 2 2 2 2 2 2 2 2 2 2 2 2 2 2 2 2 2 2 2 2 2 2 2 2 2 2
left_child=2 3 6 9 7 13 19 12 10 11 31 20 24 17 32 42 27 -3 -15 22 21 -2 -1 -9 44 45 -10 29 -25 -6 43 -8 -7 -19 49 -18 -37 -22 -33 -31 -27 -29 47 -17 -4 -12 -21 -5 -45 -13
right_child=1 5 4 15 16 14 8 23 26 -11 25 34 -14 18 -16 30 35 33 -20 46 37 -23 -24 28 -26 40 -28 41 -30 39 -32 38 -34 -35 -36 36 -38 -39 -40 -41 -42 -43 -44 48 -46 -47 -48 -49 -50 -51
leaf_value=-0.01516491347014449 0.0092641935250011541 0.019112784776233495 0.0019635676077244084 -0.0020419481005519631 -0.0080438154993409446 0.031827502380717888 -0.0021152043009309901 -0.0054705130318637753 -0.010784732822532004 0.022231439695125671 -0.00095766680128872399 0.0088284674882888794 0.01500297971618803 0.019127528424648679 0.043542845317295624 -0.0008069913202727383 -0.0042182888479530816 0.014721639815671943 0.025018368859724568 -0.0045485398329117082 -0.00099534245034945843 -0.0015564266408865269 -0.011837437966033012 0.0048167819871621958 0.008127413994990864 0.0055131331847182328 -0.014108946753644396 -0.011070341364014894 -0.0029792847877199002 -0.00085675491048739516 0.0071620836053043601 -0.0093932619486984444 0.024843255294335856 0.0087832415190835806 0.016657161112265152 0.003934584525724252 -0.0025983877567840475 0.0032003617223133056 -0.0071909603751954378 -0.0048580927165846038 0.0016030941542826203 -0.0079233563965143156 -0.001355576792622314 0.0024729593299639726 0.0043533818520605566 -0.0032051722573814912 -0.0090229854881763456 -0.0045664248100003683 0.00076505602262914169 0.013305068041904861
leaf_weight=654 117 209 30 11.999999999999998 87 43 12.999999999999998 60 109 40 27 14.999999999999998 37 135 12.999999999999998 9.9999999999999982 24 80 109 9.9999999999999982 13.000000000000002 11.999999999999998 147 16.000000000000004 51 13.000000000000002 173 63 9.9999999999999982 11.999999999999998 14.999999999999998 113 73 23 54 10.999999999999998 27 15.999999999999998 107 32 18 42 15.999999999999998 28.999999999999996 34 14.999999999999998 23 73 19.000000000000004 82
leaf_count=654 117 209 30 12 87 43 13 60 109 40 27 15 37 135 13 10 24 80 109 10 13 12 147 16 51 13 173 63 10 12 15 113 73 23 54 11 27 16 107 32 18 42 16 29 34 15 23 73 19 82
internal_value=8.3876e-06 0.0154285 -0.00950611 0.00763802 -0.00213431 0.0213509 -0.0122785 0.00388866 -0.00934601 0.0119961 -0.00604405 0.0105908 0.00796064 0.019365 0.0296647 -0.00109885 -0.0069549 0.0173321 0.0218668 -0.0143276 0.00697744 0.00822263 -0.0145748 -0.00327113 0.00555056 0.000345206 -0.0128808 -0.00820471 0.00167086 -0.00672205 0.00269198 -0.00805585 0.0277163 0.0135313 0.0142745 -0.00207932 -0.000552304 0.00121571 -0.00837763 -0.003899 0.00348883 -0.00993591 -0.00387751 0.00136632 0.00334214 -0.00190924 -0.0079584 -0.00428443 0.00190796 0.0127508
internal_weight=3166 1208 1958 523 536 685 1422 238 588 349 306 309 152 556 129 174 298 312 244 834 158 129 801 86 115 73 282 236 26 131 73 233 116 103 151 62 38 29 220 44 31 105 101 58 64 42 33 85 48 97
internal_count=3166 1208 1958 523 536 685 1422 238 588 349 306 309 152 556 129 174 298 312 244 834 158 129 801 86 115 73 282 236 26 131 73 233 116 103 151 62 38 29 220 44 31 105 101 58 64 42 33 85 48 97
is_linear=0
shrinkage=0.04


Tree=6
num_leaves=52
num_cat=0
split_feature=1 1 1 0 0 1 8 1 0 23 19 23 23 8 1 21 3 1 1 0 15 33 23 1 15 21 21 1 2 1 1 1 1 22 1 27 3 8 1 3 36 1 22 6 28 28 6 3 1 1 1
split_gain=268.017 31.9973 23.0662 11.543 11.1355 6.10933 4.33612 3.09975 3.14362 2.69335 2.2756 1.64641 1.57952 1.43693 1.33344 1.31132 1.19738 1.18312 1.07533 0.713728 0.687059 0.494031 0.491252 0.474952 0.45471 0.377674 0.228162 0.22514 0.207536 0.19762 0.168363 0.166986 0.125014 0.124284 0.0895633 0.0864295 0.0862257 0.0860997 0.0715235 0.0487654 0.0439632 0.0432506 0.0384043 0.0332859 0.0214924 0.0157819 0.0132135 0.0128488 0.00949618 0.00516693 0.000312862
threshold=0.27313288437713001 0.9121810764731958 -0.41916932372694116 1.0058858285096008 1.0000000180025095e-35 1.817499348609289 0.52242956065741664 -0.84520145179098494 1.0000000180025095e-35 0.80258510587745868 1.0000000180025095e-35 1.0000000180025095e-35 1.0000000180025095e-35 -0.58297257705912331 1.4447212365532507 1.0000000180025095e-35 -0.9727817486438568 2.4032935246973492 0.64591099643316841 1.0058858285096008 1.0000000180025095e-35 2.22061977121747 0.80258510587745868 0.5926569804251629 1.0000000180025095e-35 1.0000000180025095e-35 1.0000000180025095e-35 -0.15289924368691379 1.5778874963770535 -0.099645227678908349 0.060116820345108062 -0.57893137175095755 0.75241902844917929 1.0000000180025095e-35 -0.57893137175095755 -0.91780926845849897 -0.097312740128461542 0.14539747694182362 -0.15289924368691379 0.77815626838693386 -0.1196752071833441 0.5926569804251629 1.0000000180025095e-35 -1.0000000180025095e-35 -0.44440825502715403 1.9573658622689694 1.0000000180025095e-35 0.048598761290771009 0.69916501244117391 -0.099645227678908349 0.37964091639314096
decision_type=2 2 2 2 2 2 2 2 2 2 2 2 2 2 2 2 2 2 2 2 2 2 2 2 2 2 2 2 2 2 2 2 2 2 2 2 2 2 2 2 2 2 2 2 2 2 2 2 2 2 2
left_child=2 3 7 9 6 14 13 22 12 10 20 45 34 21 16 24 33 28 41 -16 23 29 25 -2 27 -1 40 47 -7 -4 46 39 50 -3 -9 -29 -26 -32 -15 -14 48 44 -13 -39 -5 -8 -17 -6 -20 -23 -12
right_child=1 5 4 18 15 17 11 8 -10 -11 32 42 31 38 19 30 -18 -19 26 -21 -22 49 -24 -25 36 -27 -28 35 -30 -31 37 -33 -34 -35 -36 -37 -38 43 -40 -41 -42 -43 -44 -45 -46 -47 -48 -49 -50 -51 -52
leaf_value=-0.01458763024482727 0.0031481793112341423 0.014471375743150709 -0.00022381641965226403 -0.0029376103772948948 -0.0095216399035533937 0.030583336781371723 -0.0059809581779820074 -0.0092765315874763152 -0.013422923591092369 0.021363871993088139 0.0084974000267684455 0.0038884723824124008 -0.00052348321583122013 0.0087547639516683713 0.02504089535474777 -0.0054382947927171521 0.018798351686696215 0.041925539016723634 0.00042618400260939124 0.018846215955777602 0.013869777444005013 0.0053725436674921133 -0.0080582958238740125 0.008017510372011559 -0.00014295718303093539 -0.01167979499413312 0.0068935053646564486 -0.0088061455441759782 0.023862953070047738 0.0044348703452519005 0.0023550568439743738 0.0018455269273370506 0.016002989201112226 0.009930999963514266 -0.0069262286600323374 -0.0060932919927872723 -0.0052342460636909194 -0.0028773595778381123 0.015478564468026161 -0.0036429544020300875 -0.00077764617397703905 -0.0013045433242531385 0.00065644775082667666 0 -0.0049079136943134174 -0.0036679318839311597 -0.0021944777095182378 -0.012106013271070661 0.0022242569101767408 0.0085545671747790444 0.012779277416596929
leaf_weight=624 71 99 27 38 118 43 67 137 213 40 14.999999999999998 42 17 11.999999999999998 79 21.000000000000004 239 12.999999999999998 12.999999999999998 109 19 18 30 68 12.000000000000002 130 14.999999999999998 76 73 27 9.9999999999999982 19 54 30 80 63 11.999999999999998 15.999999999999998 29 25 9.9999999999999982 15.999999999999998 10.999999999999998 12.000000000000002 47 24 9.9999999999999982 41 35 35 82
leaf_count=624 71 99 27 38 118 43 67 137 213 40 15 42 17 12 79 21 239 13 13 109 19 18 30 68 12 130 15 76 73 27 10 19 54 30 80 63 12 16 29 25 10 16 11 12 47 24 10 41 35 35 82
internal_value=1.00793e-05 0.0148213 -0.00912862 0.00733865 -0.00318264 0.0205094 0.00271263 -0.0123057 -0.00974171 0.0115257 0.0101744 -0.00220222 -0.00686887 0.00750417 0.0185978 -0.00759113 0.0170043 0.0285114 -0.00105453 0.0215892 0.00669983 0.00492548 -0.0138919 0.00559912 -0.00866711 -0.0141077 0.00259165 -0.00910225 0.0266284 0.00207108 -0.00246066 -0.00108434 0.0137158 0.0135308 -0.00846416 -0.00765746 -0.00295615 -0.000524739 0.0138612 -0.00251487 0.00131332 -0.00372867 0.00331633 -0.00173691 -0.00411798 -0.00546091 -0.00461818 -0.0102845 0.00183755 0.00766746 0.0122514
internal_weight=3166 1208 1958 523 683 685 292 1275 491 349 309 144 278 148 556 391 368 129 174 188 158 107 784 139 322 754 73 298 116 54 69 61 151 129 217 139 24 38 41 42 58 101 53 28 85 91 31 159 48 53 97
internal_count=3166 1208 1958 523 683 685 292 1275 491 349 309 144 278 148 556 391 368 129 174 188 158 107 784 139 322 754 73 298 116 54 69 61 151 129 217 139 24 38 41 42 58 101 53 28 85 91 31 159 48 53 97
is_linear=0
shrinkage=0.04


Tree=7
num_leaves=52
num_cat=0
split_feature=1 1 1 29 3 1 1 23 23 19 23 29 19 1 1 22 23 1 3 3 17 5 23 5 5 23 22 4 1 3 3 27 22 2 1 1 2 5 1 1 1 3 1 4 1 3 28 3 3 36 1
split_gain=247.284 29.5065 21.2661 10.6612 6.89246 5.65709 4.40914 3.2832 2.48473 2.28245 2.19988 2.45684 2.09742 1.24491 1.10667 1.05892 1.04065 0.995667 0.909104 0.774855 0.590831 0.721727 0.577379 0.416194 0.568565 0.409323 0.375762 0.298606 0.283612 0.268411 0.260418 0.209229 0.192479 0.188791 0.155788 0.11531 0.104014 0.07887 0.0787648 0.0591014 0.0456246 0.0418634 0.0392123 0.0383639 0.0321881 0.0268297 0.0190355 0.0188986 0.0168863 0.0140348 0.00631839
threshold=0.27313288437713001 0.9121810764731958 -0.31266129171093021 1.0000000180025095e-35 0.12155451200038729 1.817499348609289 -0.79194743578297944 0.80258510587745868 0.80258510587745868 1.0000000180025095e-35 0.80258510587745868 -0.24167276467570692 1.0000000180025095e-35 1.3382132045372397 2.4032935246973492 1.0000000180025095e-35 1.0000000180025095e-35 0.64591099643316841 -1.0457374993534729 -1.0457374993534729 1.0000000180025095e-35 -0.63189283675117636 0.80258510587745868 1.2318500911155028 1.3871620017710595 0.80258510587745868 1.0000000180025095e-35 2.5428975571296681 1.0000000180025095e-35 1.2888465233542481 0.048598761290771009 1.0000000180025095e-35 1.0000000180025095e-35 1.5778874963770535 0.80567304445718479 0.69916501244117391 -0.44090419902438899 0.29997862718216317 -0.41916932372694116 0.16662485236111904 0.060116820345108062 -1.1916490007727056 0.5926569804251629 -0.22718450245819372 -0.20615325969491929 -0.3891357429669266 -0.44440825502715403 -0.097312740128461542 1.6536252769023292 -0.70580775034510335 -0.046391211670902884
decision_type=2 2 2 2 2 2 2 2 2 2 2 2 2 2 2 2 2 2 2 2 2 2 2 2 2 2 2 2 2 2 2 2 2 2 2 2 2 2 2 2 2 2 2 2 2 2 2 2 2 2 2
left_child=2 3 6 8 15 13 22 9 12 23 11 16 20 18 33 36 31 42 32 -15 21 -2 26 27 -25 28 -1 -6 44 -12 -13 -8 -3 -7 41 -14 -4 -11 -18 43 -27 -19 46 -38 -17 -30 -5 -20 -24 -43 -39
right_child=1 5 4 17 7 14 10 -9 -10 37 29 30 35 19 -16 25 38 34 47 -21 -22 -23 48 24 -26 40 -28 -29 45 -31 -32 -33 -34 -35 -36 -37 39 50 -40 -41 -42 49 -44 -45 -46 -47 -48 -49 -50 -51 -52
leaf_value=-0.010816662721204018 0.0021865662443809782 0.013568335562576481 0.0016512479848627534 -0.0028231189276736518 -0.0055125559455201289 0.029387806296348573 -0.0018926815238914322 0.013872425283256331 0.020530160165414577 0.007512130370936715 0.0039207724164284407 -0.010080307607768011 0.011271966535497356 0.017656332458643353 0.040368304320744113 -0.0078098172059525616 -0.0016922358271220456 0.0020782036452644294 0.017071311923479424 0.023106842515685341 -0.0017050943798743762 0.0088153515368563327 -0.0041222207911989902 0.0034136750663941108 -0.0044329425701498983 -0.010280903524020685 -0.01384238570726652 0.0015554692989045923 -0.00032828710447339442 -0.0027909936823827374 -0.013141245167196534 -0.0077319308359774319 0.0080658621443435545 0.022921333648063039 0.0052868742068176676 0.014748055750810648 -0.003921030385196209 0.0021850571171738776 0.001945174121297896 0 -0.0072924508826677191 0.00068601905784938311 -0.0012554310100043524 -0.00041945046863772637 -0.0054213392597077231 -0.0031540976825814976 -0.0047156871665890018 0.022761751249432565 -0.0083755616247653958 -0.0012394056303257294 0.005046141769204821
leaf_weight=112 38 80 12.999999999999998 38 57 43 12.999999999999998 37 40 51 20 121 73 135 12.999999999999998 45 22 30 194 109 11.999999999999998 108 9.9999999999999982 35 24 63 689 9.9999999999999982 16.000000000000004 15.999999999999998 161 220 23 73 22 78 23.999999999999996 12.000000000000002 14.999999999999998 14.999999999999998 42 11.000000000000002 15.999999999999998 10.000000000000002 57 11.999999999999998 47 14.999999999999998 23 9.9999999999999982 12.999999999999998
leaf_count=112 38 80 13 38 57 43 13 37 40 51 20 121 73 135 13 45 22 30 194 109 12 108 10 35 24 63 689 10 16 16 161 220 23 73 22 78 24 12 15 15 42 11 16 10 57 12 47 15 23 10 13
internal_value=1.21295e-05 0.0142389 -0.00876594 0.00705299 -0.00196228 0.0197013 -0.0113245 0.00307619 0.011077 0.00102036 -0.00862282 -0.00924726 0.00977808 0.0178613 0.0274031 -0.00602694 -0.00644669 -0.00101243 0.0159671 0.0201919 0.00644015 0.00714387 -0.0132118 -0.00225629 0.000134479 -0.0072535 -0.0134383 -0.00439144 -0.00558987 0.000834847 -0.0118823 -0.00743271 0.0124675 0.0255833 0.00249488 0.0131791 -0.00127306 0.00646341 -9.99642e-05 -0.00214641 -0.00920333 0.00113506 -0.00358624 -0.00304685 -0.00657951 -0.00174428 -0.00395877 0.0176052 -0.00736347 -6.36924e-05 0.00396353
internal_weight=3166 1208 1958 523 536 685 1422 239 349 202 588 552 309 556 129 297 270 174 312 244 158 146 834 126 59 235 801 67 130 36 282 233 103 116 73 151 62 76 37 49 105 51 101 34 102 28 85 209 33 21 25
internal_count=3166 1208 1958 523 536 685 1422 239 349 202 588 552 309 556 129 297 270 174 312 244 158 146 834 126 59 235 801 67 130 36 282 233 103 116 73 151 62 76 37 49 105 51 101 34 102 28 85 209 33 21 25
is_linear=0
shrinkage=0.04


Tree=8
num_leaves=53
num_cat=0
split_feature=1 1 1 0 0 1 27 1 0 23 19 23 23 1 21 3 1 1 0 15 1 33 1 23 15 21 7 21 1 12 1 1 1 2 7 1 3 27 1 6 4 3 7 3 1 3 3 3 21 1 34 1
split_gain=228.149 27.2286 19.6852 9.84063 9.53804 5.25077 3.56082 2.61641 2.6851 2.29442 1.93452 1.65211 1.34834 1.3391 1.11517 1.01203 0.9217 0.891708 0.691496 0.623061 0.589415 0.588494 0.433239 0.405299 0.403173 0.319368 0.251869 0.204006 0.188168 0.161489 0.144319 0.107997 0.104258 0.0991738 0.0928109 0.0817233 0.0781518 0.0644144 0.062211 0.0469716 0.0392375 0.0381308 0.02915 0.025501 0.0243368 0.0082775 0.00694159 0.00679027 0.00615989 0.00471705 0.00342168 0.00166987
threshold=0.27313288437713001 0.9121810764731958 -0.41916932372694116 1.0058858285096008 1.0000000180025095e-35 1.8707533646172945 1.1924188680263286 -0.84520145179098494 1.0000000180025095e-35 0.80258510587745868 1.0000000180025095e-35 0.80258510587745868 1.0000000180025095e-35 1.4447212365532507 1.0000000180025095e-35 -0.9727817486438568 0.64591099643316841 2.4032935246973492 1.0058858285096008 1.0000000180025095e-35 -0.046391211670902884 2.22061977121747 0.5926569804251629 0.80258510587745868 1.0000000180025095e-35 1.0000000180025095e-35 -0.74261162741363518 1.0000000180025095e-35 -0.15289924368691379 -0.64606731721380717 -0.52567735574295205 0.75241902844917929 0.060116820345108062 1.5778874963770535 -0.74261162741363518 -0.57893137175095755 -0.097312740128461542 -0.91780926845849897 -0.15289924368691379 -0.79009557349826887 -0.35454459715188852 -0.9727817486438568 -0.99795052636830206 -1.3375605021919379 0.5926569804251629 -1.1916490007727056 -0.1702684908380778 0.048598761290771009 1.0000000180025095e-35 -0.099645227678908349 0.92799614922462315 0.37964091639314096
decision_type=2 2 2 2 2 2 2 2 2 2 2 2 2 2 2 2 2 2 2 2 2 2 2 2 2 2 2 2 2 2 2 2 2 2 2 2 2 2 2 2 2 2 2 2 2 2 2 2 2 2 2 2
left_child=2 3 7 9 6 13 11 23 12 10 19 21 35 15 24 43 41 33 -15 22 48 26 -2 25 28 -1 -4 40 47 -16 42 51 -31 -7 -22 -9 -26 -30 -13 -34 -18 44 -14 -3 50 -42 -10 -6 -8 -23 -5 -12
right_child=1 5 4 16 14 17 20 8 46 -11 31 38 30 18 29 -17 27 -19 -20 -21 34 49 -24 -25 36 -27 -28 -29 37 32 -32 -33 39 -35 -36 -37 -38 -39 -40 -41 45 -43 -44 -45 -46 -47 -48 -49 -50 -51 -52 -53
leaf_value=-0.013452249165153505 0.0027997363853371812 0.012899275974524409 0.0028320064884035964 -0.0034480823086431396 -0.0087914664141301585 0.028826427807679047 -0.0034605128204538704 -0.0085820733144663375 -0.0094650170760495322 0.019728982995196084 0.0077560488916933535 0.0080417801370987526 -3.1068906720195482e-05 0.023304591066535863 0.0020500413213263859 0.017323127836237354 -0.00077628686126660215 0.038868909972054617 0.01754345590627494 0.013007742214202882 0.0044334485639225332 0.0049238815273305305 0.0074443454255444423 -0.007466052065933905 0 -0.01076186090035236 -0.0020417617866325946 0.0064688281472772358 -0.0081038094034249133 -0.004874298081315797 0.0026613102182745933 0.014795311836762861 -0.0030993098754149213 0.022392459223820615 -0.00011412414908409118 -0.0063529080323139102 -0.0047769197867466853 -0.0056595787205733364 0.014343659316003324 0 0.0021954133881255987 -0.0050724146234480518 -0.0025781374547781573 0.0083251819983124736 -0.0008706360161304475 0.00064221558528952303 -0.012749726662661304 -0.01117172809016137 -0.0057130096183534256 0.0079297514773077442 -0.0013385088965296747 0.011788613771817769
leaf_weight=624 71 114 76 51 118 36 20 137 27 40 14.999999999999998 11.999999999999998 12.999999999999998 86 9.9999999999999982 239 9.9999999999999982 12.999999999999998 118 19 10.000000000000002 18 68 30 12.000000000000002 130 20 14.999999999999998 76 28 11.999999999999998 54 11.999999999999998 64 15.999999999999998 80 11.999999999999998 63 29 19.000000000000004 28.999999999999996 25 36 14.999999999999998 14.999999999999998 19.000000000000004 186 41 56 35 9.9999999999999982 82
leaf_count=624 71 114 76 51 118 36 20 137 27 40 15 12 13 86 10 239 10 13 118 19 10 18 68 30 12 130 20 15 76 28 12 54 12 64 16 80 12 63 29 19 29 25 36 15 15 19 186 41 56 35 10 82
internal_value=1.37425e-05 0.0136791 -0.00841781 0.00677559 -0.00292429 0.0189265 0.00253099 -0.0113529 -0.00899463 0.0106417 0.00939255 0.00576474 -0.00633742 0.0172868 -0.00700458 0.0156698 -0.000972389 0.0269671 0.0200935 0.00618488 -0.00345131 0.00372142 0.00513743 -0.0128113 -0.00799722 -0.0130086 0.00176482 0.00240093 -0.0084067 -0.00226703 -0.000987565 0.0126598 -0.00308737 0.0250108 0.00158622 -0.00781152 -0.00261995 -0.0070729 0.0128298 -0.00124649 0.00118928 -0.00344938 -0.00199652 0.0124663 -0.0028046 0.00168789 -0.0123982 -0.00949623 -0.00522484 0.00709305 -0.00319393 0.0112913
internal_weight=3166 1208 1958 523 683 685 292 1275 491 349 309 190 278 572 391 368 174 113 204 158 102 149 139 784 322 754 96 73 298 69 61 151 59 100 26 217 24 139 41 31 58 101 49 129 76 48 213 159 76 53 61 97
internal_count=3166 1208 1958 523 683 685 292 1275 491 349 309 190 278 572 391 368 174 113 204 158 102 149 139 784 322 754 96 73 298 69 61 151 59 100 26 217 24 139 41 31 58 101 49 129 76 48 213 159 76 53 61 97
is_linear=0
shrinkage=0.04


Tree=9
num_leaves=53
num_cat=0
split_feature=1 1 1 0 0 1 8 1 0 23 19 7 23 1 8 21 3 1 1 0 15 17 20 23 15 21 21 1 1 1 1 1 34 7 1 3 3 1 3 3 4 3 6 1 6 1 1 3 3 3 1 34
split_gain=210.506 25.1108 18.1464 9.09154 8.81325 4.86587 3.46122 2.40587 2.47422 2.11644 1.78288 1.30592 1.24277 1.23323 1.12204 1.0279 0.928008 0.854364 0.833694 0.634869 0.576573 0.418535 0.374081 0.369416 0.368816 0.290958 0.188695 0.171916 0.161592 0.13434 0.132728 0.0970674 0.0890619 0.0803533 0.0736884 0.0720909 0.070074 0.0540597 0.0523332 0.0474157 0.0366274 0.0344499 0.0282859 0.0219726 0.0109396 0.0102441 0.00787832 0.00503575 0.00487287 0.00290026 0.00278892 0.00246219
threshold=0.27313288437713001 0.9121810764731958 -0.41916932372694116 1.0058858285096008 1.0000000180025095e-35 1.8707533646172945 0.52242956065741664 -0.84520145179098494 1.0000000180025095e-35 0.80258510587745868 1.0000000180025095e-35 -0.74261162741363518 1.0000000180025095e-35 1.4447212365532507 -0.58297257705912331 1.0000000180025095e-35 -1.0457374993534729 0.64591099643316841 2.4032935246973492 1.0058858285096008 1.0000000180025095e-35 1.0000000180025095e-35 2.0501747365216541 0.80258510587745868 1.0000000180025095e-35 1.0000000180025095e-35 1.0000000180025095e-35 -0.15289924368691379 -0.099645227678908349 -0.57893137175095755 0.060116820345108062 0.75241902844917929 2.1307213696369742 1.4708922550032957 -0.57893137175095755 -0.097312740128461542 -1.3375605021919379 -0.15289924368691379 -0.46209149367654284 0.77815626838693386 -0.35454459715188852 -0.9727817486438568 -1.0000000180025095e-35 0.5926569804251629 1.0000000180025095e-35 -0.099645227678908349 0.69916501244117391 0.048598761290771009 0.48633326554846873 -0.1702684908380778 -0.099645227678908349 0.92799614922462315
decision_type=2 2 2 2 2 2 2 2 2 2 2 2 2 2 2 2 2 2 2 2 2 2 2 2 2 2 2 2 2 2 2 2 2 2 2 2 2 2 2 2 2 2 2 2 2 2 2 2 2 2 2 2
left_child=2 3 7 9 6 13 14 23 12 10 20 48 34 16 22 24 36 41 32 -15 21 -2 28 25 27 -1 40 47 -4 39 44 -12 -7 -32 -9 -26 -3 -16 -29 -14 -19 43 -35 51 -17 -13 -42 -6 -8 -10 -24 -5
right_child=1 5 4 17 15 18 11 8 49 -11 31 45 29 19 37 30 -18 26 -20 -21 -22 -23 50 -25 35 -27 -28 38 -30 -31 33 -33 -34 42 -36 -37 -38 -39 -40 -41 46 -43 -44 -45 -46 -47 -48 -49 -50 -51 -52 -53
leaf_value=-0.012915019806480408 0.0056159950312207911 0.012387791617279468 -0.00013551564896312942 -0.0033128113662107632 -0.0084427627174794174 0.02770453503969553 0.0032756136649688922 -0.0082412776333698323 -0.009099937860454833 0.018959070918036669 0.010849300103528159 -0.0052425597611151335 -0.00030182896247909715 0.022383122640094538 0.0077448529280149019 -0.0048443008038130666 0.016614318202719216 -0.00074805831147188486 0.037425207478659496 0.016847614486177429 0.012513448345661165 -0.0018312585628949679 0.0047372923607104699 -0.0071770435879307416 0 -0.010334672584504117 0.006226247031241655 -0.0075771214850660819 0.0040628558684672631 0.0016685223478823902 0.0023320066170258958 0.014214259685169567 0.021510541123610276 -0.0026770074349992414 -0.0061019289855051926 -0.0046005411663880714 0.0071060212211949483 0.01378903808395068 -0.0052032883374714392 -0.0033352037226924529 0.0003215300058280783 -0.0048773217439078368 0 -0.00083798704110085969 -0.0018654360473155977 -0.0030132918015122411 0.0019769591771894028 -0.010735498696565629 0.0012290093414485455 -0.012242464619524338 0.0076213721699184842 -0.0012898358553647996
leaf_weight=624 127 114 27 51 118 36 42 137 27 40 97 72 17 86 11.999999999999998 21.000000000000004 241 9.9999999999999982 12.999999999999998 118 19 11.999999999999998 18 30 12.000000000000002 130 14.999999999999998 89 27 19 9.9999999999999982 54 64 15.999999999999998 80 11.999999999999998 12.999999999999998 29 50 25 12.999999999999998 25 12.000000000000002 14.999999999999998 9.9999999999999982 19 35 41 10.999999999999998 186 35 9.9999999999999982
leaf_count=624 127 114 27 51 118 36 42 137 27 40 97 72 17 86 12 21 241 10 13 118 19 12 18 30 12 130 15 89 27 19 10 54 64 16 80 12 13 29 50 25 13 25 12 15 10 19 35 41 11 186 35 10
internal_value=1.52085e-05 0.0131416 -0.00808373 0.00651152 -0.00280897 0.018181 0.00243455 -0.0109018 -0.00863917 0.0102276 0.00902686 -0.0019543 -0.00608721 0.016602 0.00671609 -0.00673127 0.0150481 -0.00093491 0.0259229 0.0192985 0.00594535 0.00493601 0.00442911 -0.0123009 -0.0076845 -0.0124897 0.00231167 -0.00807655 0.00192665 -0.000948029 -0.0021795 0.0121646 0.0240322 -0.000447966 -0.00750253 -0.00252823 0.0119381 0.0123418 -0.00679506 -0.00223601 0.00114311 -0.00332032 -0.00162492 -0.00269951 -0.0040967 -0.0048584 0.00162596 -0.00912237 0.00295555 -0.0119072 0.00682181 -0.00307184
internal_weight=3166 1208 1958 523 683 685 292 1275 491 349 309 144 278 572 148 391 368 174 113 204 158 139 107 784 322 754 73 298 54 61 69 151 100 38 217 24 127 41 139 42 58 101 28 76 31 91 48 159 53 213 53 61
internal_count=3166 1208 1958 523 683 685 292 1275 491 349 309 144 278 572 148 391 368 174 113 204 158 139 107 784 322 754 73 298 54 61 69 151 100 38 217 24 127 41 139 42 58 101 28 76 31 91 48 159 53 213 53 61
is_linear=0
shrinkage=0.04


Tree=10
num_leaves=55
num_cat=0
split_feature=1 1 1 0 0 1 1 27 0 23 19 23 1 23 1 1 21 0 7 17 0 21 23 1 0 1 1 21 35 5 35 34 34 22 1 1 7 12 1 27 1 1 23 1 35 4 7 35 1 1 34 34 1 35
split_gain=194.211 23.1659 16.7421 8.39526 6.62609 4.51409 3.47065 2.97163 2.51079 1.95365 1.64333 1.54132 1.011 1.00906 0.899659 0.791958 0.732593 0.730676 0.568278 0.669938 0.54448 0.540345 0.65777 0.429922 0.225112 0.188001 0.180202 0.174541 0.171761 0.168296 0.147163 0.141612 0.118582 0.0987179 0.0928638 0.0912976 0.0818928 0.0816077 0.0780247 0.192592 0.0698069 0.0459533 0.0448511 0.0435872 0.0394461 0.03419 0.0314586 0.0310739 0.0289809 0.0274416 0.0215045 0.0150126 0.00768547 0.00748459
threshold=0.27313288437713001 0.9121810764731958 -0.31266129171093021 1.0058858285096008 1.0000000180025095e-35 1.817499348609289 -0.73869341977497394 1.1924188680263286 1.0000000180025095e-35 0.80258510587745868 1.0000000180025095e-35 1.0000000180025095e-35 1.2317051725212287 0.80258510587745868 2.4032935246973492 0.64591099643316841 1.0000000180025095e-35 1.0058858285096008 1.4708922550032957 1.0000000180025095e-35 1.0058858285096008 1.0000000180025095e-35 0.80258510587745868 -0.046391211670902884 1.0058858285096008 -0.52567735574295205 -0.099645227678908349 1.0000000180025095e-35 -0.21664459053775389 0.29997862718216317 -0.27241920483636556 1.9997974065293562 -0.47222454096023531 1.0000000180025095e-35 -0.84520145179098494 0.69916501244117391 -0.74261162741363518 -0.0056637084790189399 0.060116820345108062 1.0000000180025095e-35 1.4979752525612562 0.060116820345108062 0.80258510587745868 -0.41916932372694116 1.0000000180025095e-35 -0.35454459715188852 -0.99795052636830206 0.72446287195608305 -0.20615325969491929 -0.15289924368691379 0.62731484412153549 0.6905577754531812 1.4447212365532507 1.1656981430249338
decision_type=2 2 2 2 2 2 2 2 2 2 2 2 2 2 2 2 2 2 2 2 2 2 2 2 2 2 2 2 2 2 2 2 2 2 2 2 2 2 2 2 2 2 2 2 2 2 2 2 2 2 2 2 2 2
left_child=2 3 6 9 7 12 21 13 11 10 18 32 20 29 31 47 24 52 19 -2 30 22 -1 -9 26 46 -6 45 -10 48 -3 -7 43 -22 -23 -12 -25 -20 -18 -40 -19 -26 -27 -8 -28 -17 -13 -5 -4 -31 -49 -52 -14 -47
right_child=1 5 4 15 16 14 8 23 28 -11 35 25 17 -15 -16 27 38 40 37 -21 33 34 -24 36 41 42 44 -29 -30 49 -32 -33 -34 -35 -36 -37 -38 -39 39 -41 -42 -43 -44 -45 -46 53 -48 50 -50 -51 51 -53 -54 -55
leaf_value=-0.012363528143808332 0.0077682490003121605 0.020635531008243561 0.0028876922045919027 -0.0046897324738450919 -0.0065338213264370679 0.026098165967247702 -0.0069175866162567799 -0.0045125276168472457 -0.010985414010133499 0.018219205077101543 0.0099665972356860703 0.00019588377529924564 0.017601930327904528 0.012340403189980672 0.036035130092075894 -0.00072085615027357231 -0.0034688982912898063 0.012856177346628219 0.0024278980057467424 -0.0017636429306406244 0.011325649779418419 -0.0099244414223997861 -0.0063689760124604955 0.0041622781807726062 -0.0092417384503496579 0.0011856985201961117 -0.0037097180321812627 0.0059927627667784693 -0.0077684653380821487 0.0014738368586269923 0.014307374655361603 0.020330756448410651 -0.0018027190026970439 0.0064241273536493901 -0.0067571231069508946 0.01309733383715907 -9.6284676124067854e-05 -0.0016322006380983761 0.0036979131295035278 -0.0023237549448385832 0.016333484305013524 -0.0064153493538845422 0.0047426393963396537 -0.0043343997703030194 -0.00032663229717449707 0.00056586297038011251 -0.002142692078836262 -0.0038446461651474237 0.0067292625058670442 0.0037305974978389164 -5.7562591677362252e-05 -0.0022541050719605249 0.02133984679430723 0.0020473250993217028
leaf_weight=691 117 14.999999999999998 9.9999999999999982 25 87 43 170 60 194 40 73 9.9999999999999982 77 37 12.999999999999998 9.9999999999999982 24 60 16.000000000000004 11.999999999999998 57 130 37 10.000000000000002 63 18 34 14.999999999999998 57 25 150 73 11.999999999999998 18 39 78 15.999999999999998 12.999999999999998 10.999999999999998 27 100 42 13.000000000000002 28 9.9999999999999982 19 23 23 48 32 9.9999999999999982 43 79 29
leaf_count=691 117 15 10 25 87 43 170 60 194 40 73 10 77 37 13 10 24 60 16 12 57 130 37 10 63 18 34 15 57 25 150 73 12 18 39 78 16 13 11 27 100 42 13 28 10 19 23 23 48 32 10 43 79 29
internal_value=1.62309e-05 0.0126244 -0.00776288 0.00625578 -0.00172515 0.0174648 -0.0100331 0.00323325 -0.00740135 0.00982673 0.00867215 -0.00469958 0.0158197 0.00658734 0.0243484 -0.000899009 -0.00569616 0.0174323 0.00571163 0.00684405 0.0136163 -0.011559 -0.0120735 -0.00265651 -0.00671621 0.000671621 -0.00542734 0.00222556 -0.0103045 0.00461145 0.0150276 0.0227077 -0.0063509 0.0103019 -0.0092611 0.0116856 0.00148697 0.000480782 -0.00170496 -0.000427953 0.0151423 -0.00822011 0.00290391 -0.006596 -0.00305407 0.00109843 -0.00133147 -0.00319626 0.00619489 0.00285223 -0.00259851 -0.00192248 0.0196442 0.00156606
internal_weight=3166 1208 1958 523 536 685 1422 238 525 349 309 274 556 152 129 174 298 316 158 129 240 897 728 86 236 64 131 73 251 115 165 116 210 75 169 151 26 29 62 38 160 105 31 198 44 58 33 101 58 57 76 53 156 48
internal_count=3166 1208 1958 523 536 685 1422 238 525 349 309 274 556 152 129 174 298 316 158 129 240 897 728 86 236 64 131 73 251 115 165 116 210 75 169 151 26 29 62 38 160 105 31 198 44 58 33 101 58 57 76 53 156 48
is_linear=0
shrinkage=0.04


Tree=11
num_leaves=52
num_cat=0
split_feature=1 1 1 0 0 1 13 1 0 23 19 23 23 1 23 21 1 1 0 3 15 1 15 20 23 21 21 1 1 12 1 1 1 3 2 1 3 3 1 6 3 4 1 3 4 3 1 1 3 3 3
split_gain=179.198 21.39 15.4614 7.75028 7.51567 4.19163 2.98108 2.03077 2.117 1.80407 1.51635 1.13116 1.07161 1.05454 0.952675 0.871964 0.73435 0.724579 0.645434 0.62064 0.524408 0.400893 0.328261 0.318764 0.302977 0.241563 0.161411 0.14334 0.140315 0.137029 0.111631 0.0863459 0.0811607 0.0742221 0.0719121 0.0665183 0.0643751 0.0577627 0.0478634 0.0421644 0.0385123 0.0319327 0.0282222 0.0245434 0.0100182 0.00953914 0.00708084 0.00638195 0.0043932 0.00282948 0.000564695
threshold=0.27313288437713001 0.9121810764731958 -0.41916932372694116 1.0058858285096008 1.0000000180025095e-35 1.8707533646172945 1.0000000180025095e-35 -0.84520145179098494 1.0000000180025095e-35 0.80258510587745868 1.0000000180025095e-35 1.0000000180025095e-35 1.0000000180025095e-35 1.3382132045372397 0.80258510587745868 1.0000000180025095e-35 0.64591099643316841 2.4032935246973492 1.0058858285096008 -1.0457374993534729 1.0000000180025095e-35 0.5926569804251629 1.0000000180025095e-35 2.0501747365216541 0.80258510587745868 1.0000000180025095e-35 1.0000000180025095e-35 -0.15289924368691379 -0.099645227678908349 -0.64606731721380717 -0.52567735574295205 0.37964091639314096 0.060116820345108062 -1.3375605021919379 1.5778874963770535 -0.57893137175095755 1.0000000180025095e-35 -0.097312740128461542 -0.15289924368691379 -0.79009557349826887 -0.46209149367654284 -0.35454459715188852 0.5926569804251629 0.55928901625808514 0.75985623141794101 -1.2646047514823218 0.69916501244117391 0.75241902844917929 0.48633326554846873 0.048598761290771009 0.048598761290771009
decision_type=2 2 2 2 2 2 2 2 2 2 2 2 2 2 2 2 2 2 2 2 2 2 2 2 2 2 2 2 2 2 2 2 2 2 2 2 2 2 2 2 2 2 2 2 2 2 2 2 2 2 2
left_child=2 3 7 9 6 13 14 24 12 10 20 44 35 18 23 22 42 34 37 -15 21 -2 27 28 25 -1 41 49 -4 -17 43 -12 -31 -20 -7 -9 -24 -3 -16 -34 -29 -18 45 -14 -8 -5 -43 -33 -13 -6 -10
right_child=1 5 4 16 15 17 11 8 50 -11 31 48 30 19 38 29 26 -19 33 -21 -22 -23 36 -25 -26 -27 -28 40 -30 32 -32 47 39 -35 -36 -37 -38 -39 -40 -41 -42 46 -44 -45 -46 -47 -48 -49 -50 -51 -52
leaf_value=-0.011905495953655244 0.0022841914120233721 0.014446021202015574 -0.0001134202895087323 -0.0014439860820197143 -0.0077840708680137864 0.025610592584352231 -0.0049602407927022262 -0.0076250200668970735 -0.0094640652466176176 0.017508211377190379 0.006684601031243801 0.0030546363911829718 -0.00020513970632519987 0.015165942352804645 0.0070967544775742755 0.0019529753300276671 -0.00069464320379880845 0.034696680545806886 0.011035670486536432 0.019866924253284422 0.011742743748426439 0.0067336068570181956 0 0.006329432237203475 -0.0066526815506719782 -0.0095304941555470896 0.005768034089356661 -0.0069764881893992423 0.0037895360397441047 -0.0043522362688492083 0.0023591600590600419 0.010463935252413693 -0.0028772920415951657 0.0053942208113995464 0.019862636984311618 -0.0056002070007868752 -0.0043442093816896277 0.019861698135733605 0.012778699318071208 0 -0.0048271559321997216 0.00026317321921565703 -0.0010418810730471332 -0.0023870996906224522 -0.0029780482137203215 -0.0036406442430373786 0.0018402119988265137 0.013141658811135723 0.0011017392252882323 -0.0099212655155431657 -0.011591862408293258
leaf_weight=624 71 194 27 11.999999999999998 118 36 67 137 66 40 14.999999999999998 42 17 144 11.999999999999998 9.9999999999999982 9.9999999999999982 12.999999999999998 93 116 19 68 13.000000000000002 53 30 130 14.999999999999998 89 27 28 11.999999999999998 82 11.999999999999998 9.9999999999999982 64 80 10.999999999999998 14.999999999999998 29 19.000000000000004 50 12.999999999999998 15.999999999999998 32 24 73 35 54 10.999999999999998 41 147
leaf_count=624 71 194 27 12 118 36 67 137 66 40 15 42 17 144 12 10 10 13 93 116 19 68 13 53 30 130 15 89 27 28 12 82 12 10 64 80 11 15 29 19 50 13 16 32 24 73 35 54 11 41 147
internal_value=1.80012e-05 0.0121291 -0.00745434 0.00600899 -0.00258486 0.0167804 0.00225653 -0.0100557 -0.0079743 0.00944007 0.00832964 -0.00181502 -0.00561171 0.015314 0.00623047 -0.00620716 -0.00086464 0.0239686 0.0135574 0.0173467 0.00548387 0.004522 -0.00708552 0.00411778 -0.0113422 -0.0115145 0.00214297 -0.00745507 0.00179875 -0.0020083 -0.000835447 0.0112253 -0.00276773 0.0105836 0.0222046 -0.00692601 -0.0022223 0.0149465 0.0114195 -0.00112029 -0.00627192 0.00105578 -0.00307737 -0.00172934 -0.004519 -0.00339744 0.00150882 0.0116445 0.0027513 -0.00841873 -0.0109985
internal_weight=3166 1208 1958 523 683 685 292 1275 491 349 309 144 278 572 148 391 174 113 312 260 158 139 322 107 784 754 73 298 54 69 61 151 59 103 100 217 24 209 41 31 139 58 101 49 91 85 48 136 53 159 213
internal_count=3166 1208 1958 523 683 685 292 1275 491 349 309 144 278 572 148 391 174 113 312 260 158 139 322 107 784 754 73 298 54 69 61 151 59 103 100 217 24 209 41 31 139 58 101 49 91 85 48 136 53 159 213
is_linear=0
shrinkage=0.04


Tree=12
num_leaves=56
num_cat=0
split_feature=1 1 1 0 0 1 1 8 0 5 29 17 1 8 7 3 1 1 0 0 1 22 7 1 0 19 4 8 1 12 3 1 1 34 28 4 3 6 2 29 22 8 1 5 29 22 3 7 3 3 34 34 36 4 1
split_gain=165.361 19.7286 14.2599 7.15872 5.66394 3.88279 2.94836 2.25492 2.13747 1.47566 1.3162 1.1737 0.974757 0.790687 0.733277 0.720664 0.68006 0.676891 0.541746 0.495999 0.45164 0.411448 0.392474 0.382346 0.32862 0.221416 0.177145 0.162436 0.159148 0.144773 0.144394 0.118478 0.110017 0.108343 0.10737 0.103971 0.379389 0.0657155 0.0639645 0.0591901 0.0575736 0.0457462 0.0437573 0.0415007 0.0402981 0.0335981 0.0305193 0.0297977 0.0277025 0.0242983 0.0191802 0.0139083 0.0119114 0.011626 0.00114116
threshold=0.27313288437713001 0.9121810764731958 -0.31266129171093021 1.0058858285096008 1.0000000180025095e-35 1.8707533646172945 -0.73869341977497394 0.52242956065741664 1.0000000180025095e-35 -0.94251665806228957 -0.71514799546982077 1.0000000180025095e-35 1.4447212365532507 -0.58297257705912331 -0.74261162741363518 -0.9727817486438568 0.64591099643316841 2.4032935246973492 1.0058858285096008 1.0058858285096008 -0.099645227678908349 1.0000000180025095e-35 -1.1785023933198535 0.69916501244117391 1.0000000180025095e-35 1.0000000180025095e-35 0.56881608937739891 0.52242956065741664 -0.52567735574295205 -0.64606731721380717 -0.1702684908380778 0.80567304445718479 -0.84520145179098494 -0.57541037629081515 0.42750585058598917 0.09121573427604325 -0.24322424154769409 1.0140462120736891 1.5778874963770535 -0.71514799546982077 -1.209907885524508 -1.1889409394339174 0.060116820345108062 0.29997862718216317 -0.24167276467570692 1.0000000180025095e-35 -1.1916490007727056 -0.99795052636830206 -0.9727817486438568 -0.3891357429669266 0.62731484412153549 0.6905577754531812 -0.70580775034510335 2.5428975571296681 -0.20615325969491929
decision_type=2 2 2 2 2 2 2 2 2 2 2 2 2 2 2 2 2 2 2 2 2 2 2 2 2 2 2 2 2 2 2 2 2 2 2 2 2 2 2 2 2 2 2 2 2 2 2 2 2 2 2 2 2 2 2
left_child=2 3 6 9 7 12 21 13 10 29 27 22 15 25 -9 26 48 38 20 -14 54 32 24 -24 -11 53 -3 33 47 -2 -10 46 -1 -8 41 -17 -37 -23 -7 -39 -31 -22 -20 -27 -30 -21 -18 -12 50 -36 -5 -52 -48 -4 -6
right_child=1 5 4 16 18 17 8 14 30 11 28 -13 19 -15 -16 35 31 -19 42 45 34 37 23 -25 -26 43 -28 -29 44 40 -32 -33 -34 -35 49 36 -38 39 -40 -41 -42 -43 -44 -45 -46 -47 52 -49 -50 -51 51 -53 -54 -55 -56
leaf_value=-0.0090905625980633956 0.0044120656538289039 0.011148760851631816 -0.00018332045897841447 -0.0035700337986151378 -0.0064910695440250276 0.02461385549081338 -0.0046142849829047903 0.0029335095748687402 -0.0071565872453923885 0.01823976458673892 0.0002755643523890864 -0.0018650062026885842 0.019857772791522673 0.011409928327720417 -0.0039381647531026558 0.015578683076886571 0.0016829346920694075 0.033407947744641987 -0.0085935558271594357 0.015745836987290332 0.00068758626400747095 -0.011348066038889918 0.0082881897732045989 0.011869858894348145 0.0096943297327860539 0.0061882155550500532 0.0049598406138164656 -0.0062954369810787406 0.0010499614430101295 0.0015837170576507395 -0.010135603257020313 0.0044975157091798994 -0.00556716289890535 0.00020918412553146482 -0.0015980232447385789 0.010274376573616809 0.018397584508447088 -0.011252356379719101 0.019080355374629682 -0.0085050512681576016 -0.002208546484155314 -0.0015244763080814949 -0.0058921334265276447 0.0033759193772163526 0.0044247143465493393 0.011411781622303859 0.00053048028331249939 -0.0020054160634366174 -0.0043733315235720228 -0.0045666301700879224 0 -0.0020652717359110036 -0.0012087439321489498 0.0013998837166776261 -0.004698026757770115
leaf_weight=103 14.999999999999998 116 10.000000000000002 23 56 36 15.000000000000002 38 57 22 9.9999999999999982 11.999999999999998 86 37 66 169 30 12.999999999999998 63 92 21 618 156 99 22 51 12.999999999999998 184 18 9.9999999999999982 194 22 32 10.999999999999998 13.999999999999998 54 15.999999999999998 58 64 86 13.000000000000002 37 42 25 13.000000000000002 26 11.000000000000002 23 25 21 9.9999999999999982 43 9.9999999999999982 10.999999999999998 44
leaf_count=103 15 116 10 23 56 36 15 38 57 22 10 12 86 37 66 169 30 13 63 92 21 618 156 99 22 51 13 184 18 10 194 22 32 11 14 54 16 58 64 86 13 37 42 25 13 26 11 23 25 21 10 43 10 11 44
internal_value=1.94288e-05 0.0116536 -0.00715857 0.00577547 -0.0015857 0.0161207 -0.00925377 0.00299778 -0.00682643 0.00907304 -0.00433156 0.00998228 0.0147089 0.00641423 -0.00138524 0.0133227 -0.000829814 0.0230408 -0.00525749 0.0171127 -0.00392083 -0.0106608 0.0104757 0.00973528 0.0143663 0.00437085 0.0105988 -0.0058577 0.000627638 0.00146396 -0.00950605 0.00206329 -0.00833187 -0.00249327 -0.0018217 0.0147259 0.0124204 -0.0110567 0.021336 -0.00970916 -0.000395782 -0.000657681 -0.0076165 0.00537092 0.00268423 0.0149284 0.000870011 -0.00120879 -0.00295981 -0.00356767 -0.00239213 -0.00175025 -0.000133201 0.000490095 -0.00579606
internal_weight=3166 1208 1958 523 536 685 1422 238 525 349 274 311 572 134 104 368 174 113 298 204 193 897 299 255 44 97 129 210 64 38 251 73 135 26 93 239 70 762 100 144 23 58 105 76 31 118 51 33 101 35 76 53 21 21 100
internal_count=3166 1208 1958 523 536 685 1422 238 525 349 274 311 572 134 104 368 174 113 298 204 193 897 299 255 44 97 129 210 64 38 251 73 135 26 93 239 70 762 100 144 23 58 105 76 31 118 51 33 101 35 76 53 21 21 100
is_linear=0
shrinkage=0.04


Tree=13
num_leaves=60
num_cat=0
split_feature=1 1 1 0 0 1 8 22 23 23 19 7 1 8 21 1 23 1 0 15 0 22 3 1 15 19 21 6 21 3 12 1 5 22 1 22 1 22 5 3 1 6 22 1 21 27 4 3 3 1 3 5 4 28 3 28 1 3 1
split_gain=152.591 18.2137 13.1908 6.61099 6.41838 3.59561 2.54363 1.84306 1.85687 1.58351 1.33222 0.96558 0.838997 0.81311 0.74735 0.729469 0.710468 0.630441 0.576259 0.470414 0.425762 0.39291 0.337012 0.290697 0.285304 0.272784 0.235028 0.190689 0.144082 0.132673 0.12406 0.118664 0.0930393 0.090318 0.0759319 0.0726109 0.0669017 0.0629307 0.0625844 0.0564529 0.0423552 0.0396374 0.0355082 0.0342332 0.0323918 0.0322608 0.028476 0.0256105 0.0248957 0.0177136 0.0138511 0.00866982 0.00865861 0.00662199 0.00586263 0.00321258 0.00297551 0.00278243 0.00128901
threshold=0.27313288437713001 0.9121810764731958 -0.41916932372694116 1.0058858285096008 1.0000000180025095e-35 1.817499348609289 0.52242956065741664 1.0000000180025095e-35 0.80258510587745868 0.80258510587745868 1.0000000180025095e-35 -0.74261162741363518 1.2317051725212287 -0.58297257705912331 1.0000000180025095e-35 2.4032935246973492 1.0000000180025095e-35 0.64591099643316841 1.0058858285096008 1.0000000180025095e-35 1.0058858285096008 1.0000000180025095e-35 1.6536252769023292 -0.73869341977497394 1.0000000180025095e-35 1.0000000180025095e-35 1.0000000180025095e-35 1.0140462120736891 1.0000000180025095e-35 -0.097312740128461542 -0.64606731721380717 -0.15289924368691379 0.6106024484932765 1.0000000180025095e-35 0.37964091639314096 -1.209907885524508 0.060116820345108062 1.0000000180025095e-35 0.29997862718216317 1.0000000180025095e-35 -0.15289924368691379 -0.79009557349826887 1.0000000180025095e-35 -0.15289924368691379 1.0000000180025095e-35 -0.91780926845849897 -0.35454459715188852 1.3618022740638642 -0.9727817486438568 0.5926569804251629 0.048598761290771009 -1.7190762113400724 0.75985623141794101 -0.50498982734985731 -1.1916490007727056 -0.44440825502715403 0.75241902844917929 0.12155451200038729 -0.57893137175095755
decision_type=2 2 2 2 2 2 2 2 2 2 2 2 2 2 2 2 2 2 2 2 2 2 2 2 2 2 2 2 2 2 2 2 2 2 2 2 2 2 2 2 2 2 2 2 2 2 2 2 2 2 2 2 2 2 2 2 2 2 2
left_child=2 3 7 9 6 12 13 16 26 10 19 42 20 25 24 27 23 48 -14 21 29 -2 32 -1 31 43 50 -7 46 35 -16 57 47 -22 -12 -3 -32 -20 -27 -26 -15 -38 -8 -4 -25 -33 -19 -10 49 55 -9 -46 -13 -18 -48 -5 -36 -6 -28
right_child=1 5 4 17 14 15 11 8 22 -11 34 52 18 40 30 -17 53 28 37 -21 33 -23 -24 44 39 38 58 -29 -30 -31 36 45 -34 -35 56 -37 41 -39 -40 -41 -42 -43 -44 -45 51 -47 54 -49 -50 -51 -52 -53 -54 -55 -56 -57 -58 -59 -60
leaf_value=-0.008440812653349351 0.0049442557756873692 0.0089602311754226702 -0.0013356053387889491 -0.0017772705543786286 -0.0072805025926050305 0.018957973544414225 0.00308276046899169 -0.009175293293595314 -0.00036346585566008618 0.016277444851107711 0.0061231212634593251 -0.0045762597240014552 0.017460433303930198 0.0064994025047008805 0.0019296171976761387 0.032167080198015487 0 -0.00068823994594541455 0.014188382650094646 0.010931424814462663 0.010020028893289897 -0.0010304112967103722 -0.0065196787201125053 -0.0039712514258921144 0 0.0058468564688400537 -0.0083416398951881819 0.027344020928655354 0.0054112216657958923 0.018441070005297662 -0.0040026781908397016 -0.0065998985277754916 0.001639202772290446 0.0054645436915912128 0.0096828800913799223 0.013192232550833169 -0.0027481180589932664 0.010540847689697617 0.0029425131460962197 -0.0039764319130529959 0.01184340540766716 0 0.00010883899824693797 0.0015019802472421102 -0.0041868573638300099 -0.0046653161242138598 0.0018182804101457201 -0.0037606698057868261 -0.0042051263233790033 -0.0006220025327056646 -0.010935435349613892 -0.0064858048107565907 -0.0027086940186657011 0.0011452652843048177 0.00046994240460917347 -0.0032147697336463764 0.01217679235718467 -0.0095833317082503755 -0.0051085967063903802
leaf_weight=128 120 24 12.000000000000002 29 131 103 42 79 10.000000000000002 40 14.999999999999998 67 156 11.999999999999998 9.9999999999999982 12.999999999999998 10.000000000000002 9.9999999999999982 123 19 57 19 28 39 13.000000000000002 53 56 12.999999999999998 14.999999999999998 14.999999999999998 28 76 14.999999999999998 18 82 126 11.999999999999998 37 29 10.999999999999998 29 19.000000000000004 10.999999999999998 12.999999999999998 23 63 28.999999999999996 9.9999999999999982 25 14.999999999999998 771 81 24 10.999999999999998 19.000000000000004 32 54 28 13.999999999999998
leaf_count=128 120 24 12 29 131 103 42 79 10 40 15 67 156 12 10 13 10 10 123 19 57 19 28 39 13 53 56 13 15 15 28 76 15 18 82 126 12 37 29 11 29 19 11 13 23 63 29 10 25 15 771 81 24 11 19 32 54 28 14
internal_value=2.06831e-05 0.0111966 -0.00687455 0.00554826 -0.00237624 0.015489 0.00209702 -0.00927734 -0.0101184 0.00871721 0.00767628 -0.00166233 0.0140191 0.00576822 -0.00572391 0.0216368 -0.0064075 -0.000798484 0.0154864 0.00500802 0.0120144 0.00409748 -0.00331576 -0.00695601 -0.00653737 0.00381176 -0.0105758 0.0201577 0.00198589 0.0132679 -0.00183146 -0.00688199 -0.000531618 0.00906563 0.0103906 0.0126054 -0.00255714 0.0134404 0.00491573 -0.00199419 0.0105665 -0.0010422 0.00255305 0 -0.0055498 -0.00579123 0.000955536 -0.00235074 -0.00284991 -0.00230334 -0.0107875 -0.0060602 -0.00416199 0.000483567 0.00138668 -0.00263557 0.010784 -0.00776839 -0.00783243
internal_weight=3166 1208 1958 523 683 685 292 1275 983 349 309 144 556 148 391 129 292 174 316 158 240 139 63 271 322 107 920 116 73 165 69 298 35 75 151 150 59 160 82 24 41 31 53 25 143 139 58 20 101 76 850 104 91 21 48 61 136 159 70
internal_count=3166 1208 1958 523 683 685 292 1275 983 349 309 144 556 148 391 129 292 174 316 158 240 139 63 271 322 107 920 116 73 165 69 298 35 75 151 150 59 160 82 24 41 31 53 25 143 139 58 20 101 76 850 104 91 21 48 61 136 159 70
is_linear=0
shrinkage=0.04


Tree=14
num_leaves=59
num_cat=0
split_feature=1 1 1 0 0 1 8 22 23 23 20 1 23 8 21 1 23 0 0 6 8 1 3 1 21 15 20 22 21 6 1 3 1 3 8 1 1 3 1 34 1 21 22 1 27 1 6 34 3 3 6 1 1 3 4 1 3 1
split_gain=140.821 16.8453 12.163 5.93232 5.78691 3.63744 2.35156 1.69476 1.7061 1.52841 1.0815 1.01877 0.893009 0.752187 0.689163 0.68085 0.656274 0.575797 0.526939 0.398502 0.415955 0.387888 0.310623 0.266273 0.264102 0.261011 0.252046 0.226575 0.212521 0.180244 0.108126 0.105036 0.0884048 0.0736653 0.0710996 0.0616563 0.0596931 0.0523108 0.0428002 0.0410306 0.0368806 0.0328589 0.032299 0.0317436 0.0286229 0.0223402 0.0202709 0.0114911 0.0112687 0.010062 0.00984521 0.00945203 0.00751409 0.00714922 0.00631734 0.00398673 0.001738 0.00169488
threshold=0.27313288437713001 0.8589270604651903 -0.41916932372694116 1.0000000180025095e-35 1.0058858285096008 1.817499348609289 0.52242956065741664 1.0000000180025095e-35 0.80258510587745868 0.80258510587745868 1.0000000180025095e-35 1.2317051725212287 1.0000000180025095e-35 -0.58297257705912331 1.0000000180025095e-35 2.4032935246973492 1.0000000180025095e-35 1.0058858285096008 1.0058858285096008 -0.79009557349826887 -1.2865240233142008 0.64591099643316841 1.6536252769023292 -0.79194743578297944 1.0000000180025095e-35 1.0000000180025095e-35 1.0000000180025095e-35 -1.209907885524508 1.0000000180025095e-35 1.0140462120736891 -0.15289924368691379 -0.097312740128461542 0.060116820345108062 1.2888465233542481 0.14539747694182362 -0.25940727570292471 1.4979752525612562 -0.097312740128461542 0.37964091639314096 1.4394872254331967 -0.046391211670902884 1.0000000180025095e-35 1.0000000180025095e-35 -0.15289924368691379 -0.91780926845849897 0.5926569804251629 -1.0000000180025095e-35 0.1202618683572879 -1.1916490007727056 0.048598761290771009 1.0000000180025095e-35 0.69916501244117391 -0.099645227678908349 -1.2646047514823218 -0.41822464449873592 1.4447212365532507 0.12155451200038729 0.75241902844917929
decision_type=2 2 2 2 2 2 2 2 2 2 2 2 2 2 2 2 2 2 2 2 2 2 2 2 2 2 2 2 2 2 2 2 2 2 2 2 2 2 2 2 2 2 2 2 2 2 2 2 2 2 2 2 2 2 2 2 2 2
left_child=2 4 7 6 9 11 13 16 28 10 19 17 52 26 25 29 23 31 55 27 -21 45 33 -1 -19 30 43 -2 49 -7 56 47 50 -10 -34 -28 -20 -27 -12 48 -15 -25 -14 -4 -32 53 -36 -3 57 -9 -16 -50 -8 -6 -18 -13 -5 -23
right_child=1 5 3 14 21 15 12 8 22 -11 38 18 42 40 32 -17 54 24 36 20 -22 39 -24 41 -26 37 35 -29 -30 -31 44 -33 34 -35 46 -37 -38 -39 -40 -41 -42 -43 -44 -45 -46 -47 -48 -49 51 -51 -52 -53 -54 -55 -56 -57 -58 -59
leaf_value=-0.0083171010318103134 0.0033885543906688686 0.0094778732206140248 -0.0012862906844283524 -0.006991488673808899 -0.0012480243563365479 0.018206946240021633 -0.0043324990865761699 -0.0088128691397607317 0.0014008967955451226 0.01550494612157345 0.0058935042694211008 0.014986026062415198 0.0029623177880204695 0.0074227078642163961 -0.003990038155154748 0.030972303135054453 0 0.002082813696219371 0.01087759420617682 0.0094520021736621863 0.0038578874429536837 0.0015677763780113311 -0.0062678843140602115 -0.0039689871526734774 0.0091545920179862718 0 0.0014175359278988952 -0.0025412372803205953 -0.0075289624979798225 0.026328386477061684 -0.0063393311200590878 0.016757395653497608 0.0022853802876038986 -0.0021374507161478202 -0.002337659296305741 0.0052080144221487816 0.013970011163466047 -0.0036821918865809072 0.0099881924961367219 0.003431457832455635 0.012139067693190142 -0.0059657730961839356 0.00010484822513535617 0.0014461924497570311 -0.0044816191696272654 -0.00089512487018809613 0 0.012498246753588318 -0.00084881040453910791 -0.010498584001329896 -0.0013323332355781037 0.00073470536495248468 -0.0023882929000072178 -0.0032499261616250959 0.001159009671346708 0.018242810723185537 -0.009213217098137428 0.00028628726250358986
leaf_weight=110 24 34 12.000000000000002 131 11.999999999999998 103 72 79 14.999999999999998 39 14.999999999999998 77 42 20 21.000000000000004 12.999999999999998 11.000000000000002 11.999999999999998 60 34 73 14.999999999999998 28 42 75 12.000000000000002 11.999999999999998 15.999999999999998 70 12.999999999999998 76 20 9.9999999999999982 20 15.999999999999998 70 100 11.999999999999998 116 10.999999999999998 21 119 10.999999999999998 12.999999999999998 63 15.999999999999998 12.000000000000002 143 11.000000000000005 771 9.9999999999999982 10.999999999999998 19 73 9.9999999999999982 79 28 12.999999999999998
leaf_count=110 24 34 12 131 12 103 72 79 15 39 15 77 42 20 21 13 11 12 60 34 73 15 28 42 75 12 12 16 70 13 76 20 10 20 16 70 100 12 116 11 21 119 11 13 63 16 12 143 11 771 10 11 19 73 10 79 28 13
internal_value=2.1876e-05 0.0107582 -0.00660204 -0.00228221 0.00490395 0.0145874 0.00201794 -0.00890937 -0.00971619 0.00804066 0.00692735 0.0132131 -0.00159587 0.00554804 -0.00550074 0.0207979 -0.00615571 0.011306 0.0148733 0.00447173 0.00574355 -0.00122108 -0.00319126 -0.00668293 0.00825938 -0.0062821 0.00366409 0.000914947 -0.0101547 0.0193685 -0.00661208 0.0125827 -0.0017596 -0.000513114 -0.000326556 0.00472526 0.01291 -0.0019242 0.00959784 0.00124033 0.0101652 -0.00549728 0.00245626 0 -0.00556394 -0.00274447 -0.00144396 0.011997 0.000622023 -0.0103572 -0.00332614 0 -0.00400042 -0.00303161 0.000460662 0.0167665 -0.00746287 0.00114112
internal_weight=3166 1208 1958 683 479 729 292 1275 983 317 278 600 144 148 391 129 292 284 316 147 107 162 63 271 87 322 107 40 920 116 298 197 69 35 38 82 160 24 131 61 41 161 53 25 139 101 28 177 50 850 31 22 91 85 21 156 159 28
internal_count=3166 1208 1958 683 479 729 292 1275 983 317 278 600 144 148 391 129 292 284 316 147 107 162 63 271 87 322 107 40 920 116 298 197 69 35 38 82 160 24 131 61 41 161 53 25 139 101 28 177 50 850 31 22 91 85 21 156 159 28
is_linear=0
shrinkage=0.04


Tree=15
num_leaves=56
num_cat=0
split_feature=1 1 1 29 35 1 1 23 23 19 23 29 19 33 1 35 1 23 7 7 7 17 1 21 23 35 1 1 36 27 8 35 35 6 1 8 1 7 34 1 28 34 1 5 28 12 28 35 35 34 34 35 1 1 34
split_gain=129.964 15.5472 11.2226 5.34232 3.62271 3.37056 2.32079 1.75752 1.41035 1.24988 1.18931 1.10456 0.995787 0.848873 0.802416 0.659469 0.643974 0.605787 0.546945 0.464568 0.374825 0.472795 0.360252 0.352334 0.438488 0.325379 0.248945 0.246854 0.165133 0.140515 0.127333 0.125607 0.111923 0.082752 0.0693181 0.0656338 0.0652537 0.0870579 0.0579227 0.0420202 0.0380549 0.037765 0.0367411 0.0345426 0.0322276 0.0282878 0.0271898 0.0221248 0.0218607 0.0170352 0.0131165 0.0119164 0.00750128 0.00377181 0.000342643
threshold=0.27313288437713001 0.8589270604651903 -0.31266129171093021 1.0000000180025095e-35 -0.42188499722482548 1.710991316593278 -0.73869341977497394 0.80258510587745868 0.80258510587745868 1.0000000180025095e-35 0.80258510587745868 -0.24167276467570692 1.0000000180025095e-35 2.22061977121747 2.4032935246973492 0.044296885891754616 1.2317051725212287 0.80258510587745868 -0.74261162741363518 -0.88708907878026733 1.4708922550032957 1.0000000180025095e-35 0.64591099643316841 1.0000000180025095e-35 0.80258510587745868 0.857836949626676 1.2849591885292342 1.0000000180025095e-35 -1.0908555489038181 1.0000000180025095e-35 0.14539747694182362 -0.93583722928464974 -0.21664459053775389 1.0000000180025095e-35 -0.4724233397349466 -1.1889409394339174 -0.89845546779899033 -0.42988662045213194 -0.48442931718213184 0.11337083635311354 0.56733634333036453 1.4394872254331967 0.37964091639314096 0.29997862718216317 0.084483826377393337 -0.0056637084790189399 -0.6042061562256289 0.72446287195608305 0.12098698055234557 0.62731484412153549 0.6905577754531812 0.38718501204531491 -0.046391211670902884 0.69916501244117391 -0.027304971416552172
decision_type=2 2 2 2 2 2 2 2 2 2 2 2 2 2 2 2 2 2 2 2 2 2 2 2 2 2 2 2 2 2 2 2 2 2 2 2 2 2 2 2 2 2 2 2 2 2 2 2 2 2 2 2 2 2 2
left_child=2 3 6 8 7 13 23 9 12 19 11 18 20 15 25 -3 30 27 34 44 21 -2 47 24 -1 -7 40 35 -21 54 -17 -12 -13 -22 -8 45 -25 -38 -20 -19 -15 46 -14 -11 -4 -6 -24 -5 -37 -49 -51 -31 -45 -48 -29
right_child=1 5 4 22 17 14 10 -9 -10 43 31 32 42 26 -16 16 -18 39 38 28 33 -23 41 36 -26 -27 -28 29 -30 51 -32 -33 -34 -35 -36 48 37 -39 -40 -41 -42 -43 -44 52 -46 -47 53 49 -50 50 -52 -53 -54 -55 -56
leaf_value=-0.010105666670754465 0.0060901579257536574 0.019314763658925108 0 -0.0039220163378004842 0 0.021399436473846435 -0.00193373221619986 0.010155922995586144 0.014900253081321717 0.0055234190360284778 -0.0014712012442094941 -0.0089728418213434712 0.0056724978461861605 0.014154119961882291 0.029821903347969053 0.0093257038021939149 0.012624402476982637 -0.0075259266642729444 -0.0056253135863529591 0.001203944542868571 -0.0025091749467731758 -0.0019027024897245262 -0.00082973901031968696 -0.0083488963292403656 -0.0051696978037392627 0.016069197858755404 0.017569222482767974 0.0024221151816574004 -0.0038680827648378915 -0.002509683262775926 0.0036897925585508348 0.0033585220421198754 -0.0063119255100087882 0.0018287189574090435 0.0012975278674116867 -0.0047341717712788122 -0.0026099852090701457 -0.0069262034685715389 -0.0026087917827069757 -0.0047971724900417031 0.0099517388664759135 0.0033056377544999124 0.0095920795844151429 0.0013860196021313847 0.0026861434842825735 -0.0029498411475370324 0.00017340743076056241 -0.0032219683714210983 -0.0020958879530429842 0 -0.0018180141694081778 -0.0003270724910226735 0.0038951742851308412 0.0015016445153607772 0.00067450144277377553
leaf_weight=691 108 18 9.9999999999999982 25 12.000000000000002 51 19 37 39 51 12.999999999999998 194 14.999999999999998 72 12.999999999999998 174 197 74 183 9.9999999999999982 11.000000000000002 11.999999999999998 11.999999999999998 109 37 103 65 10.000000000000002 79 33 10.999999999999998 19 57 15.999999999999998 21 89 14.999999999999998 45 19 31 25 10.999999999999998 116 12.000000000000002 27 13.999999999999998 12.999999999999998 23 13.999999999999998 9.9999999999999982 43 9.9999999999999982 12.999999999999998 25 9.9999999999999982
leaf_count=691 108 18 10 25 12 51 19 37 39 51 13 194 15 72 13 174 197 74 183 10 11 12 12 109 37 103 65 10 79 33 11 19 57 16 21 89 15 45 19 31 25 11 116 12 27 14 13 23 14 10 43 10 13 25 10
internal_value=2.33699e-05 0.0103376 -0.00634002 0.0047129 -0.00139517 0.0140163 -0.0081988 0.00225461 0.00772677 0.000744733 -0.00604294 -0.00652866 0.00665628 0.0124662 0.019104 0.0113588 0.010924 -0.00434333 -0.00453236 -0.00167392 0.00429777 0.00524869 -0.00117131 -0.00944801 -0.00986772 0.0179869 0.0150894 -0.00294486 -0.0032467 -0.000794754 0.00903374 0.00129011 -0.00841189 0 -0.000149489 -0.00394995 -0.00756908 -0.0059732 -0.00537553 -0.00681089 0.0132244 0.00119922 0.00921995 0.00477621 0.00198988 -0.00177704 0.000601644 -0.00263994 -0.00443763 -0.0021208 -0.00151805 -0.00211198 0.00294426 0.00116591 0.00181251
internal_weight=3166 1208 1958 479 536 729 1422 239 317 202 525 493 278 562 167 400 382 297 242 126 147 120 162 897 728 154 162 192 89 63 185 32 251 27 40 129 169 60 202 105 97 61 131 76 37 26 50 101 103 76 53 43 25 38 20
internal_count=3166 1208 1958 479 536 729 1422 239 317 202 525 493 278 562 167 400 382 297 242 126 147 120 162 897 728 154 162 192 89 63 185 32 251 27 40 129 169 60 202 105 97 61 131 76 37 26 50 101 103 76 53 43 25 38 20
is_linear=0
shrinkage=0.04


Tree=16
num_leaves=58
num_cat=0
split_feature=1 1 1 0 0 1 8 22 23 23 20 1 23 21 8 21 23 3 3 4 15 22 3 1 1 15 20 21 12 1 1 1 3 22 3 3 1 3 12 1 22 4 21 28 3 34 4 8 1 28 3 3 1 1 3 1 22
split_gain=119.914 14.3944 10.3734 5.2373 5.09957 2.71686 2.00421 1.4526 1.43979 1.27626 1.15301 0.83451 0.76715 0.727853 0.639762 0.588403 0.573061 0.559696 0.495558 0.495346 0.486157 0.350702 0.271493 0.263845 0.226833 0.219745 0.214536 0.169381 0.107514 0.104957 0.0962814 0.0931055 0.0898412 0.0764784 0.072879 0.06754 0.0534563 0.0452802 0.0360523 0.0351921 0.0307717 0.0289358 0.0270539 0.0201259 0.0198487 0.0171524 0.00817045 0.0080198 0.00760214 0.00591965 0.00515006 0.00449281 0.00318607 0.00208412 0.00174014 0.000918814 0.000427861
threshold=0.27313288437713001 0.9654350924812013 -0.41916932372694116 1.0058858285096008 1.0000000180025095e-35 2.0305154126413112 0.52242956065741664 1.0000000180025095e-35 0.80258510587745868 0.80258510587745868 1.0000000180025095e-35 1.4447212365532507 1.0000000180025095e-35 1.0000000180025095e-35 -0.58297257705912331 1.0000000180025095e-35 1.0000000180025095e-35 -1.1186932500630891 -1.0457374993534729 5.1060194628402771 1.0000000180025095e-35 1.0000000180025095e-35 1.7265810276119458 0.64591099643316841 -0.73869341977497394 1.0000000180025095e-35 2.0501747365216541 1.0000000180025095e-35 -0.64606731721380717 -0.099645227678908349 0.75241902844917929 -0.15289924368691379 1.0000000180025095e-35 1.0000000180025095e-35 -1.3375605021919379 1.2888465233542481 0.060116820345108062 -0.097312740128461542 1.0000000180025095e-35 -0.15289924368691379 1.0000000180025095e-35 -0.35454459715188852 1.0000000180025095e-35 -0.11734987338393883 -0.9727817486438568 0.92799614922462315 0.75985623141794101 -0.58297257705912331 -0.099645227678908349 -0.50498982734985731 0.048598761290771009 -1.1916490007727056 -0.57893137175095755 0.5926569804251629 0.12155451200038729 -0.73869341977497394 1.0000000180025095e-35
decision_type=2 2 2 2 2 2 2 2 2 2 2 2 2 2 2 2 2 2 2 2 2 2 2 2 2 2 2 2 2 2 2 2 2 2 2 2 2 2 2 2 2 2 2 2 2 2 2 2 2 2 2 2 2 2 2 2 2
left_child=2 3 7 9 6 11 14 16 27 10 20 18 46 23 26 25 24 33 34 -7 21 -2 35 44 -1 31 29 50 -17 -4 56 54 -20 -13 -3 -10 -30 -27 -38 -16 -14 -25 -26 -33 45 -5 -8 -15 -28 -18 -9 -43 -29 -22 -6 -37 -12
right_child=1 5 4 13 15 19 12 8 22 -11 30 17 40 47 39 28 49 -19 32 -21 53 -23 -24 41 42 37 48 52 36 -31 -32 43 -34 -35 -36 55 38 -39 -40 -41 -42 51 -44 -45 -46 -47 -48 -49 -50 -51 -52 -53 -54 -55 -56 -57 -58
leaf_value=-0.0074793480560761084 0.0044168799599588271 0.0095646950601098631 -0.00015289887732693126 -0.0024069801241917124 -0.0064562151311106522 0.018471737954833291 -0.0040623664314831231 -0.0081265762362629172 0.0012650596710736864 0.014661347576550075 0.0087529466173178715 0.013625388614697889 0.0027965405748853851 0.0034828701633959997 0.0056940277539766753 0.0018702373555438087 0 0.017396708214951453 0.012387324774438895 0.028292640614509583 0.0065754039775241481 -0.0012036000990308822 -0.0060335857912346171 -0.00082898171882455544 -0.003460969024896622 0 0.003400019504522022 -0.0074568511516901496 -0.0035973864917097421 0.003208164556218045 0.010915501967072486 -0.005838914012438373 0.018638567144220526 0.0095624382242560386 0.0048758914527217189 -0.0027965499277819291 0 -0.0034196058377050434 -0.0025589411465021272 0.010573695780833564 2.1026735892519334e-05 0.0016072544059405724 -0.0053748313194229491 -0.0041583720557964764 -0.0037711695905488269 -0.00058941123046373075 -0.0023218535402417181 0.0071840667565663653 0.0059317833118968542 0.0011192579989631971 -0.0096835090379988296 0.00038518476272001855 -0.00444100904862086 0.012051634265826299 -0.008556734623580144 -0.0009425885440924992 0.0061997557293091508
leaf_weight=128 125 103 27 58 131 54 67 79 14.999999999999998 41 70 109 42 11.000000000000002 11.999999999999998 9.9999999999999982 10.000000000000002 106 205 19 10.000000000000002 19 26 10.999999999999998 39 12.000000000000002 18 56 28 27 71 75 9.9999999999999982 29 12.999999999999998 9.9999999999999982 19 11.999999999999998 12.000000000000002 29 10.999999999999998 28.999999999999996 104 64 25 18 24 13.999999999999998 35 10.999999999999998 771 19.000000000000004 13.999999999999998 11.999999999999998 28 12.000000000000002 27
leaf_count=128 125 103 27 58 131 54 67 79 15 41 70 109 42 11 12 10 10 106 205 19 10 19 26 11 39 12 18 56 28 27 71 75 10 29 13 10 19 12 12 29 11 29 104 64 25 18 24 14 35 11 771 19 14 12 28 12 27
internal_value=2.40667e-05 0.0099315 -0.00608829 0.00520939 -0.00209834 0.0139919 0.00188786 -0.0082192 -0.0089666 0.00792075 0.00704007 0.0130051 -0.00144678 -0.000278129 0.00514715 -0.00508266 -0.00566748 0.0149188 0.0115416 0.0214297 0.00458357 0.00364452 -0.00296377 -0.00129992 -0.00616041 -0.00580501 0.00340456 -0.00936965 -0.00161979 0.00148268 0.00940218 -0.00610842 0.0127815 0.0128753 0.00911958 -0.000599335 -0.0022993 -0.00178404 -0.000926058 0.00941032 0.00230562 0.000766226 -0.00490831 -0.00512894 -0.00254178 -0.0020417 -0.00367704 0.00590598 0.0052249 0.000502784 -0.00955323 0.00122288 -0.00698107 0.0101305 -0.00690229 -0.00204416 0.0081536
internal_weight=3166 1208 1958 560 683 648 292 1275 983 375 334 575 144 185 148 391 292 244 331 73 166 144 63 160 271 322 107 920 69 54 168 298 215 138 116 37 59 24 31 41 53 59 143 139 101 76 91 25 53 21 850 48 70 22 159 22 97
internal_count=3166 1208 1958 560 683 648 292 1275 983 375 334 575 144 185 148 391 292 244 331 73 166 144 63 160 271 322 107 920 69 54 168 298 215 138 116 37 59 24 31 41 53 59 143 139 101 76 91 25 53 21 850 48 70 22 159 22 97
is_linear=0
shrinkage=0.04


Tree=17
num_leaves=61
num_cat=0
split_feature=1 1 1 0 0 1 8 22 23 23 19 1 23 21 7 8 3 21 1 4 3 3 1 22 1 21 12 19 15 12 1 3 3 28 1 22 8 3 8 1 5 1 1 5 1 12 1 1 1 11 4 1 28 3 8 8 1 1 22 4
split_gain=110.663 13.2763 9.57424 4.83603 4.37066 2.5141 1.58844 1.58199 1.41557 1.17673 1.06205 0.767012 0.678157 0.675676 0.608962 0.597572 0.512353 0.47432 0.467859 0.459105 0.45443 0.285563 0.254439 0.251168 0.244406 0.243689 0.230101 0.211211 0.154838 0.0957095 0.0865833 0.0865623 0.0853758 0.0819359 0.0728546 0.0669798 0.0657509 0.0646251 0.0559382 0.0501616 0.0452948 0.0441291 0.0436447 0.0371638 0.0371247 0.0335883 0.0330261 0.0284211 0.0280511 0.0278205 0.0270099 0.0188723 0.0181907 0.011924 0.00699982 0.00628892 0.00439238 0.00382186 0.00141868 0.00107763
threshold=0.27313288437713001 0.9654350924812013 -0.36591530771893571 1.0058858285096008 1.0000000180025095e-35 2.0305154126413112 0.52242956065741664 1.0000000180025095e-35 0.80258510587745868 0.80258510587745868 1.0000000180025095e-35 1.4447212365532507 1.0000000180025095e-35 1.0000000180025095e-35 -0.74261162741363518 -0.58297257705912331 -1.1186932500630891 1.0000000180025095e-35 0.64591099643316841 5.1060194628402771 -1.0457374993534729 1.3618022740638642 -0.73869341977497394 1.0000000180025095e-35 0.64591099643316841 1.0000000180025095e-35 1.0000000180025095e-35 1.0000000180025095e-35 1.0000000180025095e-35 -0.64606731721380717 0.75241902844917929 -0.097312740128461542 1.0000000180025095e-35 -0.11734987338393883 -1.1114715318310122 1.0000000180025095e-35 0.14539747694182362 -1.3375605021919379 0.52242956065741664 -0.57893137175095755 -1.7190762113400724 0.060116820345108062 -0.15289924368691379 0.6106024484932765 -0.20615325969491929 1.0000000180025095e-35 1.0000000180025095e-35 0.11337083635311354 -0.15289924368691379 -0.81651593834538061 -0.35454459715188852 0.5926569804251629 -0.44440825502715403 1.7995367783215619 -1.2865240233142008 -0.58297257705912331 0.69916501244117391 -0.046391211670902884 -1.209907885524508 0.2822558763165855
decision_type=2 2 2 2 2 2 2 2 2 2 2 2 2 2 2 2 2 2 2 2 2 2 2 2 2 2 2 2 2 2 2 2 2 2 2 2 2 2 2 2 2 2 2 2 2 2 2 2 2 2 2 2 2 2 2 2 2 2 2 2
left_child=2 3 7 9 6 11 15 12 25 10 18 20 22 24 -8 27 35 28 23 -7 37 43 -1 -2 51 31 -20 48 33 -19 59 36 -22 47 -23 -13 -9 -3 -24 -27 -40 -31 -30 -10 -35 -43 -29 -6 -4 -14 -26 52 -5 -36 -33 -15 -52 -17 -16 -12
right_child=1 5 4 13 17 19 14 8 21 -11 30 16 49 55 58 57 -18 29 26 -21 32 34 38 -25 50 39 -28 46 42 41 -32 54 -34 44 53 -37 -38 -39 40 -41 -42 45 -44 -45 -46 -47 -48 -49 -50 -51 56 -53 -54 -55 -56 -57 -58 -59 -60 -61
leaf_value=-0.0071824934852215677 0.0035093169284386352 0.0091857859143414169 -0.0013348961182249087 -0.0017293932499984899 -0.0068312999797718868 0.017746302990479901 0.0024766582348586426 -0.0043495005994387296 -0.00043038311564702186 0.014088856593483972 0.008111931233582172 0.013085327823595568 0.0021541137462402476 0.0033551649038369448 -0.0022214440594498929 0.0068047978844907545 0.016707343100387361 0.0018022286979989574 0.0082889984909023315 0.027217519807815553 0.011894236939154493 -0.006681553608841366 -0.001642972190398723 -0.0014285993577912452 -0.00079858573107048875 -0.0071638098447992099 0.0024947001836017556 0.0031892089810828827 -0.0032578362214512047 -0.0033890086268937147 0.010484946101903914 -0.0071141723821292061 0.017960800561037934 -0.0057681187104183041 -0.0015090050487973103 0.0091926907966534306 -0.0082550142072141171 0.0046947869315211261 -0.0030693520643881389 -0.0039394076550784323 -0.005317888223523394 0 0 0.0025800424258535111 -0.0038182359837576172 -0.0024644571531277433 0.0054814898228566899 -0.0041431786615563479 0.0012955522659633843 -0.00023027831800282001 0.00013170989988637821 -0.00073464627125683951 -0.0033655413520367202 -0.004129254464398731 -0.0093059077085775981 0.006915861650307973 0.0014422287022074062 0.010884081331166355 -0.0037237237833368663 0.0045453103429807179
leaf_weight=128 77 103 11.000000000000002 38 111 54 45 22 10.000000000000002 41 87 109 10.000000000000002 11.000000000000002 25 17 106 9.9999999999999982 52 19 205 17 14.999999999999998 19 10.999999999999998 56 18 42 13.000000000000002 26 71 36 9.9999999999999982 51 17.000000000000004 29 31 12.999999999999998 34 22 108 19 9.9999999999999982 10.999999999999998 76 12.000000000000002 37 22 12.999999999999998 19 12.999999999999998 15.999999999999998 47 9.9999999999999982 800 13.999999999999998 35 21 51 9.9999999999999982
leaf_count=128 77 103 11 38 111 54 45 22 10 41 87 109 10 11 25 17 106 10 52 19 205 17 15 19 11 56 18 42 13 26 71 36 10 51 17 29 31 13 34 22 108 19 10 11 76 12 37 22 13 19 13 16 47 10 800 14 35 21 51 10
internal_value=2.50784e-05 0.00954272 -0.00584672 0.00500725 -0.00168659 0.0134423 0.00220541 -0.00773262 -0.00849857 0.00761268 0.00676608 0.0124925 -0.00518354 -0.000265055 -0.00112676 0.0050809 0.01433 -0.00460942 0.00440641 0.0206 0.0110868 -0.00264584 -0.0057759 0.00248613 -0.00125031 -0.00888471 0.0069115 0.0033803 -0.00533036 -0.00147183 0.00903411 -0.00909377 0.0122768 -0.00561818 -0.00446337 0.0123681 -0.0068185 0.0087611 -0.0045656 -0.00636637 -0.00483271 -0.00213636 -0.00181151 0.00101029 -0.00467146 -0.000887674 0.00436791 -0.00645074 0 0.000502989 0.000736352 -0.0024459 -0.00270921 -0.00273514 -0.00922492 0.0056923 0.00117886 0.00938298 -0.00331677 0.00783519
internal_weight=3166 1208 1958 560 612 648 262 1346 1032 375 334 575 314 185 121 141 244 350 166 73 331 65 285 96 160 967 70 103 283 67 168 889 215 260 44 138 53 116 157 78 142 57 23 21 127 31 79 133 24 29 59 101 85 27 836 25 48 38 76 97
internal_count=3166 1208 1958 560 612 648 262 1346 1032 375 334 575 314 185 121 141 244 350 166 73 331 65 285 96 160 967 70 103 283 67 168 889 215 260 44 138 53 116 157 78 142 57 23 21 127 31 79 133 24 29 59 101 85 27 836 25 48 38 76 97
is_linear=0
shrinkage=0.04


Tree=18
num_leaves=58
num_cat=0
split_feature=1 1 1 0 0 1 13 22 23 23 1 19 23 23 21 23 1 0 0 6 1 1 3 21 1 20 15 22 6 21 12 1 3 22 1 22 3 1 3 1 6 28 1 21 22 3 27 1 1 1 3 28 1 1 28 1 3
split_gain=102.131 12.2588 8.83898 4.35994 4.20323 2.71253 1.71558 1.22923 1.21297 1.10215 0.830694 0.782395 0.658801 0.547826 0.498206 0.488914 0.440341 0.430093 0.429644 0.33546 0.302622 0.285871 0.234246 0.21776 0.193796 0.189084 0.185244 0.182646 0.159508 0.137342 0.0931391 0.0903308 0.0850573 0.147016 0.0777999 0.061914 0.0587297 0.0456198 0.0406772 0.0330175 0.0312967 0.0308245 0.0291002 0.0281236 0.0266983 0.0179864 0.0162752 0.0126046 0.00832163 0.00712788 0.00692747 0.00550517 0.00496892 0.00484246 0.00255275 0.00150835 0.00134983
