tree
version=v4
num_class=1
num_tree_per_iteration=1
label_index=0
max_feature_idx=51
objective=regression
feature_names=Column_0 Column_1 Column_2 Column_3 Column_4 Column_5 Column_6 Column_7 Column_8 Column_9 Column_10 Column_11 Column_12 Column_13 Column_14 Column_15 Column_16 Column_17 Column_18 Column_19 Column_20 Column_21 Column_22 Column_23 Column_24 Column_25 Column_26 Column_27 Column_28 Column_29 Column_30 Column_31 Column_32 Column_33 Column_34 Column_35 Column_36 Column_37 Column_38 Column_39 Column_40 Column_41 Column_42 Column_43 Column_44 Column_45 Column_46 Column_47 Column_48 Column_49 Column_50 Column_51
feature_infos=[-0.98119894669509733:1.6682474202444999] [-1.6173846839070645:2.7494446287493846] [-1.2667735289613429:3.6884424506603795] [-1.8847286325140604:2.200793407224451] [-0.4978247036822952:6.2522603150835288] none none none none [-1.9520440773234076:1.620129867754394] [-1.2411310198912584:1.4650816584666781] [-1.2957330211398488:1.4946623592315345] [-1.31134263106007:1.6021375849437174] none none [-1.6168532327111622:1.584495944751964] [-1.2864709259485954:1.2751435089905574] [-0.70392650022125591:1.4206028607897034] [-0.23672211185021536:4.2243624483746762] none none none none none [-0.23222423618599855:4.3061827500169114] [-0.20775730360047762:4.8133085223469427] [-0.12275557971070895:8.1462692152702392] [-0.75269596270416694:1.328557677401853] [-0.44126747119187859:2.2661992222063532] [-0.43656897252345306:2.7283775662612282] [-0.90586232065960182:1.1039205155059897] [-2.9899117728714382:1.7567652600537083] [-1.1774027735054249:1.4625810656717531] [-0.28884265778066881:4.8693611953500175] none none none [-1.4453663025797059:2.7750899703899488] [-2.5627961373866146:2.7578090092655243] [-0.95188561086687784:1.8889657738978056] [-0.44126747119187859:2.2661992222063532] [-0.65889339337269093:2.8149725240593484] [-0.23672211185021536:4.2243624483746762] [-0.441018330654672:2.3771867183864188] [-0.91381553517067404:5.0776200646694489] none none none [-0.98119894669509733:1.6682474202444999] [-0.70392650022125591:1.4206028607897034] [-1.1639928186979955:4.301919382565945] [-1.1460158104092182:2.2411364249959642]
tree_sizes=4489 4825 4739 5316 5521 5563 5358 4816 4865 4908 4709 5637 5100 5179 5465 4941 6065 5564 5967 5587 5652 5497 5555 5510 5614 5911 5869 6015 5555 5917 5960 4424 5990 6033 6074 5778 6006 5517 5954 6004 6054 5479 5996 5923 6014 6030 4887 6002 5782 6153 6074 5351 4781 5935 5940 5123 5404 6032 5673 5980 5662 5950 6088 5672 6050 6017 6026 6058 5830 5306 6068 5965 6027 4733 5182 5864 4189 5972 5999 5627 5681 4991 4459 5347 4469 4701 5270 4961 4606 5755 4769 6126 5286 4960 5247 4934 4209 4970 4634 5051 5833 4612 4995 4781 4842 5420 4691 5198 4980 5900 6067 4594 3792 4125 3718 4443 4003 5874 5082 3982 5779 3698 5027 5670 3870 2919 6055 4178 4817 6042 4366 4631 5037 4827 4906 5694 3307 5689 5213 3721 5339 5261 4985 2962 5112 4634 4538 4585 3806 4739 3554 5443 2929 5011 4647 4151 3557 3640 4318 2959 3274 3800 4652 4759 2472 3896 3232 1966 3211 4499 3807 5069 5221 4612 4903 2348 2446 5309 3138 3588 4005 3208 3514 5796 5787 3867 5703 4196 3939 2545 4898 4244 2691 4621 3029 5791 4532 4527 4545 5209 3910 5823 4912 5698 3806 5580 4968 5028 1798 4439 4545 5441 4804 1455 5858 5318 1498 4536 1968 3981 4243 5031 4296 1790 4487 4022 1515 3616 5848 4004 4170 4173 5741 2655 4624 2370 1484 4006 4664 4160 2792 2194 3949 5894 4131 3957 4242 1985 4423 1985 4096 5775 1927 4578 4550 3225 4464 3670 2108 1380 3121 4092 1464 4768 4614 1566 3657 4674 2907 5131 4724 3131 2184 1540 5896 2890 2292 4693 4547 5168 3445 3181 1923 5792 5419 3559 5264 4048 4600 4934 5451 4305 5407 1455 4438 5114 3989 5773 1611 2471 5111 5807 5769 5545 1602 5563 5023 2320 3901 2042 4900 5074 5842 5205 4496 3713 4544 4011 4400 1532 4237 4756 4511 4642 4817 3341 4041 4590 5227 4159 5817 4237 4144 4011 4145 3275 2914 5778 4891 2506 5731 4938 5884 5030 4671 3843 5279 4691 5773 4455 3967 2938 3638 3526 4574 5758 4361 5521 5734 4265 5410 4860 3882 3709 5566 5825 3532 4581 4954 5774 4479 4145 4479 5672 5046 5801 3279 3538 4615 4364 4116 4287 3450 4116 4088 3810 3029 3220 4417 3597 5450 4745 5590 5609 5813 4359 5757 5531 5635 3322 5513 5650 5720 5698 3499 5691 3680 4451 3762 5508 4741 5765 5079 4759 5583 5741 3835 5132 3305 3873 5731 5362 5778 3889 3469 5643 3268 3656 5841 3575 5603 5799 5599 3756 5508 3250 5763 5094 5744 5345 5020 3956 5644 5513 5636 5572 5591 5693 5057 5864 5806 5707 5701 5104 5337 5554 4762 5713 5647 5325 5766 4891 5539 5739 5783 5075 5811 5761 5130 5164 5383 5674 5413 5399 5160 5678 5161 5516 4777 5209 5628 5629 5613 5549 5123 5466 4298 5587 5622 5686 5679 5541 5412 4980 4463 5580 5735 5547 5564 4661 5253 5442 5466 5601 4469 5450 5548 5555 5696 5498 5402 5347 5492 5601 5663 5696 5501 4526 5253 5598 5435 5311 5642 5626 5714 5616 5714 2941 5258 5594 5610 5468 5650 5430 5687 5410 5584 5298 4390 5472 5638 4704 5573 5217 5617 5626 5588 5633 5564 4685 5590 5208 5543 5020 3408 5212 5445 5048 5629 5072 5800 5703 3133 5401 5503 3155 4935 5606 4635 4811 4721 4807 5709 4136 4878 5474 4872 5476 5522 2933 5496 4396 4819 2939 4558 4533 4697 5432 2667 3742 4478 5226 3997 5452 5564 4981 4603 3430 3690 5235 2456 4370 5337 4800 3297 5250 5523 5469 5357 5413 5472 5680 5654 5668 4805 4885 3192 5416 5060 5058 4864 5223 5099 5444 5583 5443 5511 5659 5733 2841 5422 5089 4617 5591 5593 5724 5449 3272 4190 4982 2599 5463 5459 5503 5573 5287 5022 5466 5434 5405 5356 5475 5535 5605 5437 5539 5335 3755 5551 5144 5537 5041 5458 5486 5546 5581 5646 3995 4607 4125 5263 5445 5645 3404 4794 4716 4066 5420 5280 3641 5271 5555 5505 3068 5318 5474 5005 4028 3695 5514 4799 4052 5480 3409 3915 3921 5466 5454 5445 5446 5560 5586 4790 4519 4266 5388 3668 4356 5472 5460 5550 5524 5379 5456 3667 5606 5277 5313 3501 5417 5597 5429 3243 4774 5364 5552 3847 5583 3844 5389 5247 5388 3771 4677 5563 4160 5017 4764 5466 4436 3761 5356 2747 5371 4615 2281 5125 4700 4324 4038 4391 4213 5264 5506 4714 4413 5410 4758 3370 4248 4993 5444 3577 3713 5449 5369 5511 4919 4456 4264 5447 3185 4728 4687 4745 5385 4610 5421 3434 4822 4388 4776 5074 4993 5495 4085 5450 4966 5006 4620 3079 4082 5365 2586 4101 5417 3390 3956 2388 5480

Tree=0
num_leaves=50
num_cat=0
split_feature=1 1 1 48 48 1 12 1 48 32 28 11 32 12 48 51 1 31 1 1 32 11 26 24 29 31 1 3 1 1 1 1 31 1 1 10 1 1 1 3 31 3 3 38 3 38 3 2 1
split_gain=434.88 52.0304 37.3278 18.6625 17.8848 9.78297 6.85309 5.12083 4.66649 4.32695 3.54043 2.5811 2.37598 2.24094 2.13241 1.74992 1.70893 1.70275 1.67854 1.29059 1.00824 0.931539 1.05424 0.848416 0.814025 0.685191 0.460011 0.353261 0.29219 0.236846 0.228706 0.208194 0.187291 0.176114 0.170904 0.110702 0.0991181 0.0767976 0.0650733 0.0602928 0.0459149 0.0313086 0.0309765 0.0265682 0.0247079 0.0182016 0.0174258 0.00506389 0.00464706
threshold=0.27313288437713001 0.9121810764731958 -0.41916932372694116 1.0058858285096008 1.0000000180025095e-35 1.817499348609289 0.52242956065741664 -0.79194743578297944 1.0000000180025095e-35 0.80258510587745868 1.0000000180025095e-35 -0.74261162741363518 1.0000000180025095e-35 -0.58297257705912331 1.0058858285096008 -1.13827007956529 0.64591099643316841 1.0000000180025095e-35 1.3382132045372397 1.4979752525612562 0.80258510587745868 1.4708922550032957 1.0000000180025095e-35 1.0000000180025095e-35 2.0501747365216541 1.0000000180025095e-35 -0.15289924368691379 -0.68095874580539173 -0.099645227678908349 -0.099645227678908349 0.80567304445718479 -0.57893137175095755 1.0000000180025095e-35 0.69916501244117391 0.060116820345108062 1.0000000180025095e-35 -0.15289924368691379 0.5926569804251629 -0.57893137175095755 -1.1916490007727056 1.0000000180025095e-35 0.048598761290771009 0.77815626838693386 1.9573658622689694 -1.2646047514823218 0.38702193105888238 1.6536252769023292 1.5778874963770535 0.16662485236111904
decision_type=2 2 2 2 2 2 2 2 2 2 2 2 2 2 2 2 2 2 2 2 2 2 2 2 2 2 2 2 2 2 2 2 2 2 2 2 2 2 2 2 2 2 2 2 2 2 2 2 2
left_child=2 3 7 9 6 14 13 20 12 10 21 40 38 24 18 -7 37 34 -3 32 25 22 -2 26 28 -1 41 -28 -4 -25 39 42 -16 -12 -6 -23 -15 44 -9 -18 -8 -19 -14 -13 -5 -41 -22 -32 -36
right_child=1 5 4 16 17 15 11 8 -10 -11 33 43 31 36 19 -17 30 23 -20 -21 46 35 -24 29 -26 -27 27 -29 -30 -31 47 -33 -34 -35 48 -37 -38 -39 -40 45 -42 -43 -44 -45 -46 -47 -48 -49 -50
leaf_value=1.4593666881040703 1.4849744821927773 1.4972096354458402 1.4735054185403327 1.4712840157334637 1.4682782482725512 1.5210338179447367 1.4785193308927935 1.4623370379889935 1.4568621614710267 1.5008461951576608 1.4887266077043393 1.4662461341536068 1.4728255066280136 1.4849794003576628 1.4924098001288055 1.5067227692125524 1.4764873428803003 1.4617279091863342 1.5041769535291025 1.4979850704421114 1.4677722661009374 1.473160773200179 1.4728993998628412 1.4674105063908964 1.4834673379527532 1.4553620992205905 1.4625817031188253 1.4670998005651479 1.4791968469410168 1.4748777212055377 1.477717720824393 1.4760161319636971 1.4870230455648221 1.493064330817979 1.4723680069927823 1.4778027490002552 1.4930276340498199 1.4721062790928803 1.4648182640638951 1.472539539555441 1.4749077974212588 1.4585393487404597 1.4698914890102674 1.4690462324320943 1.4681639043467325 1.4747911300602601 1.4626282166226376 1.4818255545064249 1.4736827490323017
leaf_weight=112 117 209 27 11.999999999999998 25 26 42 118 189 40 73 67 14.999999999999998 11.999999999999998 102 103 30 123 112 100 9.9999999999999982 13.000000000000002 11.999999999999998 15.000000000000002 53 689 87 59 27 9.9999999999999982 10.000000000000002 19 33 78 15.000000000000002 15.999999999999998 29 15.999999999999998 80 10.000000000000002 10.999999999999998 41 20 24 73 10.999999999999998 23 11.999999999999998 15.999999999999998
leaf_count=112 117 209 27 12 25 26 42 118 189 40 73 67 15 12 102 103 30 123 112 100 10 13 12 15 53 689 87 59 27 10 10 19 33 78 15 16 29 16 80 10 11 41 20 24 73 11 23 12 16
internal_value=1.47375 1.49261 1.46211 1.48308 1.46967 1.49987 1.47714 1.45806 1.46164 1.4884 1.48669 1.47096 1.46529 1.48316 1.49745 1.50998 1.4724 1.46408 1.49974 1.49421 1.4562 1.48237 1.48382 1.463 1.47996 1.4559 1.46242 1.46432 1.47633 1.47048 1.477 1.47283 1.49123 1.49111 1.47071 1.47564 1.49109 1.46903 1.46327 1.47537 1.47788 1.46082 1.47098 1.46688 1.46852 1.47375 1.46385 1.48039 1.4729
internal_weight=3166 1208 1958 523 683 685 292 1275 441 349 309 144 252 148 556 129 174 391 321 235 834 158 129 335 107 801 310 146 54 25 73 54 135 151 56 29 41 101 198 51 53 164 35 91 85 21 33 22 31
internal_count=3166 1208 1958 523 683 685 292 1275 441 349 309 144 252 148 556 129 174 391 321 235 834 158 129 335 107 801 310 146 54 25 73 54 135 151 56 29 41 101 198 51 53 164 35 91 85 21 33 22 31
is_linear=0
shrinkage=1


Tree=1
num_leaves=50
num_cat=0
split_feature=1 1 1 0 0 1 12 1 0 32 28 11 32 12 0 30 4 1 1 1 32 30 11 26 43 24 1 30 31 1 1 1 1 3 1 9 10 1 1 4 1 31 50 4 3 1 3 3 1
split_gain=401.148 47.9819 34.411 17.2178 16.5221 9.03728 6.33259 4.71302 4.29677 3.99683 3.26644 2.38575 2.18953 2.07429 1.95705 1.93806 1.62574 1.58308 1.57076 1.19785 0.918609 0.891606 0.857469 0.974589 0.750441 0.641149 0.346808 0.33629 0.285518 0.270562 0.251297 0.195781 0.159077 0.13579 0.12448 0.124023 0.102878 0.0865091 0.0699202 0.0624133 0.0578056 0.0415021 0.0278834 0.0229062 0.0215369 0.0148727 0.0136792 0.00560911 0.00236443
threshold=0.27313288437713001 0.9121810764731958 -0.41916932372694116 1.0058858285096008 1.0000000180025095e-35 1.817499348609289 0.52242956065741664 -0.79194743578297944 1.0000000180025095e-35 0.80258510587745868 1.0000000180025095e-35 -0.74261162741363518 1.0000000180025095e-35 -0.58297257705912331 1.0058858285096008 1.0000000180025095e-35 5.1060194628402771 0.64591099643316841 1.4447212365532507 1.3914672205452452 0.80258510587745868 1.0000000180025095e-35 1.4708922550032957 1.0000000180025095e-35 2.22061977121747 1.0000000180025095e-35 -0.15289924368691379 1.0000000180025095e-35 1.0000000180025095e-35 -0.099645227678908349 0.060116820345108062 -0.52567735574295205 0.69916501244117391 -0.46209149367654284 -0.15289924368691379 -0.16595710478450665 1.0000000180025095e-35 -0.15289924368691379 0.5926569804251629 -0.35454459715188852 -0.57893137175095755 1.0000000180025095e-35 -0.93583722928464974 0.75985623141794101 -1.2646047514823218 0.69916501244117391 1.6536252769023292 0.048598761290771009 -0.099645227678908349
decision_type=2 2 2 2 2 2 2 2 2 2 2 2 2 2 2 2 2 2 2 2 2 2 2 2 2 2 2 2 2 2 2 2 2 2 2 2 2 2 2 2 2 2 2 2 2 2 2 2 2
left_child=2 3 7 9 6 14 13 20 12 10 22 41 40 24 18 25 -7 38 -3 28 21 -1 23 -2 29 26 47 39 -16 -4 48 42 -12 -28 -27 -32 -24 -15 44 -19 -9 -8 -14 -13 -5 -41 -22 -6 -17
right_child=1 5 4 17 15 16 11 8 -10 -11 32 43 31 37 19 30 -18 27 -20 -21 46 -23 36 -25 -26 34 33 -29 -30 -31 35 -33 -34 -35 -36 -37 -38 -39 -40 45 -42 -43 -44 -45 -46 -47 -48 -49 -50
leaf_value=-0.017834492877785484 0.010780673055009822 0.023026065908832317 -0.00023378055156873803 -0.0023735631611198189 -0.011691392713234203 0.031667905917534468 0.0045843605884285862 -0.010958914935087959 -0.016214515173435213 0.02604014806049626 0.014387003864790943 -0.0072067592257962507 -0.0037090546395629649 0.010816145566793589 0.017415060583202319 -0.0065767870658919913 0.045463883293999564 -0.00093587134109640677 0.030468009677529335 0.022578326651028227 -0.0057589916194027112 -0.013912632943005175 -0.00056597214019192099 -0.00081782396481587354 0.009337208203143545 -0.0061459923426310202 -0.010491308619206149 0.0083451938480138786 0.010829514732360841 0.0052381213562829156 -0.0021587623316666176 0.0033194040667552209 0.018552901666375656 -0.0070823451537711949 0 0.0027593440819870343 0.0039015432191903099 0.018533598842223487 -0.0015804712093051743 0.00056297493459922922 -0.0085775119133385605 0.0011167146028019488 -0.0011538622553551767 -0.0045217756488919259 -0.0053643056831347777 0.0026927157991772721 -0.010694081276655198 -0.014615345250992548 -0.0033596073777104412
leaf_weight=654 117 242 27 11.999999999999998 118 103 42 118 189 40 73 67 14.999999999999995 11.999999999999998 86 20.000000000000004 26 9.9999999999999982 79 125 9.9999999999999982 147 13.000000000000002 11.999999999999998 53 14.000000000000002 89 14.999999999999998 24 27 28 11.999999999999998 78 50 9.9999999999999982 9.9999999999999982 15.999999999999998 29 15.999999999999998 12.999999999999998 80 10.999999999999998 27.000000000000004 24 73 35 23 41 10.999999999999998
leaf_count=654 117 242 27 12 118 103 42 118 189 40 73 67 15 12 86 20 26 10 79 125 10 147 13 12 53 14 89 15 24 27 28 12 78 50 10 10 16 29 16 13 80 11 27 24 73 35 23 41 11
internal_value=6.92886e-07 0.0181205 -0.0111799 0.00896034 -0.00391913 0.0250852 0.00326407 -0.0150602 -0.0116293 0.0140739 0.0124329 -0.00267983 -0.00812407 0.00905335 0.0227639 -0.00928842 0.0348076 -0.00129506 0.0249589 0.0196556 -0.0168535 -0.017138 0.00827604 0.00967298 0.00596603 -0.0105956 -0.0111122 0.00313578 0.0161248 0.00247494 -0.00306684 -0.000881832 0.0166731 -0.00935298 -0.00383369 -0.000724393 0.00181342 0.0166814 -0.00453611 0.00160212 -0.0100648 0.00397274 -0.00222449 -0.00659896 -0.0050211 0.0022208 -0.00952961 -0.012557 -0.00570087
internal_weight=3166 1208 1958 523 683 685 292 1275 441 349 309 144 252 148 556 391 129 174 321 235 834 801 158 129 107 322 298 73 110 54 69 54 151 139 24 38 29 41 101 58 198 53 42 91 85 48 33 159 31
internal_count=3166 1208 1958 523 683 685 292 1275 441 349 309 144 252 148 556 391 129 174 321 235 834 801 158 129 107 322 298 73 110 54 69 54 151 139 24 38 29 41 101 58 198 53 42 91 85 48 33 159 31
is_linear=0
shrinkage=0.04


Tree=2
num_leaves=50
num_cat=0
split_feature=1 1 1 0 0 1 12 1 0 32 40 32 32 12 1 4 1 31 0 3 32 24 1 43 31 37 37 1 3 31 1 1 1 1 1 1 1 1 3 1 10 31 3 3 1 3 51 3 2
split_gain=370.03 44.2512 31.7191 15.8887 15.2657 8.34841 5.8517 4.33769 3.95635 3.69179 3.01363 2.20528 2.01797 1.92002 1.79936 1.51012 1.46503 1.45179 1.40318 1.16777 0.836662 0.720961 0.717415 0.691803 0.574067 0.431562 0.387167 0.38478 0.298119 0.275942 0.250552 0.206956 0.201364 0.182662 0.147289 0.145366 0.0751207 0.0636153 0.0534475 0.0511984 0.0482507 0.0374659 0.0267676 0.0237135 0.0223889 0.0186703 0.0162399 0.0103279 0.00112018
threshold=0.27313288437713001 0.9121810764731958 -0.41916932372694116 1.0058858285096008 1.0000000180025095e-35 1.817499348609289 0.52242956065741664 -0.79194743578297944 1.0000000180025095e-35 0.80258510587745868 1.0000000180025095e-35 1.0000000180025095e-35 1.0000000180025095e-35 -0.58297257705912331 1.3382132045372397 5.1060194628402771 0.64591099643316841 1.0000000180025095e-35 1.0058858285096008 -1.0457374993534729 0.80258510587745868 1.0000000180025095e-35 0.5394029644171574 2.22061977121747 1.0000000180025095e-35 1.0000000180025095e-35 1.1924188680263286 -0.15289924368691379 -0.68095874580539173 1.0000000180025095e-35 -0.099645227678908349 -0.099645227678908349 0.80567304445718479 -0.57893137175095755 0.060116820345108062 0.75241902844917929 -0.15289924368691379 0.5926569804251629 -1.1916490007727056 -0.57893137175095755 -0.79009557349826887 1.0000000180025095e-35 0.77815626838693386 0.048598761290771009 -0.099645227678908349 -1.2646047514823218 -0.70580775034510335 1.6536252769023292 1.5778874963770535
decision_type=2 2 2 2 2 2 2 2 2 2 2 2 2 2 2 2 2 2 2 2 2 2 2 2 2 2 2 2 2 2 2 2 2 2 2 2 2 2 2 2 2 2 2 2 2 2 2 2 2
left_child=2 3 7 9 6 14 13 20 12 10 22 44 39 23 18 -7 37 34 -3 -16 24 27 25 30 -1 -2 -24 43 -29 -20 -4 -23 38 42 -6 -12 -15 45 -18 -9 -36 -13 -14 -19 -8 -5 -40 -22 -34
right_child=1 5 4 16 17 15 11 8 -10 -11 35 41 33 36 19 -17 32 21 29 -21 47 31 26 -25 -26 -27 -28 28 -30 -31 -32 -33 48 -35 40 -37 -38 -39 46 -41 -42 -43 -44 -45 -46 -47 -48 -49 -50
leaf_value=-0.013260125611340051 0.011523379879338403 0.021610426336810703 -0.00022476331635178733 -0.0022859239813943322 -0.0050564743766131305 0.030413368376401757 -0.0068389816161704385 -0.010524242157695674 -0.015569347985794671 0.025023947599457533 0.014383629813486216 0.0044052506823872416 -0.00084518644225317987 0.010416779958284819 0.021579159237882672 0.043712681169863099 0.0025345563349734629 -0.011088085388944995 0.016597041977776422 0.028205760314247829 -0.0055495737682689315 -0.0058852844908833489 0.012867375911428378 0.0089706363429625843 -0.016947697368739308 0.0034322106646087307 0.006390389830234551 -0.010314179935577242 -0.0061407064494987326 0.01004898492495219 0.0050360796302556989 0.001078049349513921 0.0037195336889814228 0.0021280959036201236 -0.00268003110301036 0.018560486464066939 0.017816966068744659 -0.0015209710786447807 0.00094108785766487311 -0.0082386470673904734 0.00033028107900172474 0.0010757684516720474 -0.0036029243870150476 -0.014044651496978033 -0.0040101677274331452 -0.0051526329514595707 -0.0011815270937301898 -0.010284141292174658 0.007505403681443288
leaf_weight=112 12.999999999999998 209 27 11.999999999999998 25 103 72 118 189 40 97 42 14.999999999999998 11.999999999999998 135 26 30 123 80 109 9.9999999999999982 15.000000000000002 51 53 689 64 30 87 59 23 27 9.9999999999999982 10.000000000000002 19 12.000000000000002 54 29 15.999999999999998 11.000000000000002 80 19 10.999999999999998 20 41 19 73 9.9999999999999982 23 11.999999999999998
leaf_count=112 13 209 27 12 25 103 72 118 189 40 97 42 15 12 135 26 30 123 80 109 10 15 51 53 689 64 30 87 59 23 27 10 10 19 12 54 29 16 11 80 19 11 20 41 19 73 10 23 12
internal_value=2.28479e-06 0.0174052 -0.0107359 0.00860785 -0.00376455 0.0240938 0.00313974 -0.0144614 -0.0111686 0.0135201 0.0119421 -0.0025732 -0.00780371 0.00870509 0.021862 0.0334403 -0.00124295 -0.00892576 0.0195902 0.0246588 -0.0161822 -0.00992617 0.00794734 0.0057327 -0.0164542 0.00497976 0.0106245 -0.0104594 -0.0087081 0.015284 0.00237667 -0.00301177 0.00301828 -0.000847681 -0.00280181 0.0160159 0.0160459 -0.00436145 0.00147822 -0.00966691 -0.000757337 0.00382102 -0.00258846 -0.0119321 -0.00634184 -0.00482572 0 -0.00917249 0.00619501
internal_weight=3166 1208 1958 523 683 685 292 1275 441 349 309 144 252 148 556 129 174 391 312 244 834 335 158 107 801 77 81 310 146 103 54 25 73 54 56 151 41 101 51 198 31 53 35 164 91 85 21 33 22
internal_count=3166 1208 1958 523 683 685 292 1275 441 349 309 144 252 148 556 129 174 391 312 244 834 335 158 107 801 77 81 310 146 103 54 25 73 54 56 151 41 101 51 198 31 53 35 164 91 85 21 33 22
is_linear=0
shrinkage=0.04


Tree=3
num_leaves=56
num_cat=0
split_feature=44 31 37 30 32 30 12 44 44 37 11 32 9 3 28 37 51 32 24 44 44 12 37 9 29 31 44 51 28 16 3 44 24 37 28 29 16 31 31 44 50 38 44 12 3 3 9 3 37 38 38 24 44 29 38
split_gain=221.215 51.5513 48.0374 33.7815 25.2403 13.7257 11.6581 10.2826 7.97161 4.27897 3.97563 3.79939 3.42694 3.00452 2.99977 2.6013 2.43614 2.02699 1.9998 1.82615 1.65135 1.64962 1.47179 0.93055 0.923153 0.853221 0.844104 0.712749 0.753003 0.764301 0.689891 0.67356 0.585501 0.539716 0.532155 0.508847 0.466563 0.275805 0.263035 0.24862 0.234648 0.224808 0.218697 0.201772 0.149239 0.144284 0.118255 0.114242 0.109389 0.100219 0.0925687 0.0655338 0.0604991 0.0476141 0.0324908
threshold=-0.094986003192523927 1.0000000180025095e-35 1.0000000180025095e-35 1.0000000180025095e-35 0.80258510587745868 1.0000000180025095e-35 0.14539747694182362 -0.45669118940509429 0.29556683590816563 1.1924188680263286 -0.74261162741363518 0.80258510587745868 -0.78720474740673285 0.048598761290771009 1.0000000180025095e-35 -0.91780926845849897 -1.0885778527939742 1.0000000180025095e-35 1.0000000180025095e-35 4.1655904233604533 0.16686192302271111 -0.58297257705912331 1.0000000180025095e-35 1.0000000180025095e-35 2.0501747365216541 -1.209907885524508 0.51969090834662957 -1.0983167742213893 1.0000000180025095e-35 1.0000000180025095e-35 1.3618022740638642 0.86919131833730334 1.0000000180025095e-35 1.0000000180025095e-35 1.0000000180025095e-35 2.0501747365216541 1.0000000180025095e-35 1.0000000180025095e-35 1.0000000180025095e-35 0.055909411914560649 0.857836949626676 -0.65764257623903133 -0.59316277806811923 -1.2865240233142008 -1.1916490007727056 -1.2646047514823218 0.6106024484932765 1.7265810276119458 1.1924188680263286 -0.65764257623903133 0.034056011923433674 1.0000000180025095e-35 -0.44004831273887174 2.0501747365216541 -0.44440825502715403
decision_type=2 2 2 2 2 2 2 2 2 2 2 2 2 2 2 2 2 2 2 2 2 2 2 2 2 2 2 2 2 2 2 2 2 2 2 2 2 2 2 2 2 2 2 2 2 2 2 2 2 2 2 2 2 2 2
left_child=2 8 5 15 7 11 21 10 12 22 37 13 50 32 16 44 -12 -8 24 26 34 23 53 36 25 -9 -11 -14 29 -29 46 45 41 -22 -5 -24 -7 48 -6 -30 -33 -1 -25 51 -3 -17 -13 -32 -4 -42 -2 -15 -19 -10 -47
right_child=1 3 4 20 38 6 17 18 9 19 14 30 27 43 -16 31 -18 52 -20 -21 33 -23 35 42 -26 -27 -28 28 39 -31 47 40 -34 -35 -36 -37 -38 -39 -40 -41 49 -43 -44 -45 -46 54 -48 -49 -50 -51 -52 -53 -54 -55 -56
leaf_value=-0.014017652131043947 -0.0024236302652529303 -0.0046968357210549023 0.0031888620131290874 0 0.026176431969100352 0.0093344410730130754 -0.012984153751255006 0.0069575907986383061 0.015977130555305159 0.017154057103395463 0.0050552322649481621 -0.0019191301725804803 0.025305178926541255 -0.014521100055603755 0.011099688819476537 -0.00045874387869501812 -0.0087320345685398225 -0.0010464503293018789 0.015974236651774377 0.047112347516146576 0.013565326681008211 0.015553641997850857 0.020914696963061731 -0.0074071521908044792 0.012502266395092013 -1.7372900096233932e-05 0.028817263624689601 0.01255954298178355 0.011663831412792208 0.001102005785065038 -0.0044388621140663562 -0.0041801214686461854 -0.0022069696029027304 0.020598782760602931 0.011886516424325795 0.026260046155829182 0.0011342092409729959 -0.00079978118204560727 0.016526876060401693 0.018583528071119074 -0.0019026212634688075 -0.010174463407172785 0.00038756560060110962 -0.016333435671469741 -0.010782725402287075 -0.002922816088112692 0.0036123552269612747 -0.0096409153187716461 0.0076271458311992536 0.0021236159485454359 0.0020290717019233852 -0.0088263889891760702 -0.0044380215812278422 0.019945842537012967 -0.0054565598204448498
leaf_weight=51 13.000000000000002 11.999999999999998 38 10 50 32 128 48 118 19 21 11.000000000000002 11.999999999999998 20 12.999999999999998 15.999999999999998 299 24 30 9.9999999999999982 36 25 171 10.000000000000002 19 63 110 44 23 12.999999999999998 18 12.999999999999998 13.999999999999998 110 12 75 19 18 15.999999999999998 56 9.9999999999999982 153 9.9999999999999982 764 90 23 10.999999999999998 26 15.999999999999998 59 14.999999999999998 20 18 43 68
leaf_count=51 13 12 38 10 50 32 128 48 118 19 21 11 12 20 13 16 299 24 30 10 36 25 171 10 19 63 110 44 23 13 18 13 14 110 12 75 19 18 16 56 10 153 10 764 90 23 11 26 16 59 15 20 18 43 68
internal_value=4.48018e-06 0.0137068 -0.00814868 0.00320468 0.000960195 -0.0123942 -0.00420801 -0.00178288 0.0203642 0.0227715 -0.00517775 -0.0143862 0.012787 -0.0149895 -0.00702096 -0.00503003 -0.00780185 -0.010488 0.00676433 0.0290574 0.0174374 0.00686495 0.020549 0.00357646 0.00450271 0.0029983 0.0272754 0.0151998 0.0141007 0.0100794 -0.00490036 -0.00220254 -0.0106707 0.0189958 0.0065452 0.0226603 0.00643694 0.00327166 0.0241784 0.0167899 0.000481523 -0.0112185 -0.00348645 -0.0161408 -0.0101581 -0.00428193 0.000709509 -0.00774762 0.0046914 0.00146412 0 -0.012056 -0.00266241 0.0171784 -0.00489837
internal_weight=3166 1181 1985 459 631 1354 266 565 722 546 405 1088 176 1022 333 291 320 170 160 139 168 96 407 71 130 111 129 148 136 57 66 189 218 146 22 246 51 72 66 79 82 204 20 804 102 107 22 44 54 69 28 40 42 161 91
internal_count=3166 1181 1985 459 631 1354 266 565 722 546 405 1088 176 1022 333 291 320 170 160 139 168 96 407 71 130 111 129 148 136 57 66 189 218 146 22 246 51 72 66 79 82 204 20 804 102 107 22 44 54 69 28 40 42 161 91
is_linear=0
shrinkage=0.04


Tree=4
num_leaves=58
num_cat=0
split_feature=44 31 37 30 32 30 12 44 44 37 11 27 32 9 3 37 32 24 2 12 44 37 4 9 29 31 44 4 28 10 3 44 24 29 37 29 28 10 37 31 44 50 38 44 12 44 3 9 3 37 38 38 9 24 44 29 3
split_gain=204.057 47.6006 44.345 31.187 23.3041 12.6592 10.7673 9.48814 7.335 3.9595 3.66763 3.53791 3.49379 3.16838 2.76159 2.39782 1.86405 1.84667 1.7141 1.52429 1.51726 1.35118 1.08279 0.861296 0.854506 0.78823 0.766491 0.6633 0.692269 0.703463 0.638597 0.621317 0.537392 0.494742 0.491803 0.467389 0.437323 0.429757 0.275022 0.255978 0.224632 0.217101 0.206403 0.203691 0.177659 0.140037 0.132431 0.109867 0.103966 0.100757 0.0930175 0.0857915 0.0807301 0.0584266 0.0555409 0.0423126 0.0300462
threshold=-0.094986003192523927 1.0000000180025095e-35 1.0000000180025095e-35 1.0000000180025095e-35 0.80258510587745868 1.0000000180025095e-35 0.14539747694182362 -0.45669118940509429 0.29556683590816563 1.1924188680263286 -0.74261162741363518 1.0000000180025095e-35 0.80258510587745868 -0.78720474740673285 0.048598761290771009 -0.91780926845849897 1.0000000180025095e-35 1.0000000180025095e-35 3.0460996384871937 -0.58297257705912331 0.16686192302271111 1.0000000180025095e-35 1.9060970836611941 1.0000000180025095e-35 2.0501747365216541 -1.209907885524508 0.51969090834662957 2.4473774861093971 1.0000000180025095e-35 -0.79009557349826887 1.3618022740638642 0.86919131833730334 1.0000000180025095e-35 1.0000000180025095e-35 1.0000000180025095e-35 2.0501747365216541 1.0000000180025095e-35 -0.79009557349826887 1.1924188680263286 1.0000000180025095e-35 0.055909411914560649 0.857836949626676 -0.65764257623903133 -0.59316277806811923 -1.2865240233142008 0.64950534634316559 -1.2646047514823218 0.6106024484932765 1.7265810276119458 1.1924188680263286 -0.65764257623903133 0.034056011923433674 -0.78720474740673285 1.0000000180025095e-35 -0.44004831273887174 2.0501747365216541 -1.1186932500630891
decision_type=2 2 2 2 2 2 2 2 2 2 2 2 2 2 2 2 2 2 2 2 2 2 2 2 2 2 2 2 2 2 2 2 2 2 2 2 2 2 2 2 2 2 2 2 2 2 2 2 2 2 2 2 2 2 2 2 2
left_child=2 8 5 15 7 12 19 10 13 21 39 22 14 51 32 45 -8 24 26 23 33 55 -12 37 25 -9 -11 28 29 -15 47 46 42 -5 -22 -23 -13 -7 52 49 -30 -33 -1 -25 53 -3 -17 -14 -32 -4 -43 -2 -6 -16 -18 -10 -48
right_child=1 3 4 20 38 6 16 17 9 18 11 36 30 27 44 31 54 -19 -20 -21 34 35 -24 43 -26 -27 -28 -29 40 -31 48 41 -34 -35 -36 -37 -38 -39 -40 -41 -42 50 -44 -45 -46 -47 56 -49 -50 -51 -52 -53 -54 -55 -56 -57 -58
leaf_value=-0.013467729201683629 -0.0023336097534213743 -0.010396249708864422 0.0030645782573100848 0 0.012999278311928113 0.0010911091521382333 -0.012468813577363657 0.0066849668541429002 0.015343416163400441 0.016502202776446939 -0.0086322244913317261 0.0013152461488447759 -0.001848762086903055 0.0010610740940485684 -0.013967915534973147 -0.00044147348929854001 -0.0010062666525691747 0.015355879358706937 0.045399171309037645 0.014955425115732047 0.013037378805714686 0.02008297328027182 0.003635293399294217 -0.0071378010565584325 0.012027180540561677 -1.6688786621671168e-05 0.027674956641755663 0.024370833754539491 0.011216718010604382 0.012068325487772624 -0.004270652599436672 -0.0040248597775186809 -0.0021245760311683023 0.011447629795624659 0.019782254339338425 0.02522346511953755 0.010687414411987577 0.008972377805998832 0.028798271569338715 -0.00076947365049272784 0.017853228184214809 -0.0018334350501271813 -0.0097701276639452234 0.00037347239222038873 -0.01568095246607961 -0.004682293909734913 -0.0030591814128061133 0.003479902156318227 -0.0092695614607245843 0.0073400063409524811 0.002040087090304587 0.0019529815416317435 0.021699186505590166 -0.0084901453583013462 -0.0042698439673373575 0.019166141824288802 -0.0053546654968744233
leaf_weight=51 13.000000000000002 89 38 10.000000000000002 10.999999999999998 19 128 48 118 19 287 22 11.000000000000002 12.999999999999998 20 15.999999999999998 24 30 9.9999999999999982 25 36 171 10.999999999999998 10.000000000000002 19 63 110 11.999999999999998 23 44 18 12.999999999999998 13.999999999999998 11.999999999999998 110 75 12.999999999999998 32 21 18 56 9.9999999999999982 153 9.9999999999999982 764 12.999999999999998 29 10.999999999999998 26 15.999999999999998 59 14.999999999999998 34 20 18 43 62
leaf_count=51 13 89 38 10 11 19 128 48 118 19 287 22 11 13 20 16 24 30 10 25 36 171 11 10 19 63 110 12 23 44 18 13 14 12 110 75 13 32 21 18 56 10 153 10 764 13 29 11 26 16 59 15 34 20 18 43 62
internal_value=8.09528e-06 0.0131684 -0.00782246 0.0030763 0.000929101 -0.0119016 -0.00403901 -0.00170642 0.0195656 0.0218753 -0.00496774 -0.00673827 -0.0138147 0.0122947 -0.0143933 -0.00483544 -0.0100746 0.00650355 0.027924 0.00660149 0.0167518 0.0197364 -0.00815538 0.00343754 0.00432854 0.00287942 0.0261997 0.0146147 0.013553 0.00968844 -0.00471413 -0.00211966 -0.0102502 0.00629713 0.0182463 0.0217622 0.00510762 0.00619059 0.0232392 0.00314628 0.0161354 0.000456499 -0.0107752 -0.00335274 -0.0154976 -0.00975936 -0.00411689 0.000677117 -0.00745379 0.00451452 0.00140339 0 0.0199883 -0.0116005 -0.00256474 0.0165011 -0.00470782
internal_weight=3166 1181 1985 459 631 1354 266 565 722 546 405 333 1088 176 1022 291 170 160 139 96 168 407 298 71 130 111 129 148 136 57 66 189 218 22 146 246 35 51 66 72 79 82 204 20 804 102 107 22 44 54 69 28 45 40 42 161 91
internal_count=3166 1181 1985 459 631 1354 266 565 722 546 405 333 1088 176 1022 291 170 160 139 96 168 407 298 71 130 111 129 148 136 57 66 189 218 22 146 246 35 51 66 72 79 82 204 20 804 102 107 22 44 54 69 28 45 40 42 161 91
is_linear=0
shrinkage=0.04


Tree=5
num_leaves=58
num_cat=0
split_feature=44 37 37 30 32 30 12 44 44 11 27 32 2 3 37 2 32 24 37 44 12 43 4 9 43 44 44 12 4 0 3 24 28 3 10 43 44 12 44 2 37 9 3 44 44 3 37 44 9 37 38 9 24 44 11 9 38
split_gain=188.22 40.9498 40.5942 31.9057 21.5444 11.6756 9.94478 9.27544 8.75449 3.38318 3.27101 3.2126 3.04607 2.55014 1.90356 1.84866 1.71406 1.70521 1.55913 1.41209 1.40841 1.11374 1.00172 0.797193 0.790945 0.756118 0.701219 0.665256 0.620075 0.612138 0.591133 0.480608 0.40468 0.402812 0.395805 0.309997 0.292481 0.290155 0.277601 0.251342 0.250638 0.222399 0.219401 0.202523 0.189733 0.130012 0.124922 0.107952 0.102076 0.100633 0.0816151 0.0679791 0.0613766 0.0509672 0.0242645 0.0177532 0.0134763
threshold=-0.094986003192523927 1.0000000180025095e-35 1.0000000180025095e-35 1.0000000180025095e-35 0.80258510587745868 1.0000000180025095e-35 0.14539747694182362 0.20014767635515623 -0.45669118940509429 -0.74261162741363518 1.0000000180025095e-35 0.80258510587745868 3.0460996384871937 1.0000000180025095e-35 -0.91780926845849897 0.10967535426691348 1.0000000180025095e-35 1.0000000180025095e-35 1.1924188680263286 0.055909411914560649 -0.58297257705912331 2.22061977121747 1.9060970836611941 1.0000000180025095e-35 2.22061977121747 0.51969090834662957 0.35991929235089287 0.14539747694182362 1.9060970836611941 1.0000000180025095e-35 1.3618022740638642 1.0000000180025095e-35 1.0000000180025095e-35 -1.0457374993534729 -0.79009557349826887 2.22061977121747 0.072552288580783234 -1.2865240233142008 0.74048640545184885 1.0000000180025095e-35 1.1924188680263286 -0.63189283675117636 0.55928901625808514 0.055909411914560649 -0.59316277806811923 -1.1916490007727056 1.1924188680263286 0.18572384991109667 0.6106024484932765 -0.91780926845849897 -0.65764257623903133 -0.78720474740673285 1.0000000180025095e-35 -0.44004831273887174 1.1968798644599881 -0.16595710478450665 -0.44440825502715403
decision_type=2 2 2 2 2 2 2 2 2 2 2 2 2 2 2 2 2 2 2 2 2 2 2 2 2 2 2 2 2 2 2 2 2 2 2 2 2 2 2 2 2 2 2 2 2 2 2 2 2 2 2 2 2 2 2 2 2
left_child=1 5 3 14 8 11 20 15 9 42 22 13 18 31 45 27 -8 24 21 55 23 26 -11 34 28 -20 -9 39 -10 -17 48 41 -12 38 -7 47 -31 52 -16 -4 51 -1 46 -41 -25 -2 -3 -21 -13 -32 -40 -6 -15 -18 -51 -5 -35
right_child=2 4 7 19 40 6 16 12 17 10 32 30 -14 37 33 29 53 -19 25 35 -22 -23 -24 44 -26 -27 -28 -29 -30 36 49 -33 -34 56 -36 -37 -38 -39 50 43 -42 -43 -44 -45 -46 -47 -48 -49 -50 54 -52 -53 -54 -55 -56 -57 -58
leaf_value=-0.013642490442842246 -0.0042626223035443283 0.0026267959356625031 0.020113400929852539 0.0015735722861506718 0.012522638507187368 0.0010496468983590603 -0.011973927282547765 0.011063023081049323 0.0011440266284128923 -0.0082881345226843324 0.001264923666816448 -0.0017809741559127962 0.043748291709206327 -0.012941525407135487 -0.0039577292287204828 0.009438020292917888 -0.00096762599941343076 0.014761458300775099 0.017410282907192594 0.0079849242923351431 0.014380216405941891 0.023220645876105773 0.0035019993955890333 -0.0068782445436174188 0.011570147144794466 0.026249679948344377 0.018569980572791123 0.0049678049669601024 0.0084951600953936581 -0.0042801899313926698 -0.0092354471882184347 -0.00089376568049192434 0.010290453438247953 -0.0032285387174536785 0.0086243583325183761 0.017891639865361728 0.0029633264385163782 -0.015017825493083637 -0.002099324726810058 0.0080977890946363155 0.027698701175776396 -0.009141556515401562 -0.0020604545093056833 0.01628858207066854 0.00035989148068157109 -0.0099599454861420845 0.0070636765272082645 0.014277982669189955 0.0033523057832110983 -0.0019740030680867756 0.00092214961130028723 0.020856017940385 -0.0079772761178513382 -0.0041080392928499925 -0.0059450484116872152 0.0051128492084416477 -0.0059215275538273349
leaf_weight=31 11.999999999999998 46 18 10.000000000000002 10.999999999999998 19 128 31 88 287 22 11.000000000000002 9.9999999999999982 23 35 13.999999999999998 24 30 31 11.999999999999998 25 108 10.999999999999998 10.000000000000002 19 131 220 14.999999999999998 23 14.999999999999998 23 10.999999999999998 12.999999999999998 17 32 77 19 784 17 18 21 150 9.9999999999999982 13.999999999999998 9.9999999999999982 90 15.999999999999998 155 10.999999999999998 10.000000000000002 64 34 23 18 10.999999999999998 9.9999999999999982 38
leaf_count=31 12 46 18 10 11 19 128 31 88 287 22 11 10 23 35 14 24 30 31 12 25 108 11 10 19 131 220 15 23 15 23 11 13 17 32 77 19 784 17 18 21 150 10 14 10 90 16 155 11 10 64 34 23 18 11 10 38
internal_value=1.18057e-05 -0.00750869 0.0126511 0.00450766 0.000900936 -0.0114285 -0.00387678 0.0194179 -0.00163288 -0.00476582 -0.00646646 -0.0132659 0.0216398 -0.0138208 -0.00506259 0.00884368 -0.00967766 0.00625286 0.0211248 0.014401 0.00634825 0.0194362 -0.00782929 0.0033041 0.00416111 0.0246999 0.0177063 0.0132095 0.0027652 0.0027011 -0.00453507 -0.00951119 0.0049211 -0.00242663 0.00595378 0.0152437 -0.000149043 -0.0148003 -0.00102843 0.0154577 0.0223523 -0.0100051 0.00302571 0.0121875 -0.0032239 -0.0093764 0.00392924 0.0138998 0.000645912 -0.00717123 0.000221364 0.0192224 -0.010767 -0.00247078 -0.00441157 0.00369289 -0.00523309
internal_weight=3166 1985 1181 537 631 1354 266 644 565 405 333 1088 531 1022 273 113 170 160 521 264 96 359 298 71 130 162 251 65 111 48 66 192 35 171 51 244 34 830 116 50 66 181 72 32 20 102 62 167 22 44 81 45 46 42 21 20 55
internal_count=3166 1985 1181 537 631 1354 266 644 565 405 333 1088 531 1022 273 113 170 160 521 264 96 359 298 71 130 162 251 65 111 48 66 192 35 171 51 244 34 830 116 50 66 181 72 32 20 102 62 167 22 44 81 45 46 42 21 20 55
is_linear=0
shrinkage=0.04


Tree=6
num_leaves=56
num_cat=0
split_feature=44 31 37 32 37 31 44 17 9 51 28 32 44 44 44 3 32 27 37 24 32 3 32 38 29 44 24 29 28 31 10 37 28 15 44 16 31 27 3 3 31 32 3 9 3 9 24 38 9 27 37 44 51 38 28
split_gain=173.603 40.9044 37.8204 19.9166 18.2832 8.78881 8.08204 7.15881 6.4284 5.15266 4.5621 4.19117 3.05401 2.98213 2.73997 2.58046 2.45787 3.37661 2.34703 1.57342 1.29489 1.16446 1.06659 0.95638 0.920844 0.818854 0.782174 0.731339 0.71718 0.697589 0.69307 0.552822 0.533625 0.480949 0.38718 0.303438 0.299459 0.288021 0.404471 0.271061 0.270994 0.235665 0.187191 0.149947 0.140733 0.140078 0.132516 0.0800073 0.0774113 0.0714193 0.0690167 0.054314 0.0353196 0.032022 0.0154066
threshold=-0.094986003192523927 1.0000000180025095e-35 1.0000000180025095e-35 0.80258510587745868 1.0000000180025095e-35 1.0000000180025095e-35 -0.45669118940509429 1.0000000180025095e-35 -0.94251665806228957 -1.13827007956529 1.0000000180025095e-35 0.80258510587745868 0.18572384991109667 0.16686192302271111 0.74048640545184885 1.0000000180025095e-35 1.0000000180025095e-35 1.0000000180025095e-35 1.0000000180025095e-35 1.0000000180025095e-35 0.80258510587745868 1.2888465233542481 1.0000000180025095e-35 1.9573658622689694 2.0501747365216541 1.4394872254331967 1.0000000180025095e-35 2.0501747365216541 1.0000000180025095e-35 -1.209907885524508 -0.79009557349826887 -0.91780926845849897 1.0000000180025095e-35 -0.01617864397959869 -0.20150041385634831 -0.64606731721380717 1.0000000180025095e-35 1.0000000180025095e-35 -1.2646047514823218 -1.0457374993534729 1.0000000180025095e-35 0.80258510587745868 0.12155451200038729 -0.63189283675117636 1.7265810276119458 0.6106024484932765 1.0000000180025095e-35 0.059503497108755389 0.29997862718216317 1.0000000180025095e-35 1.1924188680263286 0.51969090834662957 -0.84420015636940759 -0.44440825502715403 1.0000000180025095e-35
decision_type=2 2 2 2 2 2 2 2 2 2 2 2 2 2 2 2 2 2 2 2 2 2 2 2 2 2 2 2 2 2 2 2 2 2 2 2 2 2 2 2 2 2 2 2 2 2 2 2 2 2 2 2 2 2 2
left_child=2 8 5 6 10 7 16 20 35 41 14 15 30 49 31 26 17 23 54 27 28 45 -9 -4 -20 39 43 29 33 -8 42 51 -19 -1 46 -2 50 38 -15 -16 52 -10 -11 -7 -23 -13 -17 -37 -30 -6 -18 -3 -5 -33 -14
right_child=1 4 3 40 13 11 19 22 9 12 -12 21 18 37 25 34 36 32 24 -21 -22 44 -24 -25 -26 -27 -28 -29 48 -31 -32 53 -34 -35 -36 47 -38 -39 -40 -41 -42 -43 -44 -45 -46 -47 -48 -49 -50 -51 -52 -53 -54 -55 -56
leaf_value=-0.0064670705828401773 0.0064618585556745524 -0.0099406057274960841 -0.0082349954358677362 0.02867318017780781 -0.0018109320022843098 -0.012390087720420627 0.0062401768128786776 -0.011277235983688141 0.027264358141843012 0.0012929002533356346 0.013230047658637719 0.00052587897617083321 0.013671514934436841 0.015740854365670159 0.00023034946652238862 -0.01426153645346475 0.0030843057670763559 0.00049843127761156332 0.019630214162789528 0.014190046520002426 0.014001153188943865 -0.0035647941151552873 -0.0007219248916779179 -0.00030402311915531756 0.024848686893031286 0.0082453340793910788 0.00037955934341464721 0.011130481976270677 0.0071661244995635132 -6.1077775084413587e-05 0.013243256127920702 -0.0024935986767320529 0.0093850690325101224 0.0028433583361261029 -0.0048372395932674405 -0.0036320994098981208 -0.0015295032570628744 0.019476939472285185 0.0053873971429738137 -0.0047190467820248825 0.014291627927738079 0.04290955959047589 0.0086366718808809917 -0.0086702553525373535 -0.0086193052287454972 0.0069783625969519984 -0.01115380501027765 0.00066839348684464184 0.0022532762233167889 0.0026924475201151581 0.0073511109054088591 -0.0061621646627106454 0.020298169513543445 -0.0050538787579593762 0.016528236589869676
leaf_weight=17 10.999999999999998 76 267 14.999999999999998 10 35 48 106 15.999999999999998 14.000000000000002 26 12.000000000000002 87 45 84 798 34 30 276 30 19 22 19 28 105 18 12.999999999999998 19 28 63 68 22 17 15.999999999999998 9.9999999999999982 11.000000000000002 18 65 9.9999999999999982 21 15.999999999999998 13.000000000000002 10.999999999999998 153 26 11.999999999999998 57 12.999999999999998 10.999999999999998 10 10.999999999999998 21 35 51 97
leaf_count=17 11 76 267 15 10 35 48 106 16 14 26 12 87 45 84 798 34 30 276 30 19 22 19 28 105 18 13 19 28 63 68 22 17 16 10 11 18 65 10 21 16 13 11 153 26 12 57 13 11 10 11 21 35 51 97
internal_value=1.50835e-05 0.0121538 -0.00720744 0.000874231 0.00279783 -0.0109745 -0.00156175 -0.0035313 0.018084 0.0189352 -0.00248599 -0.0123795 0.0181414 0.014798 -0.00393444 -0.0130113 -0.00457219 -0.00591082 0.0192692 0.00601466 0.00494358 -0.00291995 -0.00972304 -0.00749931 0.0211401 0.000584049 -0.00879183 0.00400358 0.00233954 0.00265946 0.0111151 -0.0072114 0.00392464 -0.00188442 -0.0139759 0.00120318 0.00261099 0.0171638 0.0140597 -0.000756975 0.0214994 0.0356076 0.00488591 -0.00944583 -0.00650432 0.00406221 -0.0140723 -0.00120911 0.00597142 0.00027127 0.00435139 -0.00923464 0.0234021 -0.00438047 0.0152803
internal_weight=3166 1181 1985 631 459 1354 565 216 722 687 319 1138 658 140 293 1066 405 342 565 160 91 72 125 295 381 123 201 130 72 111 93 170 47 33 865 35 63 120 55 105 66 29 25 188 48 24 855 24 39 20 45 97 50 73 184
internal_count=3166 1181 1985 631 459 1354 565 216 722 687 319 1138 658 140 293 1066 405 342 565 160 91 72 125 295 381 123 201 130 72 111 93 170 47 33 865 35 63 120 55 105 66 29 25 188 48 24 855 24 39 20 45 97 50 73 184
is_linear=0
shrinkage=0.04


Tree=7
num_leaves=50
num_cat=0
split_feature=1 1 1 0 0 1 12 1 0 32 28 11 37 0 12 1 4 30 1 1 24 32 30 28 1 24 16 1 1 30 1 31 1 50 9 1 1 38 11 1 1 38 10 1 1 38 31 1 1
split_gain=250.136 30.754 21.5984 10.7078 10.4518 6.22268 3.84577 2.85133 2.64822 2.5014 2.03123 1.48951 1.44158 1.36281 1.23893 1.18267 1.16629 1.02895 0.997742 0.82566 0.704443 0.517965 0.525996 0.491422 0.423087 0.409212 0.189729 0.182977 0.163843 0.13326 0.120982 0.119378 0.117877 0.0926572 0.0872104 0.0856126 0.0643438 0.0542961 0.0457244 0.0453753 0.0438715 0.0403204 0.0378651 0.0318903 0.0211522 0.020764 0.0168857 0.0137578 0.0036112
threshold=0.27313288437713001 0.9121810764731958 -0.41916932372694116 1.0058858285096008 1.0000000180025095e-35 1.817499348609289 0.52242956065741664 -0.79194743578297944 1.0000000180025095e-35 0.80258510587745868 1.0000000180025095e-35 -0.74261162741363518 1.0000000180025095e-35 1.0058858285096008 -0.58297257705912331 1.4447212365532507 5.1060194628402771 1.0000000180025095e-35 0.64591099643316841 1.4979752525612562 1.0000000180025095e-35 0.80258510587745868 1.0000000180025095e-35 1.0000000180025095e-35 0.5926569804251629 1.0000000180025095e-35 -0.64606731721380717 -0.15289924368691379 -0.63218538775896305 1.0000000180025095e-35 0.060116820345108062 1.0000000180025095e-35 0.69916501244117391 0.29174844980102382 0.29997862718216317 -0.15289924368691379 -0.15289924368691379 -0.50498982734985731 -0.42988662045213194 0.5926569804251629 -0.15289924368691379 -0.11734987338393883 -0.79009557349826887 -0.099645227678908349 -0.57893137175095755 -0.44440825502715403 1.0000000180025095e-35 0.69916501244117391 -1.1114715318310122
decision_type=2 2 2 2 2 2 2 2 2 2 2 2 2 2 2 2 2 2 2 2 2 2 2 2 2 2 2 2 2 2 2 2 2 2 2 2 2 2 2 2 2 2 2 2 2 2 2 2 2
left_child=2 3 7 9 6 13 14 21 12 10 20 46 28 15 23 -3 -7 25 39 31 24 22 -1 40 -2 27 -19 -6 38 41 -28 -15 -12 -29 -25 -27 -16 -30 -9 45 -4 -20 -32 -13 -14 -5 -8 -43 -23
right_child=1 5 4 18 17 16 11 8 -10 -11 32 43 44 19 36 -17 -18 26 29 -21 -22 48 -24 34 -26 35 30 33 37 -31 42 -33 -34 -35 -36 -37 -38 -39 -40 -41 -42 47 -44 -45 -46 -47 -48 -49 -50
leaf_value=-0.014041437572741327 0.0030064439942232442 0.018153009170857968 -0.0018086337458628871 -0.0028954763064602722 -0.0097837832443416119 0.025338682128832894 0.0037067079401986542 -0.0011811243445379658 -0.012812626046883433 0.020506410941845032 0.011163259979035403 -0.0055624072670120081 -0.0087863694735062434 0.013951098511519941 0.0082143609844721275 0.024521698784828187 0.036897847246240685 0.0019402726895429872 -0.00021011634242410461 0.01840299694608934 0.013673458862304689 -0.0090419886018100557 -0.010980042640610624 0.0073504168316721923 0.0076118378559046464 -0.0047592978119850148 -0.0055727305001225967 -0.0054772693208035303 -0.00052079750139576674 0.0057542182821780441 -0.0033476780630075009 0.0096972163389710819 0.014640895872176447 -0.0083058931097388274 0.0039175428417976945 0 0.01461740959479163 0.0028032569885253905 -0.0047803790569305414 -0.0012176630593398038 0.0014058395025453399 0.00044093371462076904 -0.00025284494059160347 -0.0028385082941502333 -0.0069246435250756863 -0.0048412604960612953 0.0011161255172143381 0.0024994819258135977 -0.0052956054909154768
leaf_weight=654 71 242 12.000000000000002 38 159 103 42 19.000000000000004 189 40 73 72 116 102 11.999999999999998 79 26 9.9999999999999982 13.999999999999998 100 19 18 147 53 68 14.000000000000002 28 50 11.000000000000002 14.999999999999998 11.999999999999998 33 78 89 29 9.9999999999999982 29 15.999999999999998 11.999999999999998 15.999999999999998 12.999999999999998 12.999999999999998 19.000000000000004 19 78 47 10.999999999999998 31 14.999999999999998
leaf_count=654 71 242 12 38 159 103 42 19 189 40 73 72 116 102 12 79 26 10 14 100 19 18 147 53 68 14 28 50 11 15 12 33 78 89 29 10 29 16 12 16 13 13 19 19 78 47 11 31 15
internal_value=1.84657e-05 0.0143271 -0.00881009 0.00699178 -0.00305619 0.0199034 0.00265489 -0.0118844 -0.00920772 0.0110246 0.00972214 -0.00197272 -0.00644828 0.017979 0.0071673 0.0198041 0.0279651 -0.00732735 -0.00109104 0.0153956 0.00643491 -0.0132823 -0.013499 0.00476498 0.00532629 -0.00828321 -0.0027549 -0.00869658 -0.000819688 0.0024199 -0.00363643 0.0130196 0.0130705 -0.00736337 0.00624637 -0.00284804 0.0130788 0.00133592 -0.00280523 -0.00366671 0 0.00140686 -0.00164302 -0.00507419 -0.0080977 -0.00406168 0.00327374 0.00200348 -0.00766257
internal_weight=3166 1208 1958 523 683 685 292 1275 441 349 309 144 252 556 148 321 129 391 174 235 158 834 801 107 139 322 69 298 58 73 59 135 151 139 82 24 41 27 31 101 25 58 31 91 194 85 53 44 33
internal_count=3166 1208 1958 523 683 685 292 1275 441 349 309 144 252 556 148 321 129 391 174 235 158 834 801 107 139 322 69 298 58 73 59 135 151 139 82 24 41 27 31 101 25 58 31 91 194 85 53 44 33
is_linear=0
shrinkage=0.04


Tree=8
num_leaves=51
num_cat=0
split_feature=1 1 1 39 48 1 12 1 48 32 28 32 32 39 12 1 4 30 1 1 24 28 26 24 32 30 1 1 1 30 1 9 3 1 1 1 1 1 1 38 10 44 3 10 1 38 1 1 1 38
split_gain=230.754 28.3556 19.9161 9.88742 9.65589 5.74734 3.55459 2.62289 2.65927 2.30838 1.86981 1.37718 1.37486 1.2504 1.14633 1.09026 1.08214 0.946248 0.923933 0.757474 0.651957 0.454073 0.420443 0.374973 0.355074 0.313779 0.166334 0.151542 0.136181 0.123136 0.107425 0.0903355 0.0838581 0.0802739 0.0801436 0.0793636 0.0559449 0.0411921 0.0406843 0.0376454 0.0369437 0.0363989 0.0340534 0.0298693 0.0282408 0.0183744 0.0123201 0.0067251 0.00647732 0.00454032
threshold=0.27313288437713001 0.9121810764731958 -0.41916932372694116 1.0000000180025095e-35 1.0000000180025095e-35 1.817499348609289 0.52242956065741664 -0.84520145179098494 1.0000000180025095e-35 0.80258510587745868 1.0000000180025095e-35 1.0000000180025095e-35 1.0000000180025095e-35 1.0000000180025095e-35 -0.58297257705912331 1.4447212365532507 5.1060194628402771 1.0000000180025095e-35 0.64591099643316841 1.4979752525612562 1.0000000180025095e-35 1.0000000180025095e-35 1.0000000180025095e-35 1.0000000180025095e-35 0.80258510587745868 1.0000000180025095e-35 -0.15289924368691379 0.060116820345108062 -0.57893137175095755 1.0000000180025095e-35 0.75241902844917929 -0.16595710478450665 -0.46209149367654284 -0.25940727570292471 -0.57893137175095755 -0.15289924368691379 -0.15289924368691379 0.5926569804251629 -0.15289924368691379 -0.11734987338393883 -1.0000000180025095e-35 1.9997974065293562 0.77815626838693386 1.0000000180025095e-35 -0.099645227678908349 -0.44440825502715403 0.69916501244117391 -0.15289924368691379 1.1784511565132232 0.56733634333036453
decision_type=2 2 2 2 2 2 2 2 2 2 2 2 2 2 2 2 2 2 2 2 2 2 2 2 2 2 2 2 2 2 2 2 2 2 2 2 2 2 2 2 2 2 2 2 2 2 2 2 2 2
left_child=2 3 7 9 6 13 14 24 12 10 20 44 34 15 21 -3 41 23 37 48 22 38 -2 26 25 -1 -6 43 42 39 -12 40 -28 -23 49 -25 -16 45 -4 -20 -29 -7 -14 -19 -8 -5 -41 -13 -15 -9
right_child=1 5 4 18 17 16 11 8 -10 -11 30 47 28 19 36 -17 -18 27 29 -21 -22 33 -24 35 -26 -27 32 31 -30 -31 -32 -33 -34 -35 -36 -37 -38 -39 -40 46 -42 -43 -44 -45 -46 -47 -48 -49 -50 -51
leaf_value=-0.013501807715034486 0.0057979105423437427 0.017429876942816096 -0.0017418534426161872 -0.0027826269712203588 -0.0093948777297860938 0.028428390979766842 -0.0053429588443816524 -0.0078872782950548774 -0.012438833851680578 0.019706160493013335 0.011194058076459535 0.00228125107175473 -0.00056278781481604616 0.0108795629853294 0.007911061419890477 0.023553091374039648 0.035476595993395199 -0.0057101500738750803 -0.00020227199662476775 0.017674164816884712 0.013153867426514627 0.0021780362502456857 -0.0016687901535859476 -0.0045816173543532677 -0.0077603213652487728 -0.010823772966406726 -0.0079773487699528536 -0.0032279009275576649 0.0016305138945579528 0.0055384349767118694 0.014680327465317465 0.0021511987312273547 -0.0052624743399666812 0.0065634801829574816 -0.006436406468995559 0 0.014052203032622735 -0.0011718216135221369 0.0013536225474838702 0.00042455616034567357 0 0.022237127275080294 -0.0032578264271410614 -0.0019196214073083618 -0.0027306449980940666 -0.0046516444973337158 0.002402626997034531 0.0041264680232852699 0.013669395193860337 -0.010153021579697019
leaf_weight=624 127 242 12.000000000000002 38 159 30 72 96 213 40 97 32 17 62 11.999999999999998 79 26 21.000000000000004 13.999999999999998 100 19 11.999999999999998 11.999999999999998 14.000000000000002 30 130 89 15.999999999999998 19 14.999999999999998 54 9.9999999999999982 50 70 80 9.9999999999999982 29 15.999999999999998 12.999999999999998 12.999999999999998 12.000000000000002 73 25 9.9999999999999982 19 47 31 21 73 41
leaf_count=624 127 242 12 38 159 30 72 96 213 40 97 32 17 62 12 79 26 21 14 100 19 12 12 14 30 130 89 16 19 15 54 10 50 70 80 10 29 16 13 13 12 73 25 10 19 47 31 21 73 41
internal_value=1.94987e-05 0.0137626 -0.00846007 0.00671868 -0.00293449 0.0191173 0.00255445 -0.0114123 -0.00905076 0.010594 0.00934178 -0.00189369 -0.00640525 0.017267 0.00689287 0.0190177 0.0268669 -0.0070399 -0.00104751 0.0147883 0.00618563 0.00457989 0.00511742 -0.00795685 -0.0128728 -0.0130603 -0.00835294 -0.00265112 -0.0010036 0.00232985 0.0125555 -0.000790753 -0.00707391 0.00600387 -0.00789377 -0.00274143 0.0125812 -0.00352669 0 0.00135244 -0.00201733 0.0243349 -0.00229846 -0.0047106 -0.00487662 -0.00390467 0.00192951 0.00314933 0.012507 -0.00866299
internal_weight=3166 1208 1958 523 683 685 292 1275 491 349 309 144 278 556 148 321 129 391 174 235 158 107 139 322 784 754 298 69 61 73 151 38 139 82 217 24 41 101 25 58 28 103 42 31 91 85 44 53 135 137
internal_count=3166 1208 1958 523 683 685 292 1275 491 349 309 144 278 556 148 321 129 391 174 235 158 107 139 322 784 754 298 69 61 73 151 38 139 82 217 24 41 101 25 58 28 103 42 31 91 85 44 53 135 137
is_linear=0
shrinkage=0.04


Tree=9
num_leaves=52
num_cat=0
split_feature=1 1 1 39 48 1 1 37 48 39 9 1 39 51 1 50 50 10 12 39 1 1 44 1 31 37 1 31 12 16 29 11 9 50 38 1 12 1 1 37 50 1 39 2 38 1 1 38 11 50 1
split_gain=212.891 26.1568 18.3993 9.12763 7.24367 5.31931 3.76047 3.16998 3.0356 1.78482 1.76839 1.14791 1.02834 1.00016 0.855651 0.84254 0.8169 0.725649 0.774612 0.699824 0.475975 0.455696 0.398175 0.337406 0.232281 0.231418 0.22967 0.192637 0.171973 0.168879 0.164277 0.16337 0.161312 0.159334 0.129912 0.103711 0.085188 0.0652823 0.0608651 0.0605383 0.0515806 0.0373594 0.0362697 0.0322236 0.0313844 0.0303697 0.0288719 0.0162002 0.0145314 0.0109999 0.00383018
threshold=0.27313288437713001 0.9121810764731958 -0.31266129171093021 1.0000000180025095e-35 1.0000000180025095e-35 1.817499348609289 -0.79194743578297944 1.1924188680263286 1.0000000180025095e-35 -0.71514799546982077 -0.94251665806228957 1.3382132045372397 -0.24167276467570692 -1.13827007956529 0.64591099643316841 0.72446287195608305 0.857836949626676 -0.79009557349826887 -1.2865240233142008 1.0000000180025095e-35 -0.099645227678908349 -0.046391211670902884 -0.48442931718213184 0.48614894840915185 1.0000000180025095e-35 1.0000000180025095e-35 -0.52567735574295205 1.0000000180025095e-35 1.2912198514597686 -0.64606731721380717 2.0501747365216541 -0.99795052636830206 0.29997862718216317 -0.32504966195637902 0.82522316859116274 0.80567304445718479 -1.1889409394339174 -0.57893137175095755 0.060116820345108062 1.1924188680263286 0.044296885891754616 0.5926569804251629 -0.24167276467570692 1.5778874963770535 -0.6042061562256289 -0.099645227678908349 -0.15289924368691379 -0.44440825502715403 -0.99795052636830206 1.1656981430249338 -0.20615325969491929
decision_type=2 2 2 2 2 2 2 2 2 2 2 2 2 2 2 2 2 2 2 2 2 2 2 2 2 2 2 2 2 2 2 2 2 2 2 2 2 2 2 2 2 2 2 2 2 2 2 2 2 2 2
left_child=2 3 6 10 7 11 24 12 9 25 29 15 32 -7 41 40 -13 18 -12 20 50 -9 31 -24 -1 -8 48 -17 -23 -2 -20 -19 45 -10 36 44 -22 -27 -21 -31 -3 47 -28 -15 -16 -4 -34 -5 -11 -46 -6
right_child=1 5 4 14 19 13 8 21 33 26 17 16 -14 43 35 27 -18 22 30 38 34 28 23 -25 -26 37 42 -29 -30 39 -32 -33 46 -35 -36 -37 -38 -39 -40 -41 -42 -43 -44 -45 49 -47 -48 -49 -50 -51 -52
leaf_value=-0.01005122542203264 0.0050188094135373831 0.020683333754539492 0.0043127327276312787 -0.0026741758207193549 -0.0071270913379757033 0.034110090370531435 -0.0012194796494607416 -0.0046056036829040014 -0.011977200405693602 -7.4627298002059622e-05 -0.0016071732330780763 0.021735859868743202 0.012666634622765216 0.027327936110957976 -0.00033288868021086923 0.012520761056118702 0.016281244029893595 0.020552050590515139 0.0071410387878010914 -0.0097295928773237401 0.0004694560800368588 0.0041348625272512422 0.0080871949769832467 0.012449181907122431 -0.012568634034295464 -0.0081147753570163447 0.0012174844675158201 0.0071887388353546466 -0.002162262108938938 -0.0025238655358552926 0.012808401948527287 0.012190049725770952 0.0016805385541743957 -0.0093545206919312483 -0.0052218296408653251 0.0045430852845918549 -0.0023112980221541455 -0.0061524283650020752 -0.0066798940973226417 0.0014016884075743813 0.015748792334036393 -0.0011277060114285526 0.0045050357882698453 0.02135966234593778 0.00043773945677094163 0.0074471276249434507 0.0040248608753988236 -0.0044694550766920058 -0.0021221358351664796 0.0022985234873679774 -0.0051681810810748074
leaf_weight=112 14.999999999999998 21 22 38 56 26 12.999999999999998 60 173 11.999999999999998 11.999999999999998 109 37 30 12.999999999999998 82 135 17 40 63 23 16.000000000000004 53 152 722 113 18 23 9.9999999999999982 10.000000000000002 18 19 25 109 19 22 51 107 42 12.999999999999998 186 15.999999999999998 13.000000000000002 73 14.999999999999998 36 32 47 30 23 44
leaf_count=112 15 21 22 38 56 26 13 60 173 12 12 109 37 30 13 82 135 17 40 63 23 16 53 152 722 113 18 23 10 10 18 19 25 109 19 22 51 107 42 13 186 16 13 73 15 36 32 47 30 23 44
internal_value=2.06117e-05 0.0132211 -0.00812408 0.00645531 -0.00179506 0.0183641 -0.0105039 0.00338975 -0.00800714 -0.005196 0.0101788 0.0165835 0.00685348 0.0258212 -0.00100571 0.0147726 0.018813 0.0111744 0.00725703 -0.00594682 -0.00443386 -0.00269464 0.012261 0.0113856 -0.0122478 -0.00690008 0.000208734 0.0114694 0.00157436 0.00185031 0.00915495 0.0166956 0.00485561 -0.0110142 -0.00226976 0.00224323 -0.00139894 -0.00721062 -0.00862198 -0.000172453 0.0163657 -0.00339213 0.00281883 0.0233825 0.00110592 0.00641926 0.00311232 -0.0037538 -0.0016455 0.00169663 -0.00636448
internal_weight=3166 1208 1958 523 536 685 1422 238 588 306 349 556 152 129 174 312 244 311 70 298 193 86 241 205 834 233 73 105 26 38 58 36 115 282 93 73 74 220 105 23 207 101 31 103 51 58 57 85 42 38 100
internal_count=3166 1208 1958 523 536 685 1422 238 588 306 349 556 152 129 174 312 244 311 70 298 193 86 241 205 834 233 73 105 26 38 58 36 115 282 93 73 74 220 105 23 207 101 31 103 51 58 57 85 42 38 100
is_linear=0
shrinkage=0.04


Tree=10
num_leaves=49
num_cat=0
split_feature=1 1 1 39 31 1 32 31 32 32 28 28 50 1 50 1 1 11 32 1 2 24 38 24 1 1 1 2 1 37 1 39 1 1 31 1 39 1 1 1 38 31 1 38 50 9 38 4
split_gain=196.428 24.1258 16.9916 8.43082 5.31306 4.92152 2.44649 2.2608 2.39486 2.03609 1.65949 1.63402 1.55297 1.05979 0.962542 0.935393 0.85994 0.824337 0.80871 0.792336 0.633697 0.585073 0.579609 0.500595 0.395098 0.371847 0.361341 0.266916 0.20017 0.193368 0.179416 0.151443 0.138534 0.103208 0.0974063 0.0955188 0.0601048 0.0545953 0.0424355 0.0338489 0.0293513 0.0262467 0.0238215 0.0142235 0.00985082 0.00587882 0.0041734 0.00372172
threshold=0.27313288437713001 0.9121810764731958 -0.41916932372694116 1.0000000180025095e-35 1.0000000180025095e-35 1.817499348609289 0.80258510587745868 1.0000000180025095e-35 0.80258510587745868 0.80258510587745868 1.0000000180025095e-35 1.0000000180025095e-35 -0.50890924787343672 1.4447212365532507 0.72446287195608305 2.4032935246973492 1.0000000180025095e-35 -0.88708907878026733 1.0000000180025095e-35 0.64591099643316841 1.394360978613286 1.0000000180025095e-35 -0.44440825502715403 1.0000000180025095e-35 -0.73869341977497394 0.5926569804251629 -0.79194743578297944 1.5778874963770535 -0.099645227678908349 -1.0000000180025095e-35 0.060116820345108062 1.0000000180025095e-35 -0.63218538775896305 0.69916501244117391 1.0000000180025095e-35 0.80567304445718479 1.0000000180025095e-35 -0.25940727570292471 -0.63218538775896305 0.5926569804251629 -0.6042061562256289 -1.209907885524508 -1.1114715318310122 -0.44440825502715403 1.1656981430249338 0.29997862718216317 0.52267427271319822 -0.41822464449873592
decision_type=2 2 2 2 2 2 2 2 2 2 2 2 2 2 2 2 2 2 2 2 2 2 2 2 2 2 2 2 2 2 2 2 2 2 2 2 2 2 2 2 2 2 2 2 2 2 2 2
left_child=2 3 7 9 6 13 10 18 32 11 17 21 16 14 -3 27 22 46 26 39 -15 25 -6 30 42 -2 -1 -7 -19 -24 36 -32 -9 -13 -16 40 -14 -12 -26 43 -21 -28 -10 -5 -42 -39 -4 -20
right_child=1 5 4 19 12 15 -8 8 24 -11 37 33 23 20 34 -17 -18 28 47 35 -22 -23 29 -25 38 -27 41 -29 -30 -31 31 -33 -34 -35 -36 -37 -38 45 -40 -41 44 -43 -44 -45 -46 -47 -48 -49
leaf_value=-0.0098307242672722624 0.0024751946876446409 0.01611487633852909 0.0026011120839552443 -0.0025699515718107043 0.0052048525931313629 0.02694923048127781 0.013119500041007997 -0.012230664270899914 -0.0079289845369364086 0.018340481979090991 0.0021121696005152032 0.0098565571078577559 -0.0071945505926992682 0.021769632947444918 0.012235997075438499 0.036721738304410667 0.0082158515344063453 -0.004125057801460991 -0.0002528970031999051 -0.00032052421415989683 0.016068423629348925 0.012250743168592454 -0.0081145296762971334 -0.00015582922375515887 -0.0018861419727856457 0.0067806599961890692 -0.0049658564821232201 0.020516821529414201 -0.0011331916804141972 -0.0023096644792705771 -0.0018324186273596503 -0.0064189122111298329 -0.010107033539786297 0.013056459189970282 0.0082523614692111176 0.0043692629032808803 -0.0093464901146071509 0.0070614980061848966 0.0013007670281564487 -0.0010852512051077452 0.0004213242002297193 -0.0070450517800947025 -0.0043268025770783428 -0.0042944014356471596 0.0022104134932160379 0.0041698064799694451 0.0048931946320967239 0.00068754828314889567
leaf_weight=110 71 239 32 38 10.999999999999998 43 25 804 18 40 9.9999999999999982 73 180 79 99 12.999999999999998 13.999999999999998 90 11.000000000000002 12.999999999999998 109 19 15.999999999999995 18 10.000000000000002 68 42 73 68 29.000000000000004 21 42 116 78 30 22 63 38 15.999999999999998 15.999999999999998 14.999999999999998 119 19 47 23 15.999999999999998 9.9999999999999982 9.9999999999999982
leaf_count=110 71 239 32 38 11 43 25 804 18 40 10 73 180 79 99 13 14 90 11 13 109 19 16 18 10 68 42 73 68 29 21 42 116 78 30 22 63 38 16 16 15 119 19 47 23 16 10 10
internal_value=2.24012e-05 0.0127023 -0.00780099 0.00620398 -0.00269664 0.0176417 0.00140937 -0.0105279 -0.0114594 0.00978257 0.000240039 0.00860626 -0.00571447 0.0159283 0.0145122 0.0248163 -0.000247055 -0.00154183 -0.00735024 -0.000965782 0.0185878 0.00565468 -0.00253998 -0.006879 -0.00374721 0.00464343 -0.00793437 0.0231454 -0.0028778 -0.00459211 -0.00725966 -0.0050051 -0.0119785 0.0116108 0.0114109 0.00215942 -0.00780487 0.00580798 0 -0.00326283 0.00106353 -0.00656135 -0.00634702 -0.00360883 0.00163567 0.00636882 0.00334097 2.40121e-05
internal_weight=3166 1208 1958 523 683 685 289 1275 983 349 264 309 394 556 368 129 70 200 292 174 188 158 56 324 63 139 271 116 158 45 306 63 920 151 129 73 243 64 26 101 51 161 37 85 38 54 42 21
internal_count=3166 1208 1958 523 683 685 289 1275 983 349 264 309 394 556 368 129 70 200 292 174 188 158 56 324 63 139 271 116 158 45 306 63 920 151 129 73 243 64 26 101 51 161 37 85 38 54 42 21
is_linear=0
shrinkage=0.04


Tree=11
num_leaves=59
num_cat=0
split_feature=44 31 37 30 32 30 17 9 44 51 44 11 27 32 9 3 37 44 32 24 11 43 38 43 15 28 31 3 44 10 32 37 37 16 9 3 28 37 51 2 31 24 3 38 43 31 3 9 37 51 44 3 38 9 44 9 43 38
split_gain=115.513 29.8806 23.5886 17.6711 14.3772 7.29818 5.81883 4.75236 4.28546 3.51559 2.20612 2.11578 2.09589 2.0834 1.64178 1.54407 1.40972 1.37861 1.27196 0.904309 0.898311 0.76627 0.654188 0.575756 0.593514 0.501682 0.4507 0.435955 0.385182 0.379303 0.339229 0.323602 0.24909 0.235745 0.224449 0.220273 0.212935 0.212727 0.209284 0.177529 0.155761 0.11504 0.123493 0.0825662 0.081667 0.0785101 0.0744098 0.0697562 0.0635566 0.0486485 0.0486136 0.0403479 0.0393077 0.0390966 0.037407 0.0365154 0.0251586 0.0220858
threshold=-0.14935273363551763 1.0000000180025095e-35 1.0000000180025095e-35 1.0000000180025095e-35 0.80258510587745868 1.0000000180025095e-35 1.0000000180025095e-35 -0.94251665806228957 -0.45669118940509429 -1.13827007956529 0.1391237952456735 -0.74261162741363518 1.0000000180025095e-35 0.80258510587745868 -0.94251665806228957 1.0000000180025095e-35 1.0000000180025095e-35 0.74048640545184885 0.80258510587745868 1.0000000180025095e-35 -0.74261162741363518 2.22061977121747 1.9573658622689694 1.0000000180025095e-35 -0.01617864397959869 1.0000000180025095e-35 -1.209907885524508 1.3618022740638642 0.072552288580783234 -0.79009557349826887 0.80258510587745868 -0.91780926845849897 1.1924188680263286 -0.64606731721380717 -0.63189283675117636 -1.0457374993534729 1.0000000180025095e-35 1.1924188680263286 -0.1196752071833441 0.10967535426691348 1.0000000180025095e-35 1.0000000180025095e-35 0.77815626838693386 -0.65764257623903133 2.22061977121747 1.0000000180025095e-35 1.7265810276119458 0.29997862718216317 1.1924188680263286 -0.37068104163919008 0.50082898145824395 -1.1186932500630891 -0.44440825502715403 0.29997862718216317 0.95573427700166069 0.6106024484932765 2.22061977121747 -0.11734987338393883
decision_type=2 2 2 2 2 2 2 2 2 2 2 2 2 2 2 2 2 2 2 2 2 2 2 2 2 2 2 2 2 2 2 2 2 2 2 2 2 2 2 2 2 2 2 2 2 2 2 2 2 2 2 2 2 2 2 2 2 2
left_child=2 7 5 17 8 13 18 33 11 30 29 40 22 15 -5 34 56 31 23 25 -8 -18 -13 24 -7 26 -10 55 -16 39 -9 50 45 -2 -1 43 -14 44 -36 -11 48 -17 -43 -19 -30 -6 -29 -25 -4 -35 -3 57 -53 -27 -45 -15 -12 -33
right_child=1 3 4 14 32 6 20 9 19 10 16 12 36 27 28 41 21 35 -20 -21 -22 -23 -24 47 -26 53 -28 46 37 -31 -32 51 -34 49 38 -37 -38 -39 -40 -41 -42 42 -44 54 -46 -47 -48 -49 -50 -51 -52 52 -54 -55 -56 -57 -58 -59
leaf_value=-0.011082221713559381 0.0053129827994853251 -0.0083238160083756643 0.0023129944375310189 -0.0024731305392148594 0.016747288346290589 -0.0060348766818642619 -0.00058163394420019667 0.021639966985758614 0.0041647073064176813 0.0072226992651820169 0.011761015155485697 -0.0067700840584466373 0.0012840038665124904 -0.00023233329572460858 0.0058077988880686458 -0.011837599433156459 0.015896998088397351 -0.0018997196723388411 0.011708387218988859 0.011056002226140765 -0.0093794114950091333 0.020537657465574878 -0.00019146590602808986 0.0056636440732488139 0.0033711527731073525 0.009129204122459187 -0.0015643964740370089 -0.0029551403540137569 0.011229885038520609 0.010767569251145635 0.036052528517586835 -0.003773392592485133 0.022794992208480837 0 -0.0053669578705355528 -0.0040257172430018806 0.0079556128638131277 0.01812274431228638 -0.0088368372629795758 0.00060901695031386155 -0.00059128243030097925 -0.005803647627001223 -0.010794219434261324 -5.0612454369132003e-05 0.014925586783608724 0.0096748361954322234 -0.0071191151296650925 0.0015265481981581877 0.0057621212203110405 -0.0034312318048693906 -0.0050439247420678533 -0.001875907675864605 -0.0052957006882600214 0.0040135602029887094 0.0016625985109061004 0.0027193748488401376 0.014490670886533013 -0.00094919150306240613
leaf_weight=28 10.999999999999998 75 38 10.999999999999998 33 23 23 15.999999999999998 41 19.000000000000004 132 270 22 10.000000000000002 14.999999999999998 770 281 18 25 26 128 105 28 32 18 15.999999999999998 44 18 83 69 13.000000000000002 12.000000000000002 21 15.999999999999998 99 21 12.999999999999998 24 55 11.999999999999998 18 22 35 27 42 11.999999999999998 26 12.999999999999998 15.999999999999998 10.000000000000002 23 11.999999999999998 53 10.000000000000002 49 10.999999999999998 57 15.999999999999998
leaf_count=28 11 75 38 11 33 23 23 16 41 19 132 270 22 10 15 770 281 18 25 26 128 105 28 32 18 16 44 18 83 69 13 12 21 16 99 21 13 24 55 12 18 22 35 27 42 12 26 13 16 10 23 12 53 10 49 11 57 16
internal_value=2.3858e-05 0.00965741 -0.00603159 0.00187815 0.000493665 -0.00900231 -0.00298098 0.0146924 -0.00165751 0.015426 0.0147851 -0.00373006 -0.00507585 -0.0104633 0.0119854 -0.0109127 0.015758 -0.00390931 0.00392772 0.00442303 -0.00807831 0.0172195 -0.00616804 0.00151134 -0.00182822 0.0027488 0.00116884 -0.00336798 0.0129885 0.00905051 0.0292205 -0.00598546 0.0179802 0.00058961 -0.00743685 -0.000404721 0.0040253 0.0136412 -0.00668102 0.0048866 0.00242368 -0.0116629 -0.00907027 0.00039598 0.012612 0.0151996 -0.00560808 0.00461461 0.00349387 -0.00138336 -0.00765317 -0.00412282 -0.00476295 0.00753132 0.00100926 0.00118531 0.0126772 -0.00238587
internal_weight=3166 1222 1944 481 608 1336 262 741 542 704 675 405 333 1074 175 1009 575 306 111 137 151 386 298 86 41 111 85 65 164 100 29 191 66 37 182 115 35 149 154 31 72 827 57 94 125 45 44 45 54 26 98 93 65 26 76 21 189 28
internal_count=3166 1222 1944 481 608 1336 262 741 542 704 675 405 333 1074 175 1009 575 306 111 137 151 386 298 86 41 111 85 65 164 100 29 191 66 37 182 115 35 149 154 31 72 827 57 94 125 45 44 45 54 26 98 93 65 26 76 21 189 28
is_linear=0
shrinkage=0.04


Tree=12
num_leaves=54
num_cat=0
split_feature=1 1 1 0 0 1 1 37 0 11 37 26 1 1 1 50 50 0 15 11 11 31 0 1 1 1 44 1 31 12 1 38 1 50 1 16 50 1 15 11 12 11 1 1 38 1 15 9 50 38 50 1 1
split_gain=167.703 20.7914 14.5342 7.19377 5.72605 4.36049 2.93938 2.5402 2.15209 1.41525 1.15502 1.13619 0.940486 0.790484 0.677108 0.665309 0.663409 0.562693 0.51432 0.449335 0.437377 0.4098 0.384684 0.37617 0.371903 0.364914 0.230212 0.167351 0.149194 0.144836 0.12145 0.115579 0.101855 0.099619 0.0985934 0.0871524 0.0858238 0.0770724 0.0743218 0.0721221 0.0719702 0.0486051 0.0481822 0.0287563 0.0260401 0.0208929 0.0208648 0.0193168 0.0152454 0.0135231 0.00859788 0.00574333 0.00198099
threshold=0.27313288437713001 0.9121810764731958 -0.31266129171093021 1.0058858285096008 1.0000000180025095e-35 1.817499348609289 -0.73869341977497394 1.1924188680263286 1.0000000180025095e-35 1.4708922550032957 1.0000000180025095e-35 1.0000000180025095e-35 1.3382132045372397 2.4032935246973492 0.64591099643316841 0.72446287195608305 0.857836949626676 1.0058858285096008 -0.81651593834538061 -0.88708907878026733 -1.1785023933198535 1.0000000180025095e-35 1.0000000180025095e-35 0.69916501244117391 -0.046391211670902884 -0.099645227678908349 1.9997974065293562 -0.099645227678908349 1.0000000180025095e-35 1.2912198514597686 -0.84520145179098494 0.82522316859116274 -0.52567735574295205 -0.21664459053775389 -0.15289924368691379 -0.0056637084790189399 0.044296885891754616 0.80567304445718479 -0.81651593834538061 -1.1785023933198535 -1.1889409394339174 1.1968798644599881 0.060116820345108062 0.5926569804251629 -0.50498982734985731 -0.57893137175095755 -0.81651593834538061 0.29997862718216317 -0.93583722928464974 -0.44440825502715403 1.1656981430249338 -0.20615325969491929 -0.25940727570292471
decision_type=2 2 2 2 2 2 2 2 2 2 2 2 2 2 2 2 2 2 2 2 2 2 2 2 2 2 2 2 2 2 2 2 2 2 2 2 2 2 2 2 2 2 2 2 2 2 2 2 2 2 2 2 2
left_child=2 3 6 9 7 12 21 18 10 11 32 20 15 26 43 36 -14 25 27 -12 22 30 -2 -22 -9 51 -7 -4 -17 -26 -1 40 48 -10 52 -11 -3 44 39 -23 -27 -41 -19 49 -16 -21 -34 -36 -8 -5 -46 -6 -20
right_child=1 5 4 14 17 13 8 24 33 35 19 -13 16 -15 37 28 -18 42 34 45 23 38 -24 -25 29 31 -28 -29 -30 -31 -32 -33 46 -35 47 -37 -38 -39 -40 41 -42 -43 -44 -45 50 -47 -48 -49 -50 -51 -52 -53 -54
leaf_value=-0.0091805762430796252 0.01840033068864242 0.018740442384373061 0.0057747025645592002 -0.0023589565584388296 -0.0063171911828481322 0.025084713637828826 -0.0017178348769935274 -0.0041399782481374315 -0.010149705272760146 0.0024102429072646527 0.00016106049598831878 -0.0018776935356167649 0.0193700992714275 0.034101051500865391 -0.00025223977019389469 0.011062181948179222 0.014447592135737923 -0.0086710638154763736 0.00080688141317417192 -0.0069798405940333999 0.0081390850363994936 -0.0063171438358046797 0.0094201590616417984 0.011646376348137855 0.0037913179257336779 0.00052519979790668003 0.019069124336178238 0.011508040281012655 0.0063098604086165621 -0.0019752608971162276 -0.0055464211530757684 -0.0047839103296399114 0.0037477837120493242 -0.007444425431176507 0.0061023278307169686 -0.0017991401217877865 0.013897053952782073 0.0039668633523194689 -0.011418147088998932 -0.010900531466320617 -0.0020271795873279467 -0.0074227882277752679 -0.0059103474623935174 -0.00099843973096679257 0.00038988919253461063 -0.0054355291794916548 0.0006593667228113521 0.0037300855205694757 0 -0.0040170995080843572 0.0021027688106683932 -0.0044841413018604122 0.0025532436329937934
leaf_weight=103 22 21 21 38 56 43 12.000000000000002 60 194 16.000000000000004 18 11.999999999999998 109 12.999999999999998 13.999999999999998 82 135 63 11.000000000000002 95 165 21 22 99 16.000000000000004 23 73 31 23 9.9999999999999982 32 19 14.000000000000002 57 39 12.999999999999998 186 22 618 96 51 27 42 15.999999999999998 14.999999999999998 107 9.9999999999999982 30 18 47 22 44 20
leaf_count=103 22 21 21 38 56 43 12 60 194 16 18 12 109 13 14 82 135 63 11 95 165 21 22 99 16 23 73 31 23 10 32 19 14 57 39 13 186 22 618 96 51 27 42 16 15 107 10 30 18 47 22 44 20
internal_value=2.54554e-05 0.0117417 -0.00720321 0.00570847 -0.00157716 0.0163272 -0.00931846 0.00303144 -0.0068942 0.00901421 -0.00439048 0.0097794 0.0147149 0.0230789 -0.000912785 0.0130755 0.016733 -0.00526905 0.00613286 -0.0056744 0.0102511 -0.0107236 0.0143083 0.0095084 -0.00241166 -0.00390904 0.0215286 0.00942077 0.0101283 0.00143424 -0.00839568 -0.00200518 0.00077563 -0.00958321 0.00430719 0.000392872 0.0144954 0.00197373 -0.0111193 -0.00973908 -0.00118411 -0.0102354 -0.00767069 -0.00303719 0.000977275 -0.00621232 0.00269879 0.00519608 -0.000671295 -0.00335837 0.00154216 -0.00560264 0.00210315
internal_weight=3166 1208 1958 523 536 685 1422 238 525 349 274 320 556 129 174 312 244 298 152 220 308 897 44 264 86 193 116 52 105 26 135 93 54 251 100 29 207 73 762 144 74 123 105 101 51 202 24 69 30 85 37 100 31
internal_count=3166 1208 1958 523 536 685 1422 238 525 349 274 320 556 129 174 312 244 298 152 220 308 897 44 264 86 193 116 52 105 26 135 93 54 251 100 29 207 73 762 144 74 123 105 101 51 202 24 69 30 85 37 100 31
is_linear=0
shrinkage=0.04


Tree=13
num_leaves=54
num_cat=0
split_feature=1 1 1 0 0 1 37 1 0 32 28 32 1 32 3 1 1 30 0 24 1 1 1 24 32 30 2 29 12 1 1 1 1 30 3 10 11 3 3 1 3 10 3 38 1 1 11 38 3 38 1 3 1
split_gain=154.732 19.1876 13.4177 6.63987 6.52723 4.04495 2.4229 1.72955 1.81873 1.65817 1.3371 1.05984 1.02195 0.94528 0.765198 0.631288 0.627183 0.621835 0.581508 0.519188 0.408322 0.381034 0.304035 0.276235 0.248138 0.211533 0.162287 0.152598 0.134509 0.113294 0.107864 0.086148 0.0858475 0.0797721 0.0694276 0.0693575 0.0590181 0.056352 0.046342 0.037529 0.0344894 0.0311256 0.0284173 0.0272715 0.02598 0.0258284 0.0236043 0.0168056 0.0126485 0.0130522 0.0097345 0.00550869 0.00303478
threshold=0.27313288437713001 0.9121810764731958 -0.41916932372694116 1.0058858285096008 1.0000000180025095e-35 1.8707533646172945 1.1924188680263286 -0.84520145179098494 1.0000000180025095e-35 0.80258510587745868 1.0000000180025095e-35 0.80258510587745868 1.4447212365532507 1.0000000180025095e-35 -0.9727817486438568 2.4032935246973492 0.64591099643316841 1.0000000180025095e-35 1.0058858285096008 1.0000000180025095e-35 -0.046391211670902884 -0.25940727570292471 0.64591099643316841 1.0000000180025095e-35 0.80258510587745868 1.0000000180025095e-35 1.5778874963770535 2.0501747365216541 1.2912198514597686 -0.15289924368691379 0.060116820345108062 -0.52567735574295205 0.75241902844917929 1.0000000180025095e-35 0.55928901625808514 -0.79009557349826887 -0.74261162741363518 -0.097312740128461542 -0.46209149367654284 -0.15289924368691379 -1.3375605021919379 1.0000000180025095e-35 -0.24322424154769409 -0.11734987338393883 0.5926569804251629 -0.57893137175095755 -0.99795052636830206 -0.50498982734985731 -1.2646047514823218 -0.44440825502715403 0.69916501244117391 0.2674660134196199 0.37964091639314096
decision_type=2 2 2 2 2 2 2 2 2 2 2 2 2 2 2 2 2 2 2 2 2 2 2 2 2 2 2 2 2 2 2 2 2 2 2 2 2 2 2 2 2 2 2 2 2 2 2 2 2 2 2 2 2
left_child=2 3 7 9 6 12 11 24 13 10 19 21 14 34 40 26 44 23 -14 22 51 36 -2 29 25 -1 -7 -23 -22 -6 41 46 52 43 45 -32 -4 -25 -31 -13 -3 -19 -16 -18 48 -9 -15 -37 -5 -50 -45 -8 -12
right_child=1 5 4 16 17 15 20 8 -10 -11 32 39 18 31 42 -17 33 30 -20 -21 28 27 -24 37 -26 -27 -28 -29 -30 38 35 -33 -34 -35 -36 47 -38 -39 -40 -41 -42 -43 -44 50 -46 -47 -48 -49 49 -51 -52 -53 -54
leaf_value=-0.011053284876441955 0.0023409314286402046 0.010462499838516763 0.0013418513387441636 -0.0012334342239281306 -0.0077121261269800017 0.024683474746910301 -0.0030886554291111325 -0.0066738666707907256 -0.010221904605627059 0.016385771422851376 0.0061063874643296004 0.0064810244784905355 0.019574053510852243 0 0.013840542641980156 0.032834440708160398 -0.00019686786389599243 -0.0048771588531407433 0.014409568595786054 0.011123459118604661 0.0036485858691089287 0.0028642858888648839 0.0063167464803638206 0 -0.0062283175265596766 -0.0088247442163299512 0.018623501663941604 0.0062398665317644677 -0.0019034332023425539 -0.0064819068799416221 -0.0030296560709293075 0.0020545309684597531 0.012167191587794911 0.004500730346422642 -0.0093749706262633934 0.0017048401346599509 -0.0015057709491700822 -0.0038458954603053054 -0.0043148667568286116 0.011715957454840343 0.006366695285774767 -0.0012850597385655751 0.018388777017593387 0.00024484393479568618 -0.00096085136339944962 -0.0050311204267077551 -0.0020421531137985154 -0.00015247806709478882 -0.0022544212794766345 -0.0040928143113851548 0.0020042416335199959 -0.0048879966184179838 0.0095547866253967734
leaf_weight=624 84 114 25 11.999999999999998 159 36 30 122 213 40 14.999999999999998 11.999999999999998 86 12.999999999999998 221 12.999999999999998 13.999999999999998 21.000000000000004 118 19 16.000000000000004 57 55 12.000000000000002 30 130 64 47 9.9999999999999982 89 11.999999999999998 11.999999999999998 54 14.999999999999998 20 10.000000000000002 20 11.999999999999998 50 29 14.999999999999998 9.9999999999999982 18 12.999999999999998 15.999999999999998 75 36 15.999999999999998 28 45 31 46 82
leaf_count=624 84 114 25 12 159 36 30 122 213 40 15 12 86 13 221 13 14 21 118 19 16 57 55 12 30 130 64 47 10 89 12 12 54 15 20 10 20 12 50 29 15 10 18 13 16 75 36 16 28 45 31 46 82
internal_value=2.61463e-05 0.0112802 -0.00691729 0.00548388 -0.00238057 0.0156855 0.00213053 -0.00934064 -0.00741715 0.00865985 0.0075972 0.00479917 0.0142491 -0.00522491 0.0128429 0.0227324 -0.00087654 -0.00575652 0.0166911 0.0049257 -0.00279996 0.00315273 0.00397655 -0.00650123 -0.0105292 -0.0106865 0.0210675 0.00447278 0.00137364 -0.0068407 -0.00218082 -0.000735888 0.0103154 0.0019003 -0.00645929 -0.000595498 0 -0.00202107 -0.00576736 0.0104698 0.0100697 -0.00391979 0.0142749 0.00109509 -0.00292173 -0.00609723 -0.00152668 0.000450412 -0.00322886 -0.00348173 0.0015903 -0.00427902 0.0091301
internal_weight=3166 1208 1958 523 683 685 292 1275 491 349 309 190 572 278 368 113 174 391 204 158 102 149 139 322 784 754 100 104 26 298 69 61 151 73 217 38 45 24 139 41 129 31 239 58 101 197 49 26 85 73 44 76 97
internal_count=3166 1208 1958 523 683 685 292 1275 491 349 309 190 572 278 368 113 174 391 204 158 102 149 139 322 784 754 100 104 26 298 69 61 151 73 217 38 45 24 139 41 129 31 239 58 101 197 49 26 85 73 44 76 97
is_linear=0
shrinkage=0.04


Tree=14
num_leaves=57
num_cat=0
split_feature=1 1 1 0 0 1 1 12 0 9 39 1 50 12 39 1 1 16 12 0 0 30 30 1 50 28 15 16 29 1 38 12 18 50 44 30 1 15 31 12 4 1 50 38 9 9 50 1 31 1 1 4 1 1 30 38
split_gain=142.786 17.6999 12.3889 6.13561 4.88919 3.7462 2.49713 1.85831 1.83023 1.23066 1.11017 0.93942 0.702457 0.674851 0.638291 0.589609 0.581609 0.540729 0.597139 0.533843 0.491319 0.408259 0.391511 0.30795 0.278385 0.228982 0.182005 0.142528 0.138668 0.132961 0.102706 0.102677 0.0906353 0.0872765 0.0770224 0.0736354 0.0735301 0.0694966 0.0685933 0.0647006 0.0461871 0.0451356 0.0268043 0.0255052 0.0250864 0.0249715 0.0248334 0.0162072 0.0136705 0.00868925 0.00569838 0.00547497 0.00484107 0.00315773 0.00282932 0.000131832
threshold=0.27313288437713001 0.9121810764731958 -0.31266129171093021 1.0058858285096008 1.0000000180025095e-35 1.8707533646172945 -0.73869341977497394 0.52242956065741664 1.0000000180025095e-35 -0.94251665806228957 -0.71514799546982077 1.4447212365532507 0.72446287195608305 -0.58297257705912331 -0.71514799546982077 2.4032935246973492 0.64591099643316841 1.0000000180025095e-35 -1.2865240233142008 1.0058858285096008 1.0058858285096008 1.0000000180025095e-35 1.0000000180025095e-35 -0.099645227678908349 -0.27241920483636556 1.0000000180025095e-35 -0.81651593834538061 -0.64606731721380717 2.0501747365216541 -0.52567735574295205 0.82522316859116274 0.52242956065741664 1.0000000180025095e-35 -0.21664459053775389 -0.57541037629081515 1.0000000180025095e-35 -0.84520145179098494 -0.81651593834538061 1.0000000180025095e-35 -1.1889409394339174 1.1419365154990253 0.060116820345108062 -0.15743532627773876 -0.11734987338393883 0.29997862718216317 1.2318500911155028 0.72446287195608305 0.5926569804251629 1.0000000180025095e-35 0.69916501244117391 -0.63218538775896305 2.5428975571296681 -0.099645227678908349 -0.20615325969491929 1.0000000180025095e-35 -0.44440825502715403
decision_type=2 2 2 2 2 2 2 2 2 2 2 2 2 2 2 2 2 2 2 2 2 2 2 2 2 2 2 2 2 2 2 2 2 2 2 2 2 2 2 2 2 2 2 2 2 2 2 2 2 2 2 2 2 2 2 2
left_child=2 3 6 9 7 11 21 13 10 27 31 12 42 25 52 26 46 22 -19 -13 23 37 24 53 -11 51 -7 -2 -20 50 39 34 -24 -10 -8 43 -23 -1 -14 -25 -29 -22 -3 -18 -27 -31 -5 55 -21 -45 -12 -4 -9 -6 -33 -48
right_child=1 5 4 16 20 15 8 14 33 17 29 19 38 -15 -16 -17 35 18 28 48 41 36 32 30 -26 44 -28 40 -30 45 -32 54 -34 -35 -36 -37 -38 -39 -40 -41 -42 -43 -44 49 -46 -47 47 -49 -50 -51 -52 -53 -54 -55 -56 -57
leaf_value=-0.0090090875928917676 0.0042932354020886118 0.017691938707703039 -0.00030421992289749047 -0.0041624122037409016 -0.0058009034144250972 0.027273874861853464 -0.0044086575382389116 -0.0039829738663975153 -0.0093714955582068511 0.012656209982931614 -0.0016627396295778455 0.018800090856935785 0.010381850764751436 0.010531025346172484 0.0028590904303754752 0.031614876542772563 -0.00018951810766011477 -0.0019559641170960205 0.0056514244831916772 0.014571207079836118 -0.0080598065685480828 -0.0084744488601750552 0.010635745827151441 0.00055934828915633265 0.0051259169672315088 0.0057341325029444234 0.018849562905051492 -0.0022270929830578651 0.010729455490253474 0.0038107466979750556 -0.0044519181653857234 -0.0044287731710233192 0.016491447882218794 -0.0068338757403965658 0 0.0043319529669824984 -0.0056635937960585582 -0.010634467997049032 0.0069464683708164001 -0.0018594022452329787 0.001117117015644908 -0.0054261849418629051 0.013289414710289724 0.00023574965766498017 0.0032770091105037581 0.0010034613048559742 -0.0017993530017634232 -0.00063255668524652721 0.01065197146821905 0.0019265772516228025 -0.00017031697457035381 0.00081738760454269741 -0.002140210922062397 -0.0041104688074025848 -0.0060978990827460543 -0.0031088960036409624
leaf_weight=140 14.999999999999998 18 10.000000000000002 25 56 12.999999999999998 15.000000000000002 47 194 10.999999999999998 19 86 99 37 38 12.999999999999998 13.999999999999998 11.999999999999998 40 92 63 130 173 23 47 51 87 12.000000000000002 18 13.000000000000002 19 37 9.9999999999999982 57 10.999999999999998 14.999999999999998 39 588 30 51 10.999999999999998 42 221 12.999999999999998 25 18 29 14.999999999999998 26 31 13.999999999999998 10.999999999999998 19 44 147 32
leaf_count=140 15 18 10 25 56 13 15 47 194 11 19 86 99 37 38 13 14 12 40 92 63 130 173 23 47 51 87 12 18 13 19 37 10 57 11 15 39 588 30 51 11 42 221 13 25 18 29 15 26 31 14 11 19 44 147 32
internal_value=2.70883e-05 0.010838 -0.00664288 0.00527048 -0.00144794 0.0150692 -0.00859583 0.00280977 -0.00635966 0.00832351 -0.00404863 0.0136863 0.0123358 0.00591125 -0.0011665 0.0218527 -0.000842848 0.00915412 0.00577663 0.0160309 -0.0048598 -0.00989163 0.0100907 -0.00358724 0.00681218 0.00401877 0.0202435 0.00136269 0.00745031 0.000501641 -0.00183301 -0.00545014 0.0110654 -0.0088405 -0.00263695 0.00182999 -0.00788645 -0.0103402 0.00967327 -0.00105686 -0.000481117 -0.00710522 0.01371 0.00105268 0.00503087 0.00238801 -0.00281292 -0.00226877 0.013838 0.00153224 -0.00117087 0.00011192 -0.00355204 -0.00514478 -0.00580963 -0.00258991
internal_weight=3166 1208 1958 523 536 685 1422 238 525 349 274 572 368 134 104 113 174 311 70 204 298 897 241 193 58 97 100 38 58 64 93 210 183 251 26 73 169 728 129 74 23 105 239 58 76 31 101 76 118 44 33 21 66 100 184 61
internal_count=3166 1208 1958 523 536 685 1422 238 525 349 274 572 368 134 104 113 174 311 70 204 298 897 241 193 58 97 100 38 58 64 93 210 183 251 26 73 169 728 129 74 23 105 239 58 76 31 101 76 118 44 33 21 66 100 184 61
is_linear=0
shrinkage=0.04


Tree=15
num_leaves=52
num_cat=0
split_feature=1 1 1 0 0 1 37 31 32 32 40 32 1 1 32 1 30 50 50 24 1 1 1 1 1 24 30 15 16 31 1 9 1 50 30 1 1 50 16 16 50 1 1 30 38 50 1 1 9 50 4
split_gain=131.775 16.333 11.4483 5.66986 5.57173 3.47395 2.07338 1.53766 1.6428 1.4641 1.14013 0.903301 0.763618 0.640543 0.568187 0.539553 0.53133 0.523656 0.512372 0.454072 0.35501 0.321607 0.283596 0.261785 0.243799 0.238697 0.222629 0.214696 0.139901 0.127572 0.0927449 0.0882416 0.0810112 0.075785 0.0679575 0.0618104 0.0516126 0.0488154 0.0409205 0.0348095 0.0331407 0.0328712 0.02857 0.0240746 0.0238616 0.0222607 0.0145875 0.00773489 0.00404837 0.00373113 0.00235092
threshold=0.27313288437713001 0.9121810764731958 -0.41916932372694116 1.0058858285096008 1.0000000180025095e-35 1.817499348609289 1.1924188680263286 1.0000000180025095e-35 0.80258510587745868 0.80258510587745868 1.0000000180025095e-35 0.80258510587745868 1.3382132045372397 2.4032935246973492 1.0000000180025095e-35 0.64591099643316841 1.0000000180025095e-35 0.857836949626676 0.72446287195608305 1.0000000180025095e-35 -0.046391211670902884 -0.25940727570292471 0.5926569804251629 -0.84520145179098494 -0.79194743578297944 1.0000000180025095e-35 1.0000000180025095e-35 -0.81651593834538061 -0.64606731721380717 1.0000000180025095e-35 -0.15289924368691379 0.29997862718216317 0.69916501244117391 0.044296885891754616 1.0000000180025095e-35 0.060116820345108062 -0.63218538775896305 -0.21664459053775389 -0.64606731721380717 1.0000000180025095e-35 0.29174844980102382 -0.15289924368691379 0.060116820345108062 1.0000000180025095e-35 -0.11734987338393883 0.72446287195608305 0.5926569804251629 0.69916501244117391 -1.7190762113400724 -0.50890924787343672 -0.41822464449873592
decision_type=2 2 2 2 2 2 2 2 2 2 2 2 2 2 2 2 2 2 2 2 2 2 2 2 2 2 2 2 2 2 2 2 2 2 2 2 2 2 2 2 2 2 2 2 2 2 2 2 2 2 2
left_child=2 3 7 9 6 12 11 14 26 10 19 21 18 27 24 45 25 -14 33 22 49 38 -2 -10 -1 30 -9 -7 -18 -20 -6 -23 -12 -3 44 -30 -25 -27 -4 -37 -32 -13 -22 -26 -17 -5 -47 -46 -45 -8 -16
right_child=1 5 4 15 16 13 20 8 23 -11 32 41 17 -15 50 34 28 -19 29 -21 42 31 -24 36 43 37 -28 -29 35 -31 40 -33 -34 -35 -36 39 -38 -39 -40 -41 -42 -43 -44 48 47 46 -48 -49 -50 -51 -52
leaf_value=-0.0080510636390866454 0.0017516053683227961 0.016696093450893058 -0.001547694864217192 -0.0040023193717575994 -0.0071117759094573556 0.026260845473834449 -0.0045253512814958045 -0.010021749741602448 -0.0056384825172924235 0.015260346002695038 0.00798970189919645 0.0059355984330177304 0.017212169162793594 0.030440608842032299 0 -0.0001824427665521701 0.0020090760738504204 0.012814643420717295 0.0098111667661781761 0.010329668148607016 0 0.0053774148009165567 0.0055025562863203056 -0.0019328142714997133 -0.003916669947636682 -0.0035185110879918692 -0.0071754050473092313 0.017926373720169066 -0.0041744160724097286 0.0054484231127426034 -0.0040162860313886963 0.0026937704891136561 0.010768402000771294 0.012264749107673206 0.0041695047400717158 0 0.0010810635668389939 0 0.00093581643628497279 -0.0028783715734115008 -0.005962977211756839 0.010855740727980932 0.0024709911386171977 -0.0041987845913089555 0.00022699330960001263 -0.0024920568066018243 -0.0006088358527049422 0.0018519224178162404 -0.0061648001382532324 -0.0028483428580446109 0.0006255504458465359
leaf_weight=110 71 21 14.999999999999998 25 159 12.999999999999998 46 850 30 40 73 11.999999999999998 109 12.999999999999998 11.000000000000002 13.999999999999998 9.9999999999999982 135 82 19 12.000000000000002 53 68 17 42 12.000000000000002 70 103 28 23 50 51 78 186 14.999999999999998 19 15.999999999999998 11.999999999999998 30 12.000000000000002 89 29 13.999999999999998 28 12.999999999999998 61 14.999999999999998 31 91 30 9.9999999999999982
leaf_count=110 71 21 15 25 159 13 46 850 30 40 73 12 109 13 11 14 10 135 82 19 12 53 68 17 42 12 70 103 28 23 50 51 78 186 15 19 16 12 30 12 89 29 14 28 13 61 15 31 91 30 10
internal_value=2.80034e-05 0.0104138 -0.00637959 0.00506509 -0.00218845 0.0144784 0.00197864 -0.00861812 -0.00938737 0.008 0.00700105 0.00444785 0.0130378 0.0205089 -0.00599166 -0.000810825 -0.00530776 0.0148577 0.0115588 0.00453073 -0.00258054 0.00292469 0.00364137 -0.00298759 -0.00648166 -0.00599656 -0.00981755 0.0191111 -0.00199649 0.00895367 -0.00631232 0.00413768 0.00951277 0.0128116 0.00176236 -0.00276424 -0.000365076 -0.00182027 5.37373e-06 -0.00127488 -0.00532499 0.00968655 0.00130348 -0.00534162 0.00101191 -0.00270891 -0.00218505 0.00147643 -0.00577439 -0.00396091 0.0001571
internal_weight=3166 1208 1958 523 683 685 292 1275 983 349 309 190 556 129 292 174 391 244 312 158 102 149 139 63 271 322 920 116 69 105 298 104 151 207 73 59 33 24 45 31 139 41 26 161 58 101 76 44 119 76 21
internal_count=3166 1208 1958 523 683 685 292 1275 983 349 309 190 556 129 292 174 391 244 312 158 102 149 139 63 271 322 920 116 69 105 298 104 151 207 73 59 33 24 45 31 139 41 26 161 58 101 76 44 119 76 21
is_linear=0
shrinkage=0.04


Tree=16
num_leaves=63
num_cat=0
split_feature=44 31 31 30 12 30 12 11 12 32 4 32 44 3 11 37 44 4 44 27 32 12 29 10 44 4 37 10 38 3 32 28 12 11 37 16 4 28 12 3 11 11 37 3 44 3 38 38 4 2 11 44 37 29 4 3 12 3 10 11 16 38
split_gain=76.8902 20.5356 16.2211 11.6594 10.9413 4.74489 3.83561 3.28647 2.72894 2.45685 2.38419 1.53414 1.48791 1.19059 1.13957 0.984503 0.929703 0.749808 0.731938 0.691397 0.601501 0.516931 0.410129 0.361358 0.356525 0.341349 0.337638 0.325832 0.321474 0.314353 0.297677 0.270706 0.259408 0.219473 0.200118 0.176825 0.171667 0.17045 0.155445 0.153397 0.100922 0.0905823 0.0873044 0.0753916 0.0752269 0.072395 0.0654908 0.0551508 0.0502153 0.0463509 0.0412156 0.0388858 0.0373824 0.0369378 0.0320555 0.0279987 0.0432857 0.027763 0.0244258 0.0242562 0.0238304 0.0233055
threshold=-0.14935273363551763 1.0000000180025095e-35 1.0000000180025095e-35 1.0000000180025095e-35 0.14539747694182362 1.0000000180025095e-35 -0.58297257705912331 1.4708922550032957 0.14539747694182362 1.0000000180025095e-35 5.1060194628402771 0.80258510587745868 0.35991929235089287 1.0000000180025095e-35 1.4708922550032957 1.0000000180025095e-35 0.74048640545184885 2.1926572967220079 -0.56431512518000015 1.0000000180025095e-35 1.0000000180025095e-35 -0.58297257705912331 2.0501747365216541 -0.79009557349826887 -0.46889596562699082 0.09121573427604325 1.0000000180025095e-35 -0.79009557349826887 0.52267427271319822 1.2888465233542481 0.80258510587745868 1.0000000180025095e-35 -0.88467333185273911 1.4708922550032957 -0.91780926845849897 -0.64606731721380717 -0.35454459715188852 1.0000000180025095e-35 -1.2865240233142008 -1.0457374993534729 1.3774317314115396 -0.59813417604700292 1.1924188680263286 1.7265810276119458 -0.37680538140722597 -0.53504724438615903 1.9573658622689694 -0.65764257623903133 0.3459359236634329 0.29320187203068104 1.1968798644599881 0.50082898145824395 1.0000000180025095e-35 2.0501747365216541 -0.29086454980504112 -1.1186932500630891 -1.2865240233142008 -1.2646047514823218 1.0000000180025095e-35 1.4708922550032957 -0.0056637084790189399 -0.11734987338393883
decision_type=2 2 2 2 2 2 2 2 2 2 2 2 2 2 2 2 2 2 2 2 2 2 2 2 2 2 2 2 2 2 2 2 2 2 2 2 2 2 2 2 2 2 2 2 2 2 2 2 2 2 2 2 2 2 2 2 2 2 2 2 2 2
left_child=2 7 4 16 6 11 18 10 21 17 12 13 27 33 32 53 34 26 19 -1 -10 24 -17 31 -7 40 -6 37 44 50 -12 -20 45 36 51 -9 -4 -2 -15 47 -8 -25 -28 -31 52 -5 -30 -18 -34 -29 -13 -3 -11 -14 -37 61 -57 -49 -26 -22 -46 -36
right_child=1 3 5 14 9 8 25 35 20 28 30 29 15 38 -16 22 39 -19 23 -21 59 -23 -24 41 58 -27 42 49 46 43 -32 -33 48 -35 55 54 -38 -39 -40 -41 -42 -43 -44 -45 60 -47 -48 57 -50 -51 -52 -53 -54 -55 -56 56 -58 -59 -60 -61 -62 -63
leaf_value=-0.0067201945549911924 0.002513530768778013 -0.0068822403985418779 -0.0072081241208527772 0.0085820584663500385 -0.0075156194200025539 -0.0027820201178009696 0.014342782216194351 0.004436476047771672 -0.0071742765158414844 -7.2981582446531812e-05 0.017452910142786365 0.0031653019298206672 0.0096001442819833756 -0.0066170249949006931 -0.00233478317107074 0.013485634540396979 -0.0015788228069186997 0.0041637607623751342 -9.0408267668233463e-05 0.0031204927290279056 0.00073703081160783786 0.010784157413244249 0.017291003203138391 0.0029457332823764194 0.0026621064094028298 0.021282747000455859 -0.0051835967281441773 0.010309202316866701 0.0030914575580507507 -0.002137421894494606 0.030069130556923996 0.0054350059207785755 0.010213708612564447 -0.0093289061342516251 -0.0033344913893021064 -0.003044640440832485 -0.0041599627546111649 0.0079311163065334169 -0.0097106399146953924 -0.003397564008493315 0.0083613301936317896 0.0082986218293125812 -0.0031544860293683803 -0.0058630378456027421 0 0.0038997547318538029 0.0078543456320961311 0.0017304929144259901 0.013496744990348817 0.0062102259708678026 -2.9639905149286424e-05 -0.0040037523832482597 0.0018922730451183659 0.012423070525014124 0 -0.0009208181334490127 -0.0044814450693582853 7.6204723698344637e-05 0.0062048739775231012 -0.0016249541044235224 -0.0028606305693586668 -0.00058252848158864409
leaf_weight=17 22 75 55 32 106 11.999999999999998 38 10.999999999999998 71 21 15.999999999999998 10.000000000000002 116 45 10.999999999999998 245 18 11.999999999999998 25 30 17 19 93 9.9999999999999982 13.000000000000002 14.999999999999998 156 118 19.000000000000004 22 13.000000000000002 28 73 30 12.000000000000002 9.9999999999999982 108 23 800 21 15.999999999999998 51 68 26 10.000000000000002 13.999999999999998 10.999999999999998 30 45 15.999999999999998 9.9999999999999982 23 34 42 16.000000000000004 9.9999999999999982 55 46 18 10.000000000000002 10.999999999999998 15.999999999999998
leaf_count=17 22 75 55 32 106 12 38 11 71 21 16 10 116 45 11 245 18 12 25 30 17 19 93 10 13 15 156 118 19 22 13 28 73 30 12 10 108 23 800 21 16 51 68 26 10 14 11 30 45 16 10 23 34 42 16 10 55 46 18 10 11 16
internal_value=2.88953e-05 0.00788882 -0.00491132 0.00143849 7.63307e-05 -0.00758354 0.00715586 0.0120629 -0.00110855 -0.00355718 0.0126729 -0.00851478 0.0121431 -0.00889788 0.00964972 0.0133043 -0.00326058 -0.00520562 0.00369733 -0.000421421 -0.0052642 0.00537586 0.0145924 0.0054191 0.00270445 0.0150005 -0.00556996 0.00884737 0.00172292 -0.00256479 0.0240556 0.0028012 0.0104871 -0.00594993 -0.00496605 0.000322279 -0.00525055 0.0054817 -0.00955864 -0.000375148 0.0128275 0.00754728 -0.00460215 -0.00431557 0.00026326 0.00735541 0.00516391 0.000286624 0.0116022 0.00989903 0.00145201 -0.00629435 0.00108257 0.0104491 -0.00137004 -0.00347172 -0.00401651 0.000795155 0.00497382 -2.17122e-05 -0.00165241 -0.00197419
internal_weight=3166 1222 1944 481 678 1266 230 741 160 448 704 1106 675 1038 175 496 306 342 161 47 98 62 338 114 43 69 330 179 106 68 29 53 164 193 191 37 163 45 845 115 54 61 224 48 76 46 30 94 118 134 20 98 55 158 26 93 65 76 31 27 21 28
internal_count=3166 1222 1944 481 678 1266 230 741 160 448 704 1106 675 1038 175 496 306 342 161 47 98 62 338 114 43 69 330 179 106 68 29 53 164 193 191 37 163 45 845 115 54 61 224 48 76 46 30 94 118 134 20 98 55 158 26 93 65 76 31 27 21 28
is_linear=0
shrinkage=0.04


Tree=17
num_leaves=58
num_cat=0
split_feature=1 1 1 0 0 1 37 31 32 32 28 32 1 3 32 1 1 0 30 26 12 1 29 1 1 30 10 12 16 11 12 3 1 1 1 1 31 1 1 3 10 1 3 38 30 31 1 38 30 1 38 3 1 3 1 38 1
split_gain=112.548 14.0672 9.73059 4.83371 4.73729 3.0889 1.75008 1.29967 1.3937 1.25687 0.98122 0.766515 0.765285 0.566837 0.482967 0.459629 0.456995 0.451892 0.428288 0.356617 0.497306 0.308554 0.279589 0.228824 0.206103 0.179343 0.159149 0.152913 0.126418 0.122455 0.107524 0.104093 0.0763094 0.0731051 0.0544643 0.0526853 0.0472406 0.0431969 0.0356286 0.0355247 0.0312561 0.0311117 0.0218772 0.0204288 0.0202936 0.019112 0.0178487 0.011383 0.00746072 0.00726651 0.00613811 0.00612136 0.00336821 0.002129 0.00188302 0.00184522 0.000460578
threshold=0.27313288437713001 0.9121810764731958 -0.41916932372694116 1.0058858285096008 1.0000000180025095e-35 1.8707533646172945 1.1924188680263286 1.0000000180025095e-35 0.80258510587745868 0.80258510587745868 1.0000000180025095e-35 0.80258510587745868 1.4447212365532507 -0.9727817486438568 1.0000000180025095e-35 0.64591099643316841 2.4032935246973492 1.0058858285096008 1.0000000180025095e-35 1.0000000180025095e-35 -0.88467333185273911 -0.046391211670902884 1.0000000180025095e-35 -0.84520145179098494 -0.79194743578297944 1.0000000180025095e-35 1.0140462120736891 -1.2865240233142008 -0.64606731721380717 -0.88708907878026733 1.2912198514597686 -0.24322424154769409 0.75241902844917929 -0.15289924368691379 0.060116820345108062 0.80567304445718479 1.0000000180025095e-35 -0.63218538775896305 -0.099645227678908349 -0.24322424154769409 -0.79009557349826887 -0.046391211670902884 -0.46209149367654284 -0.50498982734985731 1.0000000180025095e-35 1.0000000180025095e-35 0.5926569804251629 -0.44440825502715403 1.0000000180025095e-35 0.37964091639314096 -0.44440825502715403 -1.1916490007727056 -0.63218538775896305 0.2674660134196199 -1.1114715318310122 -0.50498982734985731 -0.57893137175095755
decision_type=2 2 2 2 2 2 2 2 2 2 2 2 2 2 2 2 2 2 2 2 2 2 2 2 2 2 2 2 2 2 2 2 2 2 2 2 2 2 2 2 2 2 2 2 2 2 2 2 2 2 2 2 2 2 2 2 2
left_child=2 3 7 9 6 12 11 14 25 10 19 22 13 36 24 46 26 -14 27 20 -2 53 29 54 -1 52 -7 31 -20 -4 -23 -6 49 -29 -30 43 -3 -25 -24 -15 -36 -13 -35 -17 -26 -19 47 -5 -37 -12 -33 -45 -9 -8 -10 -16 -27
right_child=1 5 4 15 18 16 21 8 23 -11 32 41 17 39 55 35 -18 45 28 -21 -22 30 38 37 44 56 -28 33 34 -31 -32 50 -34 42 40 48 -38 -39 -40 -41 -42 -43 -44 51 -46 -47 -48 -49 -50 -51 -52 -53 -54 -55 -56 -57 -58
leaf_value=-0.0074388003274127174 0.0078172502125854852 0.0091455549395084382 0.0018969446851393593 -0.0018752249309745353 0 0.016841430654579943 -0.0026234247865636025 -0.0093893604956933382 -0.0061713756691468384 0.014105352084811141 0.0049622774953022595 0.0064233681836298531 0.016800474583417518 0.011766574103150282 0 -0.0003013014572362105 0.028265196919441224 0.012936338446473562 0.0018799875121225009 -0.0021093534924663034 0.0028244821950595112 0.0032829723717535237 0.0026199721044860781 -0.001747021926773919 -0.0035987195048567859 -0.0070966995995034258 0.024579075898442954 -0.0066449289556492017 -0.0039783957466996952 -0.0016309437331460091 -0.0016630072878165681 -0.0022904108911752695 0.010462047079476445 -0.0055043090464340317 -0.0027555829332425049 0.0015725205112248658 0.0061290858452839238 0.0010086959243806846 0.0049874472580850124 0.015913056530450519 0 0.010701355950398879 -0.0036896092927704259 0.0017566112831396902 -0.0053383326672017577 0.0093008328058101514 -0.00081270645777968803 -0.0033620026494997246 0.0043583048755147799 0.0080895465978656905 -0.0050480479513736144 0.00026609845599159592 -0.0080176726426139013 -0.0041813093848685002 -0.003166194482491566 0.00052104518469423054 -0.0042446500202020006
leaf_weight=110 53 99 45 38 11.999999999999998 87 30 752 18.000000000000004 40 14.999999999999998 20 86 221 10.000000000000002 13.999999999999998 12.999999999999998 92 9.9999999999999982 11.999999999999998 93 16.000000000000004 29 17 42 56 12.999999999999998 147 28 22 9.9999999999999982 12.000000000000002 54 89 11.999999999999998 11 30 15.999999999999998 53 18 19.000000000000004 21 44 21.999999999999996 119 26 15.999999999999998 47 11 82 18 15.000000000000002 98 46 11.999999999999998 10.999999999999998 13.999999999999998
leaf_count=110 53 99 45 38 12 87 30 752 18 40 15 20 86 221 10 14 13 92 10 12 93 16 29 17 42 56 13 147 28 22 10 12 54 89 12 11 30 16 53 18 19 21 44 22 119 26 16 47 11 82 18 15 98 46 12 11 14
internal_value=2.99086e-05 0.00962825 -0.00589169 0.00466366 -0.0020271 0.0134006 0.00181454 -0.00795556 -0.00866345 0.00737363 0.00644662 0.00408372 0.0121447 0.0109243 -0.0055374 -0.000760091 0.0195602 0.0142627 -0.00490356 0.00415227 0.00470499 -0.00237214 0.00267779 -0.00276118 -0.00598916 -0.00905985 0.0181203 -0.00552329 -0.00191673 0.000672761 0.00124139 -0.00295706 0.0087779 -0.0058821 -0.00264752 0.0016123 0.00852736 -0.000302899 0.00424002 0.0121605 -0.00123367 0.00891239 -0.00496582 0.000771925 -0.00493423 0.0122538 -0.002513 -0.00277337 0.00326826 0.00770233 -0.00418349 0.00128052 -0.00924552 -0.00366036 -0.00523925 0.000117843 -0.00665045
internal_weight=3166 1208 1958 523 683 685 292 1275 983 349 309 190 572 368 292 174 113 204 391 158 146 102 149 63 271 920 100 322 69 67 26 42 151 280 59 73 129 33 82 239 31 41 133 51 161 118 101 85 22 97 30 37 850 76 30 21 70
internal_count=3166 1208 1958 523 683 685 292 1275 983 349 309 190 572 368 292 174 113 204 391 158 146 102 149 63 271 920 100 322 69 67 26 42 151 280 59 73 129 33 82 239 31 41 133 51 161 118 101 85 22 97 30 37 850 76 30 21 70
is_linear=0
shrinkage=0.04


Tree=18
num_leaves=62
num_cat=0
split_feature=1 1 1 39 1 30 1 12 11 26 31 1 31 26 39 30 39 1 1 39 39 11 30 11 10 11 39 30 39 2 2 31 2 9 12 10 9 1 31 1 11 1 44 1 1 24 9 39 12 9 38 1 10 1 37 11 1 38 1 1 30
